{"learner":{"attributes":{"scikit_learn":"{\"_estimator_type\": \"classifier\"}"},"feature_names":[],"feature_types":[],"gradient_booster":{"model":{"gbtree_model_param":{"num_parallel_tree":"1","num_trees":"300"},"iteration_indptr":[0,1,2,3,4,5,6,7,8,9,10,11,12,13,14,15,16,17,18,19,20,21,22,23,24,25,26,27,28,29,30,31,32,33,34,35,36,37,38,39,40,41,42,43,44,45,46,47,48,49,50,51,52,53,54,55,56,57,58,59,60,61,62,63,64,65,66,67,68,69,70,71,72,73,74,75,76,77,78,79,80,81,82,83,84,85,86,87,88,89,90,91,92,93,94,95,96,97,98,99,100,101,102,103,104,105,106,107,108,109,110,111,112,113,114,115,116,117,118,119,120,121,122,123,124,125,126,127,128,129,130,131,132,133,134,135,136,137,138,139,140,141,142,143,144,145,146,147,148,149,150,151,152,153,154,155,156,157,158,159,160,161,162,163,164,165,166,167,168,169,170,171,172,173,174,175,176,177,178,179,180,181,182,183,184,185,186,187,188,189,190,191,192,193,194,195,196,197,198,199,200,201,202,203,204,205,206,207,208,209,210,211,212,213,214,215,216,217,218,219,220,221,222,223,224,225,226,227,228,229,230,231,232,233,234,235,236,237,238,239,240,241,242,243,244,245,246,247,248,249,250,251,252,253,254,255,256,257,258,259,260,261,262,263,264,265,266,267,268,269,270,271,272,273,274,275,276,277,278,279,280,281,282,283,284,285,286,287,288,289,290,291,292,293,294,295,296,297,298,299,300],"tree_info":[0,0,0,0,0,0,0,0,0,0,0,0,0,0,0,0,0,0,0,0,0,0,0,0,0,0,0,0,0,0,0,0,0,0,0,0,0,0,0,0,0,0,0,0,0,0,0,0,0,0,0,0,0,0,0,0,0,0,0,0,0,0,0,0,0,0,0,0,0,0,0,0,0,0,0,0,0,0,0,0,0,0,0,0,0,0,0,0,0,0,0,0,0,0,0,0,0,0,0,0,0,0,0,0,0,0,0,0,0,0,0,0,0,0,0,0,0,0,0,0,0,0,0,0,0,0,0,0,0,0,0,0,0,0,0,0,0,0,0,0,0,0,0,0,0,0,0,0,0,0,0,0,0,0,0,0,0,0,0,0,0,0,0,0,0,0,0,0,0,0,0,0,0,0,0,0,0,0,0,0,0,0,0,0,0,0,0,0,0,0,0,0,0,0,0,0,0,0,0,0,0,0,0,0,0,0,0,0,0,0,0,0,0,0,0,0,0,0,0,0,0,0,0,0,0,0,0,0,0,0,0,0,0,0,0,0,0,0,0,0,0,0,0,0,0,0,0,0,0,0,0,0,0,0,0,0,0,0,0,0,0,0,0,0,0,0,0,0,0,0,0,0,0,0,0,0,0,0,0,0,0,0,0,0,0,0,0,0,0,0,0,0,0,0,0,0,0,0,0,0],"trees":[{"base_weights":[8.489812E-3,-3.9852062E-1,9.229725E-1,-5.8447003E-1,3.374477E-1,2.1061905E-1,1.3434378E0,-1.4515668E0,-4.9256605E-1,-8.43922E-1,7.2522235E-1,-5.625E-2,3.3575547E-1,2.0192905E-1,1.4587839E0,-5.9157893E-2,-2.3751186E-2,-5.891228E-3,-2.6112992E-2,-4.8255958E-2,2.2634724E-2,-5.4666664E-2,2.5148723E-2,1.2536299E-2,-5.3999998E-2,-3.174066E-2,2.7724784E-2,2.520674E-2,4.590459E-2],"categories":[],"categories_nodes":[],"categories_segments":[],"categories_sizes":[],"default_left":[0,0,0,0,0,0,0,0,0,0,0,0,0,0,0,0,0,0,0,0,0,0,0,0,0,0,0,0,0],"id":0,"left_children":[1,3,5,7,9,11,13,15,17,19,21,-1,23,25,27,-1,-1,-1,-1,-1,-1,-1,-1,-1,-1,-1,-1,-1,-1],"loss_changes":[9.077447E2,2.3116483E2,2.2469885E2,1.0667987E2,1.5684512E2,7.370198E1,6.1873596E1,4.2608612E1,1.3637592E2,1.0478224E2,7.563904E1,0E0,4.7228115E1,4.1464504E1,1.7638245E1,0E0,0E0,0E0,0E0,0E0,0E0,0E0,0E0,0E0,0E0,0E0,0E0,0E0,0E0],"parents":[2147483647,0,0,1,1,2,2,3,3,4,4,5,5,6,6,7,7,8,8,9,9,10,10,12,12,13,13,14,14],"right_children":[2,4,6,8,10,12,14,16,18,20,22,-1,24,26,28,-1,-1,-1,-1,-1,-1,-1,-1,-1,-1,-1,-1,-1,-1],"split_conditions":[1.385854E0,1.1652657E3,1.0401879E3,-1.7536663E0,-8.6254674E-1,3.5137695E-1,4.1614062E-1,-1.9487217E-1,3.0703443E-1,3.611656E1,-5.3312244E0,-5.625E-2,6.8938856E0,1.5607435E-1,-3.4890118E-1,-5.9157893E-2,-2.3751186E-2,-5.891228E-3,-2.6112992E-2,-4.8255958E-2,2.2634724E-2,-5.4666664E-2,2.5148723E-2,1.2536299E-2,-5.3999998E-2,-3.174066E-2,2.7724784E-2,2.520674E-2,4.590459E-2],"split_indices":[0,14,14,7,4,20,20,17,7,13,2,0,3,1,1,0,0,0,0,0,0,0,0,0,0,0,0,0,0],"split_type":[0,0,0,0,0,0,0,0,0,0,0,0,0,0,0,0,0,0,0,0,0,0,0,0,0,0,0,0,0],"sum_hessian":[2.4368484E3,1.686707E3,7.501415E2,1.346665E3,3.400419E2,2.789851E2,4.7115637E2,1.2763723E2,1.2190278E3,8.374213E1,2.5629977E2,1.5E1,2.639851E2,4.3492126E1,4.2766425E2,7.025E1,5.7387234E1,6.842202E2,5.348077E2,5.664117E1,2.7100956E1,1.025E1,2.4604977E2,2.5498509E2,9E0,1.5677446E1,2.781468E1,4.556074E1,3.821035E2],"tree_param":{"num_deleted":"0","num_feature":"22","num_nodes":"29","size_leaf_vector":"1"}},{"base_weights":[1.6207298E-2,-3.8220808E-1,9.1143906E-1,-4.710132E-1,9.330308E-1,3.0988967E-2,1.2542087E0,4.1467275E-2,-6.2843466E-1,1.4758367E-2,1.4920472E0,3.454065E-1,-1.7124985E0,-4.479173E-1,1.3136032E0,4.4237375E-3,-4.7728676E-2,-5.0207015E-2,-1.5987784E-2,-2.372364E-2,3.2302447E-2,7.565856E-3,4.8246533E-2,-5.3274862E-2,1.3415837E-2,-5.7255886E-2,-1.7082904E-2,-3.719285E-2,2.1331277E-2,4.7236495E-2,3.5012085E-2],"categories":[],"categories_nodes":[],"categories_segments":[],"categories_sizes":[],"default_left":[0,0,0,0,0,0,0,0,0,0,0,0,0,0,0,0,0,0,0,0,0,0,0,0,0,0,0,0,0,0,0],"id":1,"left_children":[1,3,5,7,9,11,13,15,17,19,21,23,25,27,29,-1,-1,-1,-1,-1,-1,-1,-1,-1,-1,-1,-1,-1,-1,-1,-1],"loss_changes":[8.7582416E2,1.9891862E2,2.2818945E2,1.285011E2,5.532306E1,1.17321434E2,5.5615967E1,6.5145546E1,1.2072092E2,3.6617733E1,9.24585E0,3.992637E1,6.2409744E0,1.8408495E1,1.8283142E1,0E0,0E0,0E0,0E0,0E0,0E0,0E0,0E0,0E0,0E0,0E0,0E0,0E0,0E0,0E0,0E0],"parents":[2147483647,0,0,1,1,2,2,3,3,4,4,5,5,6,6,7,7,8,8,9,9,10,10,11,11,12,12,13,13,14,14],"right_children":[2,4,6,8,10,12,14,16,18,20,22,24,26,28,30,-1,-1,-1,-1,-1,-1,-1,-1,-1,-1,-1,-1,-1,-1,-1,-1],"split_conditions":[1.44126E0,1.6067195E0,8.873307E-3,-1.5270902E0,1.5455972E0,3.920849E0,-1.1415199E-1,7.4030447E-1,-1.7790445E0,5.5995476E-1,2.4196161E1,-1.627784E0,2.6965845E0,7.6E1,3.9E1,4.4237375E-3,-4.7728676E-2,-5.0207015E-2,-1.5987784E-2,-2.372364E-2,3.2302447E-2,7.565856E-3,4.8246533E-2,-5.3274862E-2,1.3415837E-2,-5.7255886E-2,-1.7082904E-2,-3.719285E-2,2.1331277E-2,4.7236495E-2,3.5012085E-2],"split_indices":[0,1,15,2,16,3,21,12,7,20,13,7,19,5,5,0,0,0,0,0,0,0,0,0,0,0,0,0,0,0,0],"split_type":[0,0,0,0,0,0,0,0,0,0,0,0,0,0,0,0,0,0,0,0,0,0,0,0,0,0,0,0,0,0,0],"sum_hessian":[2.453554E3,1.6983088E3,7.55245E2,1.5914929E3,1.06815956E2,2.119397E2,5.433053E2,3.7416092E2,1.217332E3,4.08083E1,6.600766E1,1.8023781E2,3.1701887E1,1.8098473E1,5.2520685E2,3.5220264E2,2.1958288E1,1.0054653E2,1.1167854E3,2.3351194E1,1.7457104E1,5.9265375E0,6.008112E1,7.4997053E0,1.7273811E2,2.6489418E1,5.212469E0,1.0710763E1,7.3877096E0,1.853647E2,3.3984216E2],"tree_param":{"num_deleted":"0","num_feature":"22","num_nodes":"31","size_leaf_vector":"1"}},{"base_weights":[1.0686396E-4,-3.3723235E-1,9.5922244E-1,-5.114246E-1,2.878674E-1,1.7677057E-1,1.2225604E0,4.6676138E-1,-5.863716E-1,1.6206771E-1,1.2980222E0,5.184709E-1,-1.6008694E0,5.0434325E-2,1.3290287E0,2.9222757E-2,-1.6162088E-2,-5.1144153E-2,-1.4897341E-2,6.2188474E-3,-5.229773E-2,-3.0708776E-3,4.7332127E-2,-2.7707387E-2,2.3115087E-2,-5.5311434E-2,-1.5666261E-2,-5.392233E-2,2.142188E-2,2.316946E-2,4.2124122E-2],"categories":[],"categories_nodes":[],"categories_segments":[],"categories_sizes":[],"default_left":[0,0,0,0,0,0,0,0,0,0,0,0,0,0,0,0,0,0,0,0,0,0,0,0,0,0,0,0,0,0,0],"id":2,"left_children":[1,3,5,7,9,11,13,15,17,19,21,23,25,27,29,-1,-1,-1,-1,-1,-1,-1,-1,-1,-1,-1,-1,-1,-1,-1,-1],"loss_changes":[7.8845135E2,1.9645108E2,1.3043634E2,1.0366434E2,4.9798637E1,9.852516E1,5.9116272E1,5.2006287E1,1.3075043E2,3.0616028E1,1.7176788E1,5.0016304E1,5.8939743E0,5.098461E1,1.7092896E1,0E0,0E0,0E0,0E0,0E0,0E0,0E0,0E0,0E0,0E0,0E0,0E0,0E0,0E0,0E0,0E0],"parents":[2147483647,0,0,1,1,2,2,3,3,4,4,5,5,6,6,7,7,8,8,9,9,10,10,11,11,12,12,13,13,14,14],"right_children":[2,4,6,8,10,12,14,16,18,20,22,24,26,28,30,-1,-1,-1,-1,-1,-1,-1,-1,-1,-1,-1,-1,-1,-1,-1,-1],"split_conditions":[1.7868071E0,5.8794475E-1,8.873307E-3,-3.490575E0,3.0202987E0,3.920849E0,4.1463226E-1,7.1909827E-1,-1.8624451E0,7.174E-5,1.3298026E0,1.364E-5,7.2E1,1.4173594E-1,-3.4890118E-1,2.9222757E-2,-1.6162088E-2,-5.1144153E-2,-1.4897341E-2,6.2188474E-3,-5.229773E-2,-3.0708776E-3,4.7332127E-2,-2.7707387E-2,2.3115087E-2,-5.5311434E-2,-1.5666261E-2,-5.392233E-2,2.142188E-2,2.316946E-2,4.2124122E-2],"split_indices":[0,1,15,2,1,3,20,16,7,10,16,8,5,1,1,0,0,0,0,0,0,0,0,0,0,0,0,0,0,0,0],"split_type":[0,0,0,0,0,0,0,0,0,0,0,0,0,0,0,0,0,0,0,0,0,0,0,0,0,0,0,0,0,0,0],"sum_hessian":[2.4348967E3,1.8018131E3,6.330836E2,1.4092805E3,3.9253262E2,1.5983621E2,4.7324744E2,9.992046E1,1.30936E3,3.500941E2,4.2438553E1,1.3466002E2,2.517619E1,3.9529934E1,4.337175E2,6.643266E1,3.3487804E1,9.5972946E1,1.2133871E3,3.4284705E2,7.247045E0,7.1710434E0,3.526751E1,1.9637236E1,1.1502279E2,1.9970789E1,5.2054E0,9.993894E0,2.953604E1,5.2900013E1,3.8081747E2],"tree_param":{"num_deleted":"0","num_feature":"22","num_nodes":"31","size_leaf_vector":"1"}},{"base_weights":[-1.5306345E-2,-4.5337105E-1,6.9947803E-1,-3.578228E-1,-1.538639E0,-3.2796362E-1,1.07976E0,-5.214317E-1,4.9933726E-1,-1.838376E0,-6.534158E-1,-6.1891806E-1,1.1448314E0,-8.855208E-1,1.1580106E0,-2.1047529E-2,5.015717E-4,7.917945E-3,3.3211917E-2,-5.7314273E-2,-3.1992227E-2,5.1782993E-3,-5.4452576E-2,-2.450116E-2,4.5148555E-2,-2.26208E-2,4.452701E-2,2.2783875E-2,-4.6088886E-2,-5.2801922E-2,3.5743143E-2],"categories":[],"categories_nodes":[],"categories_segments":[],"categories_sizes":[],"default_left":[0,0,0,0,0,0,0,0,0,0,0,0,0,0,0,0,0,0,0,0,0,0,0,0,0,0,0,0,0,0,0],"id":3,"left_children":[1,3,5,7,9,11,13,15,17,19,21,23,25,27,29,-1,-1,-1,-1,-1,-1,-1,-1,-1,-1,-1,-1,-1,-1,-1,-1],"loss_changes":[7.5906213E2,1.553042E2,3.6026636E2,1.9416737E2,3.0988007E1,1.0766967E2,1.04453E2,1.1262421E2,3.1486008E1,2.9762268E0,3.1248276E1,8.905868E1,2.788242E1,2.934252E1,6.523041E1,0E0,0E0,0E0,0E0,0E0,0E0,0E0,0E0,0E0,0E0,0E0,0E0,0E0,0E0,0E0,0E0],"parents":[2147483647,0,0,1,1,2,2,3,3,4,4,5,5,6,6,7,7,8,8,9,9,10,10,11,11,12,12,13,13,14,14],"right_children":[2,4,6,8,10,12,14,16,18,20,22,24,26,28,30,-1,-1,-1,-1,-1,-1,-1,-1,-1,-1,-1,-1,-1,-1,-1,-1],"split_conditions":[1.0401879E3,4.0132194E0,-1.763719E-1,1.44126E0,9.0597217E2,4.0927483E1,-1.3528044E0,7.1E1,7.2E1,7.7E1,5.81057E0,4.2540336E0,-3.382E-5,2.3E1,-9.159E-5,-2.1047529E-2,5.015717E-4,7.917945E-3,3.3211917E-2,-5.7314273E-2,-3.1992227E-2,5.1782993E-3,-5.4452576E-2,-2.450116E-2,4.5148555E-2,-2.26208E-2,4.452701E-2,2.2783875E-2,-4.6088886E-2,-5.2801922E-2,3.5743143E-2],"split_indices":[14,3,4,0,14,13,1,5,5,5,3,12,11,5,11,0,0,0,0,0,0,0,0,0,0,0,0,0,0,0,0],"split_type":[0,0,0,0,0,0,0,0,0,0,0,0,0,0,0,0,0,0,0,0,0,0,0,0,0,0,0,0,0,0,0],"sum_hessian":[2.4221624E3,1.5020051E3,9.201572E2,1.3816893E3,1.20315796E2,2.4860808E2,6.7154913E2,1.160561E3,2.2112834E2,8.90774E1,3.1238398E1,2.0808093E2,4.0527153E1,2.531983E1,6.462293E2,8.6926135E2,2.912997E2,1.604223E2,6.070603E1,8.011963E1,8.957777E0,1.8754263E1,1.2484135E1,1.9091707E2,1.7163862E1,5.9601555E0,3.4566998E1,7.130033E0,1.8189798E1,6.7339277E0,6.3949536E2],"tree_param":{"num_deleted":"0","num_feature":"22","num_nodes":"31","size_leaf_vector":"1"}},{"base_weights":[1.1705753E-3,-4.5230922E-1,7.0809555E-1,-7.7285886E-1,-1.4618629E-1,-3.9046937E-1,1.0765333E0,-3.5676184E-1,-1.0751574E0,1.1921611E-1,-5.3379494E-1,-7.369218E-1,1.2839212E0,3.0909094E-1,1.1996027E0,-1.9098038E-2,2.366586E-2,-4.325389E-2,-2.0628713E-2,-6.2017688E-3,3.8144927E-2,-4.6348147E-2,-3.0996904E-3,-3.9384656E-2,-3.3036193E-3,4.8959073E-2,-6.5949108E-3,-2.6782379E-2,2.2053787E-2,1.36687895E-2,3.802907E-2],"categories":[],"categories_nodes":[],"categories_segments":[],"categories_sizes":[],"default_left":[0,0,0,0,0,0,0,0,0,0,0,0,0,0,0,0,0,0,0,0,0,0,0,0,0,0,0,0,0,0,0],"id":4,"left_children":[1,3,5,7,9,11,13,15,17,19,21,23,25,27,29,-1,-1,-1,-1,-1,-1,-1,-1,-1,-1,-1,-1,-1,-1,-1,-1],"loss_changes":[7.803671E2,1.4540717E2,3.8546024E2,9.0707886E1,7.82247E1,1.399674E2,6.69375E1,9.867662E1,5.853531E1,1.6995041E2,1.343306E2,7.176215E1,2.2053009E1,5.177434E1,3.0490356E1,0E0,0E0,0E0,0E0,0E0,0E0,0E0,0E0,0E0,0E0,0E0,0E0,0E0,0E0,0E0,0E0],"parents":[2147483647,0,0,1,1,2,2,3,3,4,4,5,5,6,6,7,7,8,8,9,9,10,10,11,11,12,12,13,13,14,14],"right_children":[2,4,6,8,10,12,14,16,18,20,22,24,26,28,30,-1,-1,-1,-1,-1,-1,-1,-1,-1,-1,-1,-1,-1,-1,-1,-1],"split_conditions":[1.0341871E3,5.266E-5,-1.763719E-1,5E1,3.0703443E-1,4.0927483E1,4.0319872E-1,4.9E1,1.2486248E-1,7.1E1,5.786058E-3,-7.8903484E-1,3.3037436E-1,1.1932372E3,2.9257858E-1,-1.9098038E-2,2.366586E-2,-4.325389E-2,-2.0628713E-2,-6.2017688E-3,3.8144927E-2,-4.6348147E-2,-3.0996904E-3,-3.9384656E-2,-3.3036193E-3,4.8959073E-2,-6.5949108E-3,-2.6782379E-2,2.2053787E-2,1.36687895E-2,3.802907E-2],"split_indices":[14,8,4,5,7,13,20,5,21,5,15,4,20,14,0,0,0,0,0,0,0,0,0,0,0,0,0,0,0,0,0],"split_type":[0,0,0,0,0,0,0,0,0,0,0,0,0,0,0,0,0,0,0,0,0,0,0,0,0,0,0,0,0,0,0],"sum_hessian":[2.432265E3,1.4819686E3,9.502963E2,7.231812E2,7.587874E2,2.3865192E2,7.116444E2,3.052297E2,4.179515E2,4.5080548E2,3.0798193E2,1.9820145E2,4.0450474E1,9.88351E1,6.128093E2,2.4566571E2,5.9563995E1,2.1336755E2,2.0458395E2,3.5204453E2,9.876098E1,9.1191536E1,2.1679039E2,1.0272448E2,9.547696E1,3.277852E1,7.6719537E0,2.557973E1,7.325537E1,5.198821E1,5.608211E2],"tree_param":{"num_deleted":"0","num_feature":"22","num_nodes":"31","size_leaf_vector":"1"}},{"base_weights":[1.2999408E-2,-4.4384265E-1,7.0830655E-1,-1.5281428E0,-3.5925633E-1,-2.6864848E-1,1.0844653E0,-1.6382786E0,3.2443283E-3,-2.520278E-1,-1.2732253E0,-6.387757E-1,9.189981E-1,-5.1959477E-2,1.112244E0,-5.276272E-2,-2.7015133E-2,-1.689476E-2,1.7698121E-3,-1.3223613E-3,-4.338133E-2,-2.5780926E-2,4.195344E-2,-2.5632784E-2,3.3888288E-2,-5.1053047E-2,3.41126E-2],"categories":[],"categories_nodes":[],"categories_segments":[],"categories_sizes":[],"default_left":[0,0,0,0,0,0,0,0,0,0,0,0,0,0,0,0,0,0,0,0,0,0,0,0,0,0,0],"id":5,"left_children":[1,3,5,7,9,11,13,15,-1,17,19,21,23,-1,25,-1,-1,-1,-1,-1,-1,-1,-1,-1,-1,-1,-1],"loss_changes":[7.782761E2,1.350679E2,3.573099E2,1.9405014E1,1.3423315E2,1.19658325E2,5.682019E1,7.3073425E0,0E0,1.19061676E2,3.050705E1,9.4272285E1,2.5156967E1,0E0,5.054785E1,0E0,0E0,0E0,0E0,0E0,0E0,0E0,0E0,0E0,0E0,0E0,0E0],"parents":[2147483647,0,0,1,1,2,2,3,3,4,4,5,5,6,6,7,7,9,9,10,10,11,11,12,12,14,14],"right_children":[2,4,6,8,10,12,14,16,-1,18,20,22,24,-1,26,-1,-1,-1,-1,-1,-1,-1,-1,-1,-1,-1,-1],"split_conditions":[1.0341871E3,-1.7536663E0,-4.7493763E-2,9.693E-5,3.6679714E0,3.5543648E1,-5.964566E0,1.0776886E0,3.2443283E-3,5.266E-5,-2.109369E-1,4.2540336E0,-9.877403E0,-5.1959477E-2,-9.159E-5,-5.276272E-2,-2.7015133E-2,-1.689476E-2,1.7698121E-3,-1.3223613E-3,-4.338133E-2,-2.5780926E-2,4.195344E-2,-2.5632784E-2,3.3888288E-2,-5.1053047E-2,3.41126E-2],"split_indices":[14,7,4,8,3,13,2,2,0,8,7,12,3,0,11,0,0,0,0,0,0,0,0,0,0,0,0],"split_type":[0,0,0,0,0,0,0,0,0,0,0,0,0,0,0,0,0,0,0,0,0,0,0,0,0,0,0],"sum_hessian":[2.4481506E3,1.4776455E3,9.705052E2,1.0569464E2,1.3719508E3,2.698749E2,7.0063025E2,9.902801E1,6.66663E0,1.229034E3,1.4291681E2,2.0610495E2,6.3769966E1,6.2436857E0,6.9438654E2,8.393718E1,1.509083E1,6.140037E2,6.1503033E2,1.7771936E1,1.2514487E2,1.8649016E2,1.9614794E1,6.444879E0,5.732509E1,5.4858317E0,6.889007E2],"tree_param":{"num_deleted":"0","num_feature":"22","num_nodes":"27","size_leaf_vector":"1"}},{"base_weights":[-2.7281994E-3,-3.971057E-1,6.383541E-1,-5.565062E-1,5.3398073E-2,-4.127331E-1,9.905694E-1,-6.2852275E-1,6.9724834E-1,2.002121E-1,-1.1743308E0,-7.5320953E-1,1.1215556E0,2.5242794E-1,1.1396203E0,-2.0601418E-2,2.6357923E-2,-5.0049756E-2,3.1844467E-2,-4.168127E-2,8.322208E-3,9.431694E-3,-4.3134138E-2,-2.7597511E-2,3.6774404E-2,4.310169E-2,-8.354383E-3,-1.5008E-2,1.7810613E-2,-2.3961991E-2,3.5352144E-2],"categories":[],"categories_nodes":[],"categories_segments":[],"categories_sizes":[],"default_left":[0,0,0,0,0,0,0,0,0,0,0,0,0,0,0,0,0,0,0,0,0,0,0,0,0,0,0,0,0,0,0],"id":6,"left_children":[1,3,5,7,9,11,13,15,17,19,21,23,25,27,29,-1,-1,-1,-1,-1,-1,-1,-1,-1,-1,-1,-1,-1,-1,-1,-1],"loss_changes":[6.115431E2,1.0756935E2,3.4146655E2,1.0032233E2,7.094657E1,1.22003746E2,7.566229E1,9.2398346E1,5.395581E1,4.348712E1,1.6944538E1,6.3947136E1,1.9163212E1,3.0417141E1,4.4098206E1,0E0,0E0,0E0,0E0,0E0,0E0,0E0,0E0,0E0,0E0,0E0,0E0,0E0,0E0,0E0,0E0],"parents":[2147483647,0,0,1,1,2,2,3,3,4,4,5,5,6,6,7,7,8,8,9,9,10,10,11,11,12,12,13,13,14,14],"right_children":[2,4,6,8,10,12,14,16,18,20,22,24,26,28,30,-1,-1,-1,-1,-1,-1,-1,-1,-1,-1,-1,-1,-1,-1,-1,-1],"split_conditions":[1.0341871E3,4.6353972E-1,-2.1799351E-1,2.4426315E0,3.920849E0,4.250302E1,-3.8887772E-1,7.6E1,2.2560726E1,4.068793E-3,1.5921933E1,4.2540336E0,4.9185402E1,9.2807725E-2,1.3067625E1,-2.0601418E-2,2.6357923E-2,-5.0049756E-2,3.1844467E-2,-4.168127E-2,8.322208E-3,9.431694E-3,-4.3134138E-2,-2.7597511E-2,3.6774404E-2,4.310169E-2,-8.354383E-3,-1.5008E-2,1.7810613E-2,-2.3961991E-2,3.5352144E-2],"split_indices":[14,1,4,16,3,13,1,5,13,15,13,12,13,21,13,0,0,0,0,0,0,0,0,0,0,0,0,0,0,0,0],"split_type":[0,0,0,0,0,0,0,0,0,0,0,0,0,0,0,0,0,0,0,0,0,0,0,0,0,0,0,0,0,0,0],"sum_hessian":[2.4168042E3,1.496547E3,9.202571E2,1.1052457E3,3.9130133E2,2.3093246E2,6.893246E2,1.0456798E3,5.9565872E1,3.5025424E2,4.1047108E1,1.8940941E2,4.1523056E1,1.1626106E2,5.7306354E2,1.0073303E3,3.8349537E1,7.47006E0,5.2095814E1,1.543431E1,3.3481992E2,6.1431084E0,3.4904E1,1.7518727E2,1.4222134E1,3.3871826E1,7.65123E0,3.612232E1,8.013874E1,1.0857133E1,5.622064E2],"tree_param":{"num_deleted":"0","num_feature":"22","num_nodes":"31","size_leaf_vector":"1"}},{"base_weights":[1.2506732E-2,-3.4170058E-1,8.0377173E-1,-6.423515E-1,9.240549E-2,-4.8360226E-1,1.029603E0,-7.171868E-1,6.199978E-1,6.7301067E-3,1.6848798E0,-1.1146479E0,8.1335366E-1,-1.2538462E0,1.0717542E0,3.4691226E-2,-2.3127727E-2,3.6272164E-2,-3.8287554E-2,-2.9847475E-2,6.2720417E-3,2.9307764E-2,5.4168362E-2,-3.9936595E-2,2.6868291E-2,3.880677E-2,-5.1232662E-2,-5.0066713E-2,-1.7492333E-2,-5.1060315E-2,3.30586E-2],"categories":[],"categories_nodes":[],"categories_segments":[],"categories_sizes":[],"default_left":[0,0,0,0,0,0,0,0,0,0,0,0,0,0,0,0,0,0,0,0,0,0,0,0,0,0,0,0,0,0,0],"id":7,"left_children":[1,3,5,7,9,11,13,15,17,19,21,23,25,27,29,-1,-1,-1,-1,-1,-1,-1,-1,-1,-1,-1,-1,-1,-1,-1,-1],"loss_changes":[6.8837714E2,2.2149577E2,2.2130142E2,9.515192E1,9.4827126E1,9.42296E1,6.356537E1,9.622452E1,6.4814835E1,1.3409854E2,1.2689667E0,3.4770393E1,4.8091965E1,2.4171867E0,5.5089478E1,0E0,0E0,0E0,0E0,0E0,0E0,0E0,0E0,0E0,0E0,0E0,0E0,0E0,0E0,0E0,0E0],"parents":[2147483647,0,0,1,1,2,2,3,3,4,4,5,5,6,6,7,7,8,8,9,9,10,10,11,11,12,12,13,13,14,14],"right_children":[2,4,6,8,10,12,14,16,18,20,22,24,26,28,30,-1,-1,-1,-1,-1,-1,-1,-1,-1,-1,-1,-1,-1,-1,-1,-1],"split_conditions":[1.1433093E3,4.2028508E-1,-6.98927E-1,2.4426315E0,7.6E1,3.611656E1,-5.964566E0,-4.064135E0,-1.1323744E0,-1.0865653E0,1.7853374E0,5.6712093E0,3.3037436E-1,4.079353E1,-9.159E-5,3.4691226E-2,-2.3127727E-2,3.6272164E-2,-3.8287554E-2,-2.9847475E-2,6.2720417E-3,2.9307764E-2,5.4168362E-2,-3.9936595E-2,2.6868291E-2,3.880677E-2,-5.1232662E-2,-5.0066713E-2,-1.7492333E-2,-5.1060315E-2,3.30586E-2],"split_indices":[14,4,4,16,5,13,2,2,0,16,2,3,20,18,11,0,0,0,0,0,0,0,0,0,0,0,0,0,0,0,0],"split_type":[0,0,0,0,0,0,0,0,0,0,0,0,0,0,0,0,0,0,0,0,0,0,0,0,0,0,0,0,0,0,0],"sum_hessian":[2.4541252E3,1.6956438E3,7.584815E2,1.0015298E3,6.94114E2,1.1302569E2,6.454558E2,9.458871E2,5.564274E1,6.5963E2,3.448398E1,7.612631E1,3.6899376E1,1.1177789E1,6.34278E2,2.5801374E1,9.200857E2,4.2730724E1,1.2912014E1,1.1019716E2,5.4943286E2,6.3485847E0,2.8135395E1,6.902753E1,7.098792E0,3.1404541E1,5.4948354E0,5.9859176E0,5.191871E0,6.2350125E0,6.28043E2],"tree_param":{"num_deleted":"0","num_feature":"22","num_nodes":"31","size_leaf_vector":"1"}},{"base_weights":[1.9062817E-3,-3.4579718E-1,7.2156E-1,-4.2440206E-1,8.527324E-1,6.914213E-2,9.990875E-1,-1.297668E0,-3.3869562E-1,-4.972228E-3,1.4224185E0,-3.1283912E-1,7.804574E-1,-7.702059E-1,1.0565665E0,6.5733334E-3,-4.8776876E-2,-4.1410906E-4,-1.7642185E-2,3.0598525E-2,-2.9156836E-2,1.5011821E-2,4.6326395E-2,4.490359E-3,-3.6794808E-2,1.1568426E-2,4.8451483E-2,1.5956381E-2,-3.9951768E-2,2.4619406E-2,4.1204356E-2],"categories":[],"categories_nodes":[],"categories_segments":[],"categories_sizes":[],"default_left":[0,0,0,0,0,0,0,0,0,0,0,0,0,0,0,0,0,0,0,0,0,0,0,0,0,0,0,0,0,0,0],"id":8,"left_children":[1,3,5,7,9,11,13,15,17,19,21,23,25,27,29,-1,-1,-1,-1,-1,-1,-1,-1,-1,-1,-1,-1,-1,-1,-1,-1],"loss_changes":[6.082316E2,1.5476263E2,1.4330374E2,1.14723145E2,4.9457024E1,6.474389E1,5.7301575E1,6.8643616E1,1.13625626E2,4.2007233E1,6.056694E0,6.5751434E1,2.6802578E1,1.3909538E1,3.9126343E1,0E0,0E0,0E0,0E0,0E0,0E0,0E0,0E0,0E0,0E0,0E0,0E0,0E0,0E0,0E0,0E0],"parents":[2147483647,0,0,1,1,2,2,3,3,4,4,5,5,6,6,7,7,8,8,9,9,10,10,11,11,12,12,13,13,14,14],"right_children":[2,4,6,8,10,12,14,16,18,20,22,24,26,28,30,-1,-1,-1,-1,-1,-1,-1,-1,-1,-1,-1,-1,-1,-1,-1,-1],"split_conditions":[1.2876933E0,1.6067195E0,8.914352E-3,-1.8518109E0,1.7437258E0,9.496E-5,-1.1415199E-1,-7.293887E0,-2.7688542E-1,-3.226774E-1,-1.8624451E0,5.0387543E-1,7.4E1,-5.816871E1,1.4300476E-2,6.5733334E-3,-4.8776876E-2,-4.1410906E-4,-1.7642185E-2,3.0598525E-2,-2.9156836E-2,1.5011821E-2,4.6326395E-2,4.490359E-3,-3.6794808E-2,1.1568426E-2,4.8451483E-2,1.5956381E-2,-3.9951768E-2,2.4619406E-2,4.1204356E-2],"split_indices":[0,1,15,7,16,8,21,12,7,16,7,7,5,18,15,0,0,0,0,0,0,0,0,0,0,0,0,0,0,0,0],"split_type":[0,0,0,0,0,0,0,0,0,0,0,0,0,0,0,0,0,0,0,0,0,0,0,0,0,0,0,0,0,0,0],"sum_hessian":[2.428731E3,1.6378951E3,7.908358E2,1.5376924E3,1.0020278E2,2.3638522E2,5.544506E2,1.361647E2,1.4015277E3,4.038757E1,5.981521E1,1.5416028E2,8.222495E1,1.7055508E1,5.373951E2,2.4282923E1,1.11881775E2,6.090737E2,7.92454E2,1.9579138E1,2.0808434E1,7.5754175E0,5.223979E1,1.02903694E2,5.1256588E1,5.681023E1,2.541472E1,5.1548715E0,1.1900637E1,3.101207E2,2.272744E2],"tree_param":{"num_deleted":"0","num_feature":"22","num_nodes":"31","size_leaf_vector":"1"}},{"base_weights":[-1.28191905E-2,-3.4281185E-1,7.1426105E-1,-4.4789994E-1,4.2507067E-1,6.0357664E-2,9.93753E-1,-1.28372E-1,-6.402337E-1,-4.033955E-1,8.150601E-1,3.300087E-1,-5.130517E-2,-5.3189833E-2,1.0475374E0,-9.727417E-3,2.7400762E-2,-3.2702617E-2,-7.135721E-3,-2.2613155E-2,2.5335643E-2,1.1481859E-2,3.549339E-2,-4.4194027E-3,3.165838E-2,9.176976E-3,3.444488E-2],"categories":[],"categories_nodes":[],"categories_segments":[],"categories_sizes":[],"default_left":[0,0,0,0,0,0,0,0,0,0,0,0,0,0,0,0,0,0,0,0,0,0,0,0,0,0,0],"id":9,"left_children":[1,3,5,7,9,11,13,15,17,19,21,23,-1,-1,25,-1,-1,-1,-1,-1,-1,-1,-1,-1,-1,-1,-1],"loss_changes":[5.800789E2,1.3438007E2,1.378787E2,8.9841705E1,6.5171936E1,1.0897037E2,8.052997E1,1.1273994E2,1.6503247E2,2.9015715E1,2.1313316E1,6.8662895E1,0E0,0E0,3.839789E1,0E0,0E0,0E0,0E0,0E0,0E0,0E0,0E0,0E0,0E0,0E0,0E0],"parents":[2147483647,0,0,1,1,2,2,3,3,4,4,5,5,6,6,7,7,8,8,9,9,10,10,11,11,14,14],"right_children":[2,4,6,8,10,12,14,16,18,20,22,24,-1,-1,26,-1,-1,-1,-1,-1,-1,-1,-1,-1,-1,-1,-1],"split_conditions":[1.385854E0,9.4348073E-1,8.873307E-3,5E1,2.3519663E1,3.920849E0,3.1530488E-1,4.9E1,6.8E1,5.987547E-1,1.5455972E0,9.496E-5,-5.130517E-2,-5.3189833E-2,-3.8887772E-1,-9.727417E-3,2.7400762E-2,-3.2702617E-2,-7.135721E-3,-2.2613155E-2,2.5335643E-2,1.1481859E-2,3.549339E-2,-4.4194027E-3,3.165838E-2,9.176976E-3,3.444488E-2],"split_indices":[0,1,15,5,13,3,20,5,5,20,16,8,0,0,1,0,0,0,0,0,0,0,0,0,0,0,0],"split_type":[0,0,0,0,0,0,0,0,0,0,0,0,0,0,0,0,0,0,0,0,0,0,0,0,0,0,0],"sum_hessian":[2.4156685E3,1.6619186E3,7.5374994E2,1.4622236E3,1.9969498E2,2.260638E2,5.276861E2,5.50062E2,9.121616E2,6.390509E1,1.3578989E2,1.9689099E2,2.9172808E1,9.452852E0,5.182333E2,4.6358377E2,8.647828E1,4.298658E2,4.822958E2,5.0205048E1,1.3700043E1,6.3380356E1,7.240953E1,1.1922342E2,7.766758E1,6.2396023E1,4.5583725E2],"tree_param":{"num_deleted":"0","num_feature":"22","num_nodes":"27","size_leaf_vector":"1"}},{"base_weights":[-1.934066E-2,-3.50164E-1,7.041383E-1,-5.054492E-1,3.1164044E-1,1.9081053E-1,1.02295E0,-5.614579E-1,6.6451097E-1,6.295445E-1,-3.054675E-1,4.607689E-1,-8.230845E-1,2.0674726E-1,1.1433321E0,-1.054095E-2,-2.7780887E-2,-2.5436025E-2,3.4801252E-2,-2.3698932E-3,2.6320847E-2,-2.4683801E-2,2.170303E-2,5.2142944E-3,3.2449406E-2,-4.677797E-2,5.535754E-3,-1.16032995E-2,2.1799238E-2,-1.2899396E-2,3.5344925E-2],"categories":[],"categories_nodes":[],"categories_segments":[],"categories_sizes":[],"default_left":[0,0,0,0,0,0,0,0,0,0,0,0,0,0,0,0,0,0,0,0,0,0,0,0,0,0,0,0,0,0,0],"id":10,"left_children":[1,3,5,7,9,11,13,15,17,19,21,23,25,27,29,-1,-1,-1,-1,-1,-1,-1,-1,-1,-1,-1,-1,-1,-1,-1,-1],"loss_changes":[5.6718524E2,1.6727151E2,1.21498566E2,8.670389E1,6.0941307E1,7.8692825E1,4.4812164E1,9.601581E1,4.643402E1,3.601243E1,5.6993748E1,4.0184128E1,4.518177E1,1.8841688E1,2.2390503E1,0E0,0E0,0E0,0E0,0E0,0E0,0E0,0E0,0E0,0E0,0E0,0E0,0E0,0E0,0E0,0E0],"parents":[2147483647,0,0,1,1,2,2,3,3,4,4,5,5,6,6,7,7,8,8,9,9,10,10,11,11,12,12,13,13,14,14],"right_children":[2,4,6,8,10,12,14,16,18,20,22,24,26,28,30,-1,-1,-1,-1,-1,-1,-1,-1,-1,-1,-1,-1,-1,-1,-1,-1],"split_conditions":[1.385854E0,6.42513E-1,1.0401879E3,5.2E-1,5.8727086E-1,3.5932474E0,-3.8887772E-1,3.0703443E-1,2.6109982E-1,-1.507044E0,1.6531752E0,2.6075146E0,8.767E-5,5.103326E-1,-1.1415199E-1,-1.054095E-2,-2.7780887E-2,-2.5436025E-2,3.4801252E-2,-2.3698932E-3,2.6320847E-2,-2.4683801E-2,2.170303E-2,5.2142944E-3,3.2449406E-2,-4.677797E-2,5.535754E-3,-1.16032995E-2,2.1799238E-2,-1.2899396E-2,3.5344925E-2],"split_indices":[0,1,14,6,12,3,1,7,20,7,1,12,8,20,21,0,0,0,0,0,0,0,0,0,0,0,0,0,0,0,0],"split_type":[0,0,0,0,0,0,0,0,0,0,0,0,0,0,0,0,0,0,0,0,0,0,0,0,0,0,0,0,0,0,0],"sum_hessian":[2.367722E3,1.6251224E3,7.4259955E2,1.3164647E3,3.0865778E2,2.8511935E2,4.574802E2,1.256818E3,5.9646687E1,2.0370084E2,1.0495694E2,2.2559758E2,5.9521774E1,5.915059E1,3.983296E2,7.9858105E2,4.5823694E2,1.4544698E1,4.5101986E1,5.2960682E1,1.5074016E2,6.997449E1,3.498245E1,1.5516359E2,7.043399E1,3.407694E1,2.5444832E1,2.7739048E1,3.1411541E1,8.382027E0,3.8994757E2],"tree_param":{"num_deleted":"0","num_feature":"22","num_nodes":"31","size_leaf_vector":"1"}},{"base_weights":[2.3760993E-2,-3.3921847E-1,6.82604E-1,-4.845544E-1,2.1028845E-1,8.311325E-2,1.0673286E0,-4.0809628E-1,-1.5191243E0,3.270972E-1,-1.5214071E0,-3.3120158E-1,5.486782E-1,-2.9177865E-2,1.0996989E0,-3.507887E-2,-8.690212E-3,-5.2436106E-2,-3.1538002E-2,-2.0337787E-2,1.5824683E-2,-5.3377148E-2,-1.999364E-2,-2.0250515E-3,-5.2820116E-2,-2.0308314E-2,2.2518342E-2,4.061302E-2,2.8783968E-2],"categories":[],"categories_nodes":[],"categories_segments":[],"categories_sizes":[],"default_left":[0,0,0,0,0,0,0,0,0,0,0,0,0,0,0,0,0,0,0,0,0,0,0,0,0,0,0,0,0],"id":11,"left_children":[1,3,5,7,9,11,13,15,17,19,21,23,25,-1,27,-1,-1,-1,-1,-1,-1,-1,-1,-1,-1,-1,-1,-1,-1],"loss_changes":[5.767273E2,1.2428755E2,1.9748975E2,9.667764E1,6.642852E1,6.498274E1,3.5519653E1,1.0303363E2,7.182312E0,6.201981E1,3.3934135E0,6.7122055E1,3.975224E1,0E0,1.701538E1,0E0,0E0,0E0,0E0,0E0,0E0,0E0,0E0,0E0,0E0,0E0,0E0,0E0,0E0],"parents":[2147483647,0,0,1,1,2,2,3,3,4,4,5,5,6,6,7,7,8,8,9,9,10,10,11,11,12,12,14,14],"right_children":[2,4,6,8,10,12,14,16,18,20,22,24,26,-1,28,-1,-1,-1,-1,-1,-1,-1,-1,-1,-1,-1,-1,-1,-1],"split_conditions":[1.1284157E0,1.1433093E3,1.0401879E3,3.6679714E0,5.892E-5,6.606E-5,-1.7007224E-1,-1.4412203E0,4.65018E1,2.5856563E-1,-8.785202E-1,3.0617127E0,5.727638E-3,-2.9177865E-2,3.9E1,-3.507887E-2,-8.690212E-3,-5.2436106E-2,-3.1538002E-2,-2.0337787E-2,1.5824683E-2,-5.3377148E-2,-1.999364E-2,-2.0250515E-3,-5.2820116E-2,-2.0308314E-2,2.2518342E-2,4.061302E-2,2.8783968E-2],"split_indices":[0,14,14,3,11,8,21,7,18,20,7,12,15,0,5,0,0,0,0,0,0,0,0,0,0,0,0,0,0],"split_type":[0,0,0,0,0,0,0,0,0,0,0,0,0,0,0,0,0,0,0,0,0,0,0,0,0,0,0,0,0],"sum_hessian":[2.409639E3,1.5539816E3,8.556572E2,1.2290385E3,3.2494315E2,3.3494724E2,5.2070996E2,1.1457577E3,8.3280815E1,3.0516953E2,1.977361E1,1.773811E2,1.5756612E2,7.680052E0,5.130299E2,1.5305739E2,9.9270026E2,5.4096115E1,2.91847E1,5.033622E1,2.548333E2,1.4361471E1,5.412139E0,1.506393E2,2.6741814E1,2.195559E1,1.3561053E2,1.7938124E2,3.3364868E2],"tree_param":{"num_deleted":"0","num_feature":"22","num_nodes":"29","size_leaf_vector":"1"}},{"base_weights":[2.3667939E-2,-2.8958187E-1,7.2315395E-1,-6.5975255E-1,-1.6285125E-2,-1.826817E-2,9.950391E-1,-2.6093122E-1,-9.7981966E-1,-1.2086577E0,6.369533E-2,-3.6430833E-1,8.014762E-1,-4.2934525E-1,1.0367146E0,-3.2484237E-2,4.2186375E-3,1.6007712E-2,-3.2191932E-2,3.7981257E-2,-4.5276813E-2,-4.0425938E-3,1.4752933E-2,9.461779E-3,-3.0027594E-2,6.0999617E-3,3.9121527E-2,4.487896E-2,-5.7241105E-2,5.281999E-3,3.291017E-2],"categories":[],"categories_nodes":[],"categories_segments":[],"categories_sizes":[],"default_left":[0,0,0,0,0,0,0,0,0,0,0,0,0,0,0,0,0,0,0,0,0,0,0,0,0,0,0,0,0,0,0],"id":12,"left_children":[1,3,5,7,9,11,13,15,17,19,21,23,25,27,29,-1,-1,-1,-1,-1,-1,-1,-1,-1,-1,-1,-1,-1,-1,-1,-1],"loss_changes":[5.3142633E2,1.6946466E2,1.5123962E2,9.056445E1,9.208026E1,5.7667324E1,3.302948E1,1.0514415E2,5.6222076E1,4.705571E1,7.694911E1,6.215533E1,1.7877037E1,4.929062E1,2.7494873E1,0E0,0E0,0E0,0E0,0E0,0E0,0E0,0E0,0E0,0E0,0E0,0E0,0E0,0E0,0E0,0E0],"parents":[2147483647,0,0,1,1,2,2,3,3,4,4,5,5,6,6,7,7,8,8,9,9,10,10,11,11,12,12,13,13,14,14],"right_children":[2,4,6,8,10,12,14,16,18,20,22,24,26,28,30,-1,-1,-1,-1,-1,-1,-1,-1,-1,-1,-1,-1,-1,-1,-1,-1],"split_conditions":[1.1433093E3,-4.133253E-2,-4.433459E-1,-1.087645E0,2.8349954E-1,6.234308E-1,1.3401055E1,7.1378195E-1,2.6994364E-3,-5.30794E-1,7.1E1,3.7E1,3.4682297E1,-2.4491744E0,-1.1246706E0,-3.2484237E-2,4.2186375E-3,1.6007712E-2,-3.2191932E-2,3.7981257E-2,-4.5276813E-2,-4.0425938E-3,1.4752933E-2,9.461779E-3,-3.0027594E-2,6.0999617E-3,3.9121527E-2,4.487896E-2,-5.7241105E-2,5.281999E-3,3.291017E-2],"split_indices":[14,0,0,0,20,1,13,19,15,12,5,5,13,7,1,0,0,0,0,0,0,0,0,0,0,0,0,0,0,0,0],"split_type":[0,0,0,0,0,0,0,0,0,0,0,0,0,0,0,0,0,0,0,0,0,0,0,0,0,0,0,0,0,0,0],"sum_hessian":[2.4233882E3,1.6742135E3,7.491746E2,7.104798E2,9.637337E2,2.012648E2,5.479098E2,3.1713156E2,3.9334824E2,5.9693478E1,9.040402E2,1.4191397E2,5.9350822E1,1.5310934E1,5.325989E2,1.0353171E2,2.1359987E2,2.255452E1,3.707937E2,6.1170864E0,5.357639E1,6.181551E2,2.8588513E2,6.8878235E1,7.303574E1,2.7740171E1,3.161065E1,6.6459637E0,8.66497E0,3.5124264E1,4.974746E2],"tree_param":{"num_deleted":"0","num_feature":"22","num_nodes":"31","size_leaf_vector":"1"}},{"base_weights":[-1.9925795E-2,-2.9412067E-1,8.009912E-1,-3.654754E-1,8.5129476E-1,1.6916332E-1,1.0502745E0,-6.5849495E-1,-8.8895835E-2,-8.830994E-1,1.1762111E0,-1.4405264E0,4.056645E-1,-6.727589E-1,1.0956358E0,-1.079215E-2,-3.7128147E-2,-5.2285315E-3,2.167204E-2,4.466053E-3,-4.753598E-2,-8.184253E-3,4.0189985E-2,-1.4160901E-2,-5.117783E-2,-3.6309164E-2,2.0589355E-2,-4.8215184E-2,1.2607132E-2,4.022396E-2,2.8675847E-2],"categories":[],"categories_nodes":[],"categories_segments":[],"categories_sizes":[],"default_left":[0,0,0,0,0,0,0,0,0,0,0,0,0,0,0,0,0,0,0,0,0,0,0,0,0,0,0,0,0,0,0],"id":13,"left_children":[1,3,5,7,9,11,13,15,17,19,21,23,25,27,29,-1,-1,-1,-1,-1,-1,-1,-1,-1,-1,-1,-1,-1,-1,-1,-1],"loss_changes":[5.3630005E2,1.4628088E2,9.378314E1,1.3625183E2,6.0229538E1,6.5291084E1,3.4157104E1,1.408276E2,6.014632E1,1.2645352E1,2.1419464E1,4.8479233E0,6.839447E1,1.2510059E1,1.3008026E1,0E0,0E0,0E0,0E0,0E0,0E0,0E0,0E0,0E0,0E0,0E0,0E0,0E0,0E0,0E0,0E0],"parents":[2147483647,0,0,1,1,2,2,3,3,4,4,5,5,6,6,7,7,8,8,9,9,10,10,11,11,12,12,13,13,14,14],"right_children":[2,4,6,8,10,12,14,16,18,20,22,24,26,28,30,-1,-1,-1,-1,-1,-1,-1,-1,-1,-1,-1,-1,-1,-1,-1,-1],"split_conditions":[1.8541149E0,7.6E1,9.833621E2,-2.54354E-1,-2.889705E-1,1.0909418E-1,-1.1415199E-1,3.0703443E-1,4.0927483E1,1.6504501E1,8.199747E-3,3.2228017E-1,-6.36E-6,1.8321859E0,3.9E1,-1.079215E-2,-3.7128147E-2,-5.2285315E-3,2.167204E-2,4.466053E-3,-4.753598E-2,-8.184253E-3,4.0189985E-2,-1.4160901E-2,-5.117783E-2,-3.6309164E-2,2.0589355E-2,-4.8215184E-2,1.2607132E-2,4.022396E-2,2.8675847E-2],"split_indices":[0,5,14,17,21,21,21,7,13,13,15,7,10,1,5,0,0,0,0,0,0,0,0,0,0,0,0,0,0,0,0],"split_type":[0,0,0,0,0,0,0,0,0,0,0,0,0,0,0,0,0,0,0,0,0,0,0,0,0,0,0,0,0,0,0],"sum_hessian":[2.380543E3,1.7849819E3,5.95561E2,1.6809468E3,1.0403524E2,1.6897061E2,4.265904E2,8.155448E2,8.654019E2,1.6143541E1,8.789169E1,2.0993347E1,1.4797726E2,1.0587715E1,4.1600266E2,5.390671E2,2.7647772E2,7.837029E2,8.169907E1,6.851375E0,9.292167E0,8.841689E0,7.905E1,5.1131434E0,1.5880204E1,2.1406406E1,1.26570854E2,5.4543266E0,5.133388E0,1.4793428E2,2.680684E2],"tree_param":{"num_deleted":"0","num_feature":"22","num_nodes":"31","size_leaf_vector":"1"}},{"base_weights":[1.5580239E-3,-2.607758E-1,7.2093314E-1,-4.0339187E-1,2.5348687E-1,-6.446574E-1,8.231713E-1,-6.0551994E-2,-6.1758715E-1,3.7481025E-1,-1.394381E0,-1.1364044E0,8.388679E-1,-5.3885344E-2,8.576925E-1,-7.3938644E-3,2.6506612E-2,-3.3852775E-2,-7.7395802E-3,3.6035322E-3,2.799371E-2,-1.0833275E-2,-5.551535E-2,2.9811876E-2,-5.3825576E-2,3.5964306E-3,4.5344707E-2,1.0709747E-2,2.81921E-2],"categories":[],"categories_nodes":[],"categories_segments":[],"categories_sizes":[],"default_left":[0,0,0,0,0,0,0,0,0,0,0,0,0,0,0,0,0,0,0,0,0,0,0,0,0,0,0,0,0],"id":14,"left_children":[1,3,5,7,9,11,13,15,17,19,21,23,25,-1,27,-1,-1,-1,-1,-1,-1,-1,-1,-1,-1,-1,-1,-1,-1],"loss_changes":[4.5411456E2,1.2942738E2,9.03067E1,1.01365875E2,7.718384E1,3.403633E1,5.567453E1,9.36093E1,1.5581091E2,5.0786766E1,1.1824783E1,5.010071E1,5.556815E0,0E0,2.3965698E1,0E0,0E0,0E0,0E0,0E0,0E0,0E0,0E0,0E0,0E0,0E0,0E0,0E0,0E0],"parents":[2147483647,0,0,1,1,2,2,3,3,4,4,5,5,6,6,7,7,8,8,9,9,10,10,11,11,12,12,14,14],"right_children":[2,4,6,8,10,12,14,16,18,20,22,24,26,-1,28,-1,-1,-1,-1,-1,-1,-1,-1,-1,-1,-1,-1,-1,-1],"split_conditions":[1.6795537E0,5.72311E-1,3.8811094E-1,5E1,1.4433868E0,7.6E1,-5.953E-5,4.9E1,5.266E-5,1.5455972E0,3.4493786E-1,3.9E1,1.0553101E0,-5.3885344E-2,-9.81853E-1,-7.3938644E-3,2.6506612E-2,-3.3852775E-2,-7.7395802E-3,3.6035322E-3,2.799371E-2,-1.0833275E-2,-5.551535E-2,2.9811876E-2,-5.3825576E-2,3.5964306E-3,4.5344707E-2,1.0709747E-2,2.81921E-2],"split_indices":[0,1,20,5,4,5,8,5,8,16,21,5,2,0,16,0,0,0,0,0,0,0,0,0,0,0,0,0,0],"split_type":[0,0,0,0,0,0,0,0,0,0,0,0,0,0,0,0,0,0,0,0,0,0,0,0,0,0,0,0,0],"sum_hessian":[2.4043367E3,1.7623132E3,6.4202356E2,1.3798632E3,3.8245004E2,4.4349106E1,5.9767444E2,5.3108844E2,8.487747E2,3.5694287E2,2.5507175E1,3.3484062E1,1.0865043E1,7.1106586E0,5.905638E2,4.4433115E2,8.675726E1,3.497675E2,4.9900723E2,2.4595691E2,1.1098596E2,8.360295E0,1.714688E1,7.779738E0,2.5704325E1,5.8210115E0,5.044031E0,8.389835E1,5.0666544E2],"tree_param":{"num_deleted":"0","num_feature":"22","num_nodes":"29","size_leaf_vector":"1"}},{"base_weights":[7.5856387E-3,-2.7099755E-1,6.627539E-1,-1.2709678E0,-1.8558648E-1,-6.865837E-1,8.8999027E-1,-1.4242164E0,1.3409926E-1,-4.4082215E-1,2.0533502E-1,-1.335874E0,6.4429694E-1,-1.0142397E0,9.371437E-1,-3.297864E-3,-4.7302824E-2,-4.5407575E-2,4.5863595E-2,2.0598173E-3,-1.9849947E-2,9.850854E-4,3.0283427E-2,-4.807317E-2,2.4442729E-2,3.4006953E-2,-4.9222227E-2,1.0028268E-2,-5.1300332E-2,3.81019E-2,2.0978447E-2],"categories":[],"categories_nodes":[],"categories_segments":[],"categories_sizes":[],"default_left":[0,0,0,0,0,0,0,0,0,0,0,0,0,0,0,0,0,0,0,0,0,0,0,0,0,0,0,0,0,0,0],"id":15,"left_children":[1,3,5,7,9,11,13,15,17,19,21,23,25,27,29,-1,-1,-1,-1,-1,-1,-1,-1,-1,-1,-1,-1,-1,-1,-1,-1],"loss_changes":[4.3451407E2,1.4243121E2,2.1839014E2,2.8458176E1,1.5376038E2,8.9811005E1,5.557245E1,2.3575027E1,3.4081726E1,1.0491991E2,8.4446236E1,4.1154182E1,4.034927E1,1.4814234E1,4.616162E1,0E0,0E0,0E0,0E0,0E0,0E0,0E0,0E0,0E0,0E0,0E0,0E0,0E0,0E0,0E0,0E0],"parents":[2147483647,0,0,1,1,2,2,3,3,4,4,5,5,6,6,7,7,8,8,9,9,10,10,11,11,12,12,13,13,14,14],"right_children":[2,4,6,8,10,12,14,16,18,20,22,24,26,28,30,-1,-1,-1,-1,-1,-1,-1,-1,-1,-1,-1,-1,-1,-1,-1,-1],"split_conditions":[1.15217E3,-1.7536663E0,-7.598147E-1,2.038771E0,4.5613295E-1,3.611656E1,-5.3312244E0,2.9024723E-1,3.83057E-1,-4.7567222E-1,1.0401879E3,5.6712093E0,3.3037436E-1,-4.2186286E-2,3.9E1,-3.297864E-3,-4.7302824E-2,-4.5407575E-2,4.5863595E-2,2.0598173E-3,-1.9849947E-2,9.850854E-4,3.0283427E-2,-4.807317E-2,2.4442729E-2,3.4006953E-2,-4.9222227E-2,1.0028268E-2,-5.1300332E-2,3.81019E-2,2.0978447E-2],"split_indices":[14,7,4,2,20,13,2,20,9,12,14,3,20,16,5,0,0,0,0,0,0,0,0,0,0,0,0,0,0,0,0],"split_type":[0,0,0,0,0,0,0,0,0,0,0,0,0,0,0,0,0,0,0,0,0,0,0,0,0,0,0,0,0,0,0],"sum_hessian":[2.378669E3,1.6694084E3,7.092605E2,1.3027715E2,1.5391313E3,1.01936516E2,6.07324E2,1.1745309E2,1.2824065E1,9.310887E2,6.0804266E2,6.8509415E1,3.3427105E1,1.4179848E1,5.9314417E2,1.2393568E1,1.0505952E2,5.8397393E0,6.984326E0,2.8175983E2,6.4932886E2,5.0150107E2,1.0654156E2,6.118108E1,7.3283334E0,2.794705E1,5.480054E0,5.0029325E0,9.176915E0,2.4537276E2,3.477714E2],"tree_param":{"num_deleted":"0","num_feature":"22","num_nodes":"31","size_leaf_vector":"1"}},{"base_weights":[1.2482033E-2,-2.6903245E-1,6.421053E-1,-3.3323717E-1,6.616016E-1,3.8580053E-2,8.7433386E-1,-2.6172975E-2,-5.224803E-1,-3.0974442E-2,8.0190337E-1,3.100083E-1,-4.848565E-2,-4.7201195E-1,9.238764E-1,-5.4477467E-3,2.7149532E-2,-3.8211048E-2,-9.939266E-3,2.739399E-2,-2.2572475E-2,-5.251376E-3,2.8777195E-2,-3.573608E-2,1.7541805E-2,2.181092E-2,3.5597924E-2],"categories":[],"categories_nodes":[],"categories_segments":[],"categories_sizes":[],"default_left":[0,0,0,0,0,0,0,0,0,0,0,0,0,0,0,0,0,0,0,0,0,0,0,0,0,0,0],"id":16,"left_children":[1,3,5,7,9,11,13,15,17,-1,19,21,-1,23,25,-1,-1,-1,-1,-1,-1,-1,-1,-1,-1,-1,-1],"loss_changes":[4.2370383E2,9.892378E1,1.0348172E2,8.98219E1,2.6247055E1,9.314816E1,3.6008087E1,8.5625595E1,1.3693298E2,0E0,1.785963E1,5.6236244E1,0E0,1.5584629E1,2.5755981E1,0E0,0E0,0E0,0E0,0E0,0E0,0E0,0E0,0E0,0E0,0E0,0E0],"parents":[2147483647,0,0,1,1,2,2,3,3,4,4,5,5,6,6,7,7,8,8,10,10,11,11,13,13,14,14],"right_children":[2,4,6,8,10,12,14,16,18,-1,20,22,-1,24,26,-1,-1,-1,-1,-1,-1,-1,-1,-1,-1,-1,-1],"split_conditions":[1.44126E0,1.5651379E0,8.873307E-3,5E1,1.9435715E1,3.920849E0,-1.1415199E-1,4.9E1,6E1,-3.0974442E-2,5.784E-5,8.042E-5,-4.848565E-2,7.6E1,1.4518901E-2,-5.4477467E-3,2.7149532E-2,-3.8211048E-2,-9.939266E-3,2.739399E-2,-2.2572475E-2,-5.251376E-3,2.8777195E-2,-3.573608E-2,1.7541805E-2,2.181092E-2,3.5597924E-2],"split_indices":[0,1,15,5,13,3,21,5,5,0,11,8,0,5,15,0,0,0,0,0,0,0,0,0,0,0,0],"split_type":[0,0,0,0,0,0,0,0,0,0,0,0,0,0,0,0,0,0,0,0,0,0,0,0,0,0,0],"sum_hessian":[2.388482E3,1.6509077E3,7.375742E2,1.5449623E3,1.0594547E2,2.0527174E2,5.323025E2,5.895317E2,9.5543054E2,7.6168075E0,9.832867E1,1.770442E2,2.8227537E1,1.8589693E1,5.1371277E2,5.0589777E2,8.363393E1,1.9266754E2,7.62763E2,9.2146996E1,6.1816735E0,1.01752914E2,7.52913E1,1.0985788E1,7.603904E0,2.9582846E2,2.1788432E2],"tree_param":{"num_deleted":"0","num_feature":"22","num_nodes":"27","size_leaf_vector":"1"}},{"base_weights":[-4.3912865E-3,-2.5255534E-1,7.4411225E-1,-3.981203E-1,3.5434783E-1,2.5390232E-1,9.7631735E-1,-3.2453713E-1,-1.3570479E0,-5.633007E-1,7.1788204E-1,-4.8105556E-1,5.732855E-1,-3.0426113E-2,1.0216768E0,-3.5661977E-2,-7.062852E-3,-2.6707335E-3,-4.6061456E-2,-6.8802694E-3,-4.9073227E-2,-3.3914592E-2,2.3998834E-2,1.9666428E-2,-2.7249197E-2,3.9330153E-3,3.6466543E-2,3.6497414E-2,2.5704576E-2],"categories":[],"categories_nodes":[],"categories_segments":[],"categories_sizes":[],"default_left":[0,0,0,0,0,0,0,0,0,0,0,0,0,0,0,0,0,0,0,0,0,0,0,0,0,0,0,0,0],"id":17,"left_children":[1,3,5,7,9,11,13,15,17,19,21,23,25,-1,27,-1,-1,-1,-1,-1,-1,-1,-1,-1,-1,-1,-1,-1,-1],"loss_changes":[4.3546515E2,1.5567935E2,6.619742E1,9.979028E1,1.142E2,4.4635303E1,3.6767975E1,1.0141336E2,2.2684097E1,3.449259E1,3.803826E1,2.8658876E1,3.7382366E1,0E0,1.140625E1,0E0,0E0,0E0,0E0,0E0,0E0,0E0,0E0,0E0,0E0,0E0,0E0,0E0,0E0],"parents":[2147483647,0,0,1,1,2,2,3,3,4,4,5,5,6,6,7,7,8,8,9,9,10,10,11,11,12,12,14,14],"right_children":[2,4,6,8,10,12,14,16,18,20,22,24,26,-1,28,-1,-1,-1,-1,-1,-1,-1,-1,-1,-1,-1,-1,-1,-1],"split_conditions":[1.8541149E0,1.2025343E3,1.0401879E3,3.6679714E0,-6.5359604E-1,1.2348163E0,-1.1415199E-1,-1.7536663E0,1.4849804E-1,7.1E1,-5.3312244E0,-1.4249127E0,7E1,-3.0426113E-2,5.677326E-1,-3.5661977E-2,-7.062852E-3,-2.6707335E-3,-4.6061456E-2,-6.8802694E-3,-4.9073227E-2,-3.3914592E-2,2.3998834E-2,1.9666428E-2,-2.7249197E-2,3.9330153E-3,3.6466543E-2,3.6497414E-2,2.5704576E-2],"split_indices":[0,14,14,3,4,4,21,7,20,5,2,16,5,0,2,0,0,0,0,0,0,0,0,0,0,0,0,0,0],"split_type":[0,0,0,0,0,0,0,0,0,0,0,0,0,0,0,0,0,0,0,0,0,0,0,0,0,0,0,0,0],"sum_hessian":[2.3423289E3,1.759601E3,5.827278E2,1.4194836E3,3.4011734E2,1.8797847E2,3.947493E2,1.3195654E3,9.991825E1,9.6352005E1,2.4376534E2,5.678949E1,1.3118898E2,8.319135E0,3.8643018E2,1.2219095E2,1.1973744E3,1.2504639E1,8.741362E1,7.439876E1,2.1953247E1,9.821361E0,2.3394398E2,1.5369126E1,4.1420364E1,7.8409805E1,5.277918E1,1.7415497E2,2.1227519E2],"tree_param":{"num_deleted":"0","num_feature":"22","num_nodes":"29","size_leaf_vector":"1"}},{"base_weights":[-1.598775E-3,-2.8469205E-1,6.2628883E-1,-4.0331304E-1,1.7530724E-1,1.3474742E-1,9.2866564E-1,-6.931757E-1,-1.7442815E-1,-5.3625E-1,4.5479766E-1,3.7427875E-1,-7.2116125E-1,-4.59054E-2,9.6290666E-1,-3.0872898E-2,-1.0352032E-2,1.4309561E-2,-1.1624881E-2,-3.835325E-2,1.3333388E-2,-4.8933122E-2,1.6520388E-2,4.1923234E-3,3.17455E-2,-4.318457E-2,4.5519724E-4,3.5762012E-2,2.411973E-2],"categories":[],"categories_nodes":[],"categories_segments":[],"categories_sizes":[],"default_left":[0,0,0,0,0,0,0,0,0,0,0,0,0,0,0,0,0,0,0,0,0,0,0,0,0,0,0,0,0],"id":18,"left_children":[1,3,5,7,9,11,13,15,17,19,21,23,25,-1,27,-1,-1,-1,-1,-1,-1,-1,-1,-1,-1,-1,-1,-1,-1],"loss_changes":[4.2054236E2,8.904993E1,1.0915155E2,8.590796E1,6.686611E1,5.7918915E1,3.9784058E1,6.650876E1,1.0093507E2,6.9666885E1,4.9111214E1,3.5198326E1,3.2724144E1,0E0,1.5407318E1,0E0,0E0,0E0,0E0,0E0,0E0,0E0,0E0,0E0,0E0,0E0,0E0,0E0,0E0],"parents":[2147483647,0,0,1,1,2,2,3,3,4,4,5,5,6,6,7,7,8,8,9,9,10,10,11,11,12,12,14,14],"right_children":[2,4,6,8,10,12,14,16,18,20,22,24,26,-1,28,-1,-1,-1,-1,-1,-1,-1,-1,-1,-1,-1,-1,-1,-1],"split_conditions":[1.385854E0,1.1433093E3,1.0401879E3,4.843E-5,-8.6254674E-1,3.5932474E0,-1.7007224E-1,8.453848E-1,-1.09E-6,3.141104E1,-5.3312244E0,2.9458184E0,7.574E-5,-4.59054E-2,1.1194531E-1,-3.0872898E-2,-1.0352032E-2,1.4309561E-2,-1.1624881E-2,-3.835325E-2,1.3333388E-2,-4.8933122E-2,1.6520388E-2,4.1923234E-3,3.17455E-2,-4.318457E-2,4.5519724E-4,3.5762012E-2,2.411973E-2],"split_indices":[0,14,14,8,4,3,21,19,11,13,2,12,8,0,2,0,0,0,0,0,0,0,0,0,0,0,0,0,0],"split_type":[0,0,0,0,0,0,0,0,0,0,0,0,0,0,0,0,0,0,0,0,0,0,0,0,0,0,0,0,0],"sum_hessian":[2.363907E3,1.6296842E3,7.3422284E2,1.295686E3,3.339981E2,2.801914E2,4.5403143E2,5.7079535E2,7.248907E2,9.393343E1,2.4006465E2,2.193638E2,6.0827606E1,5.6358104E0,4.4839563E2,2.8948694E2,2.813084E2,1.7835783E2,5.4653284E2,5.3295643E1,4.0637794E1,9.846366E0,2.3021829E2,1.6424338E2,5.512042E1,3.030697E1,3.0520634E1,1.8095396E2,2.6744168E2],"tree_param":{"num_deleted":"0","num_feature":"22","num_nodes":"29","size_leaf_vector":"1"}},{"base_weights":[1.1319812E-2,-2.5430402E-1,5.3177744E-1,-3.9856154E-1,3.3762652E-1,1.9089473E-2,7.7940327E-1,-4.8609933E-1,3.6505988E-1,9.885161E-2,8.90242E-1,2.333602E-1,-4.7195107E-2,1.6946653E-1,8.88541E-1,-2.9738028E-2,-1.094679E-2,-4.709165E-2,1.5681893E-2,1.5043866E-2,-9.519229E-3,-2.1453124E-2,3.0552775E-2,-3.4492128E-2,1.3462279E-2,-3.179535E-2,1.4153057E-2,2.7598E-2,-3.2479137E-2],"categories":[],"categories_nodes":[],"categories_segments":[],"categories_sizes":[],"default_left":[0,0,0,0,0,0,0,0,0,0,0,0,0,0,0,0,0,0,0,0,0,0,0,0,0,0,0,0,0],"id":19,"left_children":[1,3,5,7,9,11,13,15,17,19,21,23,-1,25,27,-1,-1,-1,-1,-1,-1,-1,-1,-1,-1,-1,-1,-1,-1],"loss_changes":[3.2602545E2,1.3346649E2,1.01153244E2,8.4131E1,4.0355988E1,8.926399E1,3.561737E1,6.865585E1,4.039791E1,3.6208344E1,1.973272E1,6.9188805E1,0E0,3.1265892E1,2.9184448E1,0E0,0E0,0E0,0E0,0E0,0E0,0E0,0E0,0E0,0E0,0E0,0E0,0E0,0E0],"parents":[2147483647,0,0,1,1,2,2,3,3,4,4,5,5,6,6,7,7,8,8,9,9,10,10,11,11,13,13,14,14],"right_children":[2,4,6,8,10,12,14,16,18,20,22,24,-1,26,28,-1,-1,-1,-1,-1,-1,-1,-1,-1,-1,-1,-1,-1,-1],"split_conditions":[1.1284157E0,5.72311E-1,8.873307E-3,2.1096246E2,1.6245229E0,3.920849E0,-3.4890118E-1,2.3455402E-1,4.4145007E-3,-3.226774E-1,7.4893134E-3,1.404E-5,-4.7195107E-2,4.2826498E-1,7.549622E0,-2.9738028E-2,-1.094679E-2,-4.709165E-2,1.5681893E-2,1.5043866E-2,-9.519229E-3,-2.1453124E-2,3.0552775E-2,-3.4492128E-2,1.3462279E-2,-3.179535E-2,1.4153057E-2,2.7598E-2,-3.2479137E-2],"split_indices":[0,1,15,18,16,3,1,20,15,16,15,8,0,20,12,0,0,0,0,0,0,0,0,0,0,0,0,0,0],"split_type":[0,0,0,0,0,0,0,0,0,0,0,0,0,0,0,0,0,0,0,0,0,0,0,0,0,0,0,0,0],"sum_hessian":[2.3563218E3,1.5604385E3,7.958832E2,1.25493E3,3.0550836E2,2.595612E2,5.36322E2,1.1261924E3,1.287377E2,2.1415489E2,9.135348E1,2.295271E2,3.003407E1,8.178783E1,4.5453418E2,2.1653432E2,9.096581E2,9.025782E0,1.1971193E2,1.0874513E2,1.0540976E2,6.416452E0,8.493702E1,3.0342417E1,1.991847E2,1.5648258E1,6.613957E1,4.4793384E2,6.6003466E0],"tree_param":{"num_deleted":"0","num_feature":"22","num_nodes":"29","size_leaf_vector":"1"}},{"base_weights":[-3.7813116E-2,-2.9631594E-1,5.622843E-1,-3.8547397E-1,4.2093405E-1,7.692675E-2,7.8401214E-1,-6.171018E-1,-1.5777332E-1,-8.830125E-1,7.150597E-1,3.043381E-1,-1.3405021E0,-1.1059209E0,8.3064497E-1,-3.384263E-2,-9.75701E-3,-1.2988876E-2,1.9069476E-3,-4.840736E-2,2.4444334E-2,-5.7319207E-3,3.3632178E-2,-4.3756515E-4,2.7133368E-2,-4.587059E-2,-9.586843E-3,-1.1754947E-2,-4.7090214E-2,3.9843516E-3,2.7678922E-2],"categories":[],"categories_nodes":[],"categories_segments":[],"categories_sizes":[],"default_left":[0,0,0,0,0,0,0,0,0,0,0,0,0,0,0,0,0,0,0,0,0,0,0,0,0,0,0,0,0,0,0],"id":20,"left_children":[1,3,5,7,9,11,13,15,17,19,21,23,25,27,29,-1,-1,-1,-1,-1,-1,-1,-1,-1,-1,-1,-1,-1,-1,-1,-1],"loss_changes":[3.587229E2,1.0351169E2,7.486731E1,7.574391E1,6.93439E1,7.114092E1,4.302896E1,1.0589499E2,4.427714E1,4.277057E1,5.4199066E1,3.636026E1,5.386139E0,3.3372078E0,2.9846252E1,0E0,0E0,0E0,0E0,0E0,0E0,0E0,0E0,0E0,0E0,0E0,0E0,0E0,0E0,0E0,0E0],"parents":[2147483647,0,0,1,1,2,2,3,3,4,4,5,5,6,6,7,7,8,8,9,9,10,10,11,11,12,12,13,13,14,14],"right_children":[2,4,6,8,10,12,14,16,18,20,22,24,26,28,30,-1,-1,-1,-1,-1,-1,-1,-1,-1,-1,-1,-1,-1,-1,-1,-1],"split_conditions":[1.4064363E0,1.4727747E-2,8.914352E-3,-2.54354E-1,-1.0826316E0,3.920849E0,3.2062748E-1,-4.1333783E-1,5.266E-5,-1.8731767E-1,-3.0996208E0,9.496E-5,2.4911606E0,2.5856563E-1,-3.8887772E-1,-3.384263E-2,-9.75701E-3,-1.2988876E-2,1.9069476E-3,-4.840736E-2,2.4444334E-2,-5.7319207E-3,3.3632178E-2,-4.3756515E-4,2.7133368E-2,-4.587059E-2,-9.586843E-3,-1.1754947E-2,-4.7090214E-2,3.9843516E-3,2.7678922E-2],"split_indices":[0,15,15,17,4,3,20,4,8,21,12,8,17,20,1,0,0,0,0,0,0,0,0,0,0,0,0,0,0,0,0],"split_type":[0,0,0,0,0,0,0,0,0,0,0,0,0,0,0,0,0,0,0,0,0,0,0,0,0,0,0,0,0,0,0],"sum_hessian":[2.3103743E3,1.6151328E3,6.952415E2,1.436972E3,1.7816081E2,2.1843623E2,4.7680527E2,7.114953E2,7.254767E2,3.2422054E1,1.4573875E2,1.8891252E2,2.952371E1,1.0934546E1,4.658707E2,2.576142E2,4.5388113E2,3.2297128E2,4.0250543E2,2.2702768E1,9.719285E0,4.525959E1,1.0047917E2,1.2399292E2,6.491961E1,2.4501778E1,5.021932E0,5.0316687E0,5.902878E0,5.454196E1,4.1132874E2],"tree_param":{"num_deleted":"0","num_feature":"22","num_nodes":"31","size_leaf_vector":"1"}},{"base_weights":[-1.0862792E-2,-2.4982807E-1,5.570896E-1,-1.2123342E0,-1.7100775E-1,-4.4675523E-1,6.9943506E-1,-1.3849013E0,2.6492885E-1,-3.730546E-1,1.6173802E-1,2.9829752E-1,-1.0474234E0,-4.4410698E-2,7.409253E-1,3.7643122E-3,-4.8623823E-2,-4.3131795E-2,4.942948E-2,-1.379836E-2,3.0913925E-2,-1.9373551E-2,8.2915025E-3,-5.0085638E-2,2.4072045E-2,-4.050119E-2,3.1828176E-4,1.0220514E-2,2.6836678E-2],"categories":[],"categories_nodes":[],"categories_segments":[],"categories_sizes":[],"default_left":[0,0,0,0,0,0,0,0,0,0,0,0,0,0,0,0,0,0,0,0,0,0,0,0,0,0,0,0,0],"id":21,"left_children":[1,3,5,7,9,11,13,15,17,19,21,23,25,-1,27,-1,-1,-1,-1,-1,-1,-1,-1,-1,-1,-1,-1,-1,-1],"loss_changes":[3.1415347E2,1.23390594E2,9.826477E1,3.1761719E1,1.0137827E2,3.8684483E1,5.5428986E1,3.954872E1,3.46716E1,1.1486194E2,5.2953903E1,4.0076263E1,1.5284355E1,0E0,3.5986145E1,0E0,0E0,0E0,0E0,0E0,0E0,0E0,0E0,0E0,0E0,0E0,0E0,0E0,0E0],"parents":[2147483647,0,0,1,1,2,2,3,3,4,4,5,5,6,6,7,7,8,8,9,9,10,10,11,11,12,12,14,14],"right_children":[2,4,6,8,10,12,14,16,18,20,22,24,26,-1,28,-1,-1,-1,-1,-1,-1,-1,-1,-1,-1,-1,-1,-1,-1],"split_conditions":[1.1433093E3,-1.7536663E0,-1.3528044E0,2.038771E0,4.5613295E-1,7.001718E-1,-4.7317964E-1,-1.9620043E0,3.7071586E-1,7.6E1,3.8E1,9.155952E0,1.4187479E0,-4.4410698E-2,1.9971933E1,3.7643122E-3,-4.8623823E-2,-4.3131795E-2,4.942948E-2,-1.379836E-2,3.0913925E-2,-1.9373551E-2,8.2915025E-3,-5.0085638E-2,2.4072045E-2,-4.050119E-2,3.1828176E-4,1.0220514E-2,2.6836678E-2],"split_indices":[14,7,1,2,20,16,21,1,9,5,5,18,2,0,13,0,0,0,0,0,0,0,0,0,0,0,0,0,0],"split_type":[0,0,0,0,0,0,0,0,0,0,0,0,0,0,0,0,0,0,0,0,0,0,0,0,0,0,0,0,0],"sum_hessian":[2.3126768E3,1.6281814E3,6.844952E2,1.2215216E2,1.5060293E3,8.474193E1,5.997533E2,1.09431404E2,1.2720758E1,9.3696985E2,5.6905945E2,3.8049603E1,4.669232E1,1.0554723E1,5.8919855E2,1.4845631E1,9.458577E1,5.6830187E0,7.0377398E0,8.829777E2,5.3992153E1,7.017038E1,4.9888904E2,7.2880673E0,3.0761536E1,3.609307E1,1.0599251E1,1.6432182E2,4.2487674E2],"tree_param":{"num_deleted":"0","num_feature":"22","num_nodes":"29","size_leaf_vector":"1"}},{"base_weights":[6.6772867E-3,-2.397915E-1,5.370551E-1,-3.8394496E-1,3.113624E-1,7.6746844E-2,7.417628E-1,1.18379034E-1,-5.168355E-1,3.8106966E-1,-5.0602213E-2,2.7312627E-1,-4.5429543E-2,-1.16949715E-1,8.367654E-1,-2.4106773E-3,6.482395E-2,-1.704305E-2,2.4220156E-2,4.0164297E-3,2.8140057E-2,9.707528E-4,2.4006533E-2,-3.2098223E-2,1.0452082E-2,2.0381756E-2,3.1665456E-2],"categories":[],"categories_nodes":[],"categories_segments":[],"categories_sizes":[],"default_left":[0,0,0,0,0,0,0,0,0,0,0,0,0,0,0,0,0,0,0,0,0,0,0,0,0,0,0],"id":22,"left_children":[1,3,5,7,9,11,13,15,17,19,-1,21,-1,23,25,-1,-1,-1,-1,-1,-1,-1,-1,-1,-1,-1,-1],"loss_changes":[3.0479294E2,1.2659633E2,6.9648285E1,8.432498E1,4.6687847E1,7.191101E1,4.1860107E1,1.0769426E2,6.823593E1,4.3963688E1,0E0,2.5930769E1,0E0,2.337645E1,1.5154633E1,0E0,0E0,0E0,0E0,0E0,0E0,0E0,0E0,0E0,0E0,0E0,0E0],"parents":[2147483647,0,0,1,1,2,2,3,3,4,4,5,5,6,6,7,7,8,8,9,9,11,11,13,13,14,14],"right_children":[2,4,6,8,10,12,14,16,18,20,-1,22,-1,24,26,-1,-1,-1,-1,-1,-1,-1,-1,-1,-1,-1,-1],"split_conditions":[1.2876933E0,5.72311E-1,8.914352E-3,4.2E1,1.5784386E0,3.920849E0,4.1614062E-1,4E1,7.7E1,1.5455972E0,-5.0602213E-2,1.5089034E0,-4.5429543E-2,-1.369317E-1,1.4300476E-2,-2.4106773E-3,6.482395E-2,-1.704305E-2,2.4220156E-2,4.0164297E-3,2.8140057E-2,9.707528E-4,2.4006533E-2,-3.2098223E-2,1.0452082E-2,2.0381756E-2,3.1665456E-2],"split_indices":[0,1,15,5,4,3,20,5,5,16,0,19,0,1,15,0,0,0,0,0,0,0,0,0,0,0,0],"split_type":[0,0,0,0,0,0,0,0,0,0,0,0,0,0,0,0,0,0,0,0,0,0,0,0,0,0,0],"sum_hessian":[2.3296343E3,1.5908893E3,7.3874506E2,1.2613013E3,3.2958807E2,2.2782655E2,5.1091852E2,2.6389435E2,9.974069E2,3.1925943E2,1.0328635E1,2.0353348E2,2.4293068E1,5.087122E1,4.600473E2,2.4136891E2,2.2525433E1,9.6078064E2,3.6626232E1,2.2197742E2,9.728201E1,1.4044267E2,6.309081E1,1.6264368E1,3.460685E1,2.6994708E2,1.9010022E2],"tree_param":{"num_deleted":"0","num_feature":"22","num_nodes":"27","size_leaf_vector":"1"}},{"base_weights":[1.2745488E-2,-2.4197105E-1,5.0228214E-1,-3.823414E-1,3.234337E-1,9.067138E-2,8.456683E-1,-1.1608775E0,-3.0684614E-1,4.3123418E-1,-4.7815996E-1,-5.1187012E-2,1.5998186E-1,-1.576562E-1,8.9793086E-1,6.545885E-3,-4.7241792E-2,-2.414169E-3,-1.9009292E-2,-1.8011583E-2,1.5818255E-2,-2.973414E-2,4.0720172E-2,-4.889673E-3,1.5519377E-2,-3.5682052E-2,2.4898132E-2,-2.4592287E-3,2.7985096E-2],"categories":[],"categories_nodes":[],"categories_segments":[],"categories_sizes":[],"default_left":[0,0,0,0,0,0,0,0,0,0,0,0,0,0,0,0,0,0,0,0,0,0,0,0,0,0,0,0,0],"id":23,"left_children":[1,3,5,7,9,11,13,15,17,19,21,-1,23,25,27,-1,-1,-1,-1,-1,-1,-1,-1,-1,-1,-1,-1,-1,-1],"loss_changes":[2.9257196E2,1.2261329E2,1.1342226E2,7.234088E1,2.6777596E1,4.5899105E1,2.3091248E1,6.2539856E1,8.346139E1,2.7223228E1,3.6112885E1,0E0,4.08985E1,2.3933542E1,1.4310486E1,0E0,0E0,0E0,0E0,0E0,0E0,0E0,0E0,0E0,0E0,0E0,0E0,0E0,0E0],"parents":[2147483647,0,0,1,1,2,2,3,3,4,4,5,5,6,6,7,7,8,8,9,9,10,10,12,12,13,13,14,14],"right_children":[2,4,6,8,10,12,14,16,18,20,22,-1,24,26,28,-1,-1,-1,-1,-1,-1,-1,-1,-1,-1,-1,-1,-1,-1],"split_conditions":[1.1284157E0,5.72311E-1,1.0702528E3,-1.8624451E0,8.6327803E-1,5.221407E2,-8.07207E-2,-6.7671113E0,3.0703443E-1,2.8E1,1.5764579E0,-5.1187012E-2,6.606E-5,7.4E1,-1.022383E0,6.545885E-3,-4.7241792E-2,-2.414169E-3,-1.9009292E-2,-1.8011583E-2,1.5818255E-2,-2.973414E-2,4.0720172E-2,-4.889673E-3,1.5519377E-2,-3.5682052E-2,2.4898132E-2,-2.4592287E-3,2.7985096E-2],"split_indices":[0,1,14,7,4,14,21,12,7,5,9,0,8,5,17,0,0,0,0,0,0,0,0,0,0,0,0,0,0],"split_type":[0,0,0,0,0,0,0,0,0,0,0,0,0,0,0,0,0,0,0,0,0,0,0,0,0,0,0,0,0],"sum_hessian":[2.344362E3,1.5423499E3,8.020123E2,1.235854E3,3.064959E2,3.653445E2,4.3666782E2,1.0797702E2,1.127877E3,2.7057083E2,3.592507E1,1.2691609E1,3.526529E2,2.151976E1,4.1514804E2,2.5032776E1,8.2944244E1,6.6705255E2,4.6082437E2,2.2596815E1,2.4797401E2,2.8437492E1,7.4875817E0,1.8551778E2,1.6713512E2,1.04246855E1,1.1095076E1,1.4233144E1,4.0091492E2],"tree_param":{"num_deleted":"0","num_feature":"22","num_nodes":"29","size_leaf_vector":"1"}},{"base_weights":[-6.99911E-3,-2.654102E-1,4.9918634E-1,-3.9416158E-1,2.7401498E-1,4.4924486E-2,7.6554924E-1,9.0908356E-2,-5.240183E-1,5.265663E-1,-2.3247251E-1,2.2076268E-1,-1.0274886E0,7.9208827E-1,-4.4630315E-2,-3.454041E-3,6.772891E-2,-1.758994E-2,1.8119281E-2,2.578592E-3,2.597956E-2,-3.0538637E-2,1.166446E-2,-5.0823223E-2,9.267157E-3,1.3631233E-2,-4.210326E-2,7.106796E-3,2.6617853E-2],"categories":[],"categories_nodes":[],"categories_segments":[],"categories_sizes":[],"default_left":[0,0,0,0,0,0,0,0,0,0,0,0,0,0,0,0,0,0,0,0,0,0,0,0,0,0,0,0,0],"id":24,"left_children":[1,3,5,7,9,11,13,15,17,19,21,23,25,27,-1,-1,-1,-1,-1,-1,-1,-1,-1,-1,-1,-1,-1,-1,-1],"loss_changes":[3.0181335E2,1.0619769E2,9.432373E1,7.775157E1,3.784822E1,5.4782104E1,3.0570496E1,1.1693952E2,6.876224E1,2.9403286E1,4.862325E1,4.261365E1,2.3440868E1,2.5493805E1,0E0,0E0,0E0,0E0,0E0,0E0,0E0,0E0,0E0,0E0,0E0,0E0,0E0,0E0,0E0],"parents":[2147483647,0,0,1,1,2,2,3,3,4,4,5,5,6,6,7,7,8,8,9,9,10,10,11,11,12,12,13,13],"right_children":[2,4,6,8,10,12,14,16,18,20,22,24,26,28,-1,-1,-1,-1,-1,-1,-1,-1,-1,-1,-1,-1,-1,-1,-1],"split_conditions":[1.1576396E0,5.72311E-1,9.8888E2,4.2E1,5.8727086E-1,3.920849E0,2.1843226E0,9.36514E-1,7.6E1,-1.0049666E0,7.1E1,5.18875E2,-2.109369E-1,-3.8887772E-1,-4.4630315E-2,-3.454041E-3,6.772891E-2,-1.758994E-2,1.8119281E-2,2.578592E-3,2.597956E-2,-3.0538637E-2,1.166446E-2,-5.0823223E-2,9.267157E-3,1.3631233E-2,-4.210326E-2,7.106796E-3,2.6617853E-2],"split_indices":[0,1,14,5,12,3,7,7,5,12,5,14,7,1,0,0,0,0,0,0,0,0,0,0,0,0,0,0,0],"split_type":[0,0,0,0,0,0,0,0,0,0,0,0,0,0,0,0,0,0,0,0,0,0,0,0,0,0,0,0,0],"sum_hessian":[2.3053594E3,1.5265308E3,7.788286E2,1.2325999E3,2.9393082E2,2.8830865E2,4.9051996E2,2.6035672E2,9.7224316E2,1.9610619E2,9.7824646E1,2.4837756E2,3.993108E1,4.8545065E2,5.0692873E0,2.3861285E2,2.1743874E1,9.218009E2,5.0442272E1,8.587791E1,1.1022828E2,4.2921448E1,5.49032E1,1.0128078E1,2.382495E2,8.038364E0,3.1892715E1,7.15504E1,4.1390027E2],"tree_param":{"num_deleted":"0","num_feature":"22","num_nodes":"29","size_leaf_vector":"1"}},{"base_weights":[2.6834222E-2,-2.4098717E-1,4.0874916E-1,-5.3818345E-1,3.6011145E-2,-1.8333451E-1,6.592303E-1,7.0292917E-3,-9.5217603E-1,1.7064679E0,-6.0326964E-2,-3.8879868E-1,1.0783725E0,-5.66841E-2,6.8780553E-1,-8.921975E-3,3.4482293E-2,-3.812208E-2,-1.4398629E-2,5.7755407E-2,1.1817774E-2,6.096764E-3,-1.3198016E-2,-2.7230594E-2,2.0095152E-4,-7.833572E-3,4.041756E-2,4.6026064E-3,2.4290744E-2],"categories":[],"categories_nodes":[],"categories_segments":[],"categories_sizes":[],"default_left":[0,0,0,0,0,0,0,0,0,0,0,0,0,0,0,0,0,0,0,0,0,0,0,0,0,0,0,0,0],"id":25,"left_children":[1,3,5,7,9,11,13,15,17,19,21,23,25,-1,27,-1,-1,-1,-1,-1,-1,-1,-1,-1,-1,-1,-1,-1,-1],"loss_changes":[2.3918796E2,1.1318053E2,1.4307011E2,1.4969727E2,1.1475087E2,7.490521E1,5.064557E1,1.0023055E2,5.6097015E1,1.0402893E1,6.757412E1,5.0864647E1,1.4939384E1,0E0,4.356598E1,0E0,0E0,0E0,0E0,0E0,0E0,0E0,0E0,0E0,0E0,0E0,0E0,0E0,0E0],"parents":[2147483647,0,0,1,1,2,2,3,3,4,4,5,5,6,6,7,7,8,8,9,9,10,10,11,11,12,12,14,14],"right_children":[2,4,6,8,10,12,14,16,18,20,22,24,26,-1,28,-1,-1,-1,-1,-1,-1,-1,-1,-1,-1,-1,-1,-1,-1],"split_conditions":[9.833621E2,5.266E-5,-1.0516839E-1,5E1,-3.966E-5,4.250302E1,-9.159E-5,4.9E1,9.401464E-1,-5.984098E-1,3.0703443E-1,-9.6956605E-1,-1.579E-5,-5.66841E-2,-3.4890118E-1,-8.921975E-3,3.4482293E-2,-3.812208E-2,-1.4398629E-2,5.7755407E-2,1.1817774E-2,6.096764E-3,-1.3198016E-2,-2.7230594E-2,2.0095152E-4,-7.833572E-3,4.041756E-2,4.6026064E-3,2.4290744E-2],"split_indices":[14,8,4,5,11,13,11,5,19,16,7,4,11,0,1,0,0,0,0,0,0,0,0,0,0,0,0,0,0],"split_type":[0,0,0,0,0,0,0,0,0,0,0,0,0,0,0,0,0,0,0,0,0,0,0,0,0,0,0,0,0],"sum_hessian":[2.3364834E3,1.3736016E3,9.628818E2,6.621869E2,7.114147E2,2.8632916E2,6.765526E2,2.8622382E2,3.7596307E2,3.7880016E1,6.7353467E2,2.4682628E2,3.950287E1,6.779161E0,6.697735E2,2.2658241E2,5.9641388E1,2.2349962E2,1.5246344E2,3.206944E1,5.8105755E0,3.9780936E2,2.757253E2,1.06199135E2,1.4062715E2,6.60872E0,3.289415E1,1.2481314E2,5.449603E2],"tree_param":{"num_deleted":"0","num_feature":"22","num_nodes":"29","size_leaf_vector":"1"}},{"base_weights":[5.972525E-3,-2.1596263E-1,5.1729524E-1,-3.387047E-1,2.6316088E-1,9.2758685E-1,3.3835143E-1,-9.00315E-1,-2.4397986E-1,3.3738327E-1,-4.958516E-2,1.177915E0,4.5801017E-1,4.1512153E-1,-1.2853742E0,-6.8240277E-3,-4.196179E-2,1.6195036E-4,-1.6714418E-2,-1.913557E-2,1.2722952E-2,3.6948543E-2,-2.6764192E-3,2.7366318E-2,-4.0939618E-2,-5.6778353E-2,1.3700752E-2,-5.1900703E-2,-9.06567E-3],"categories":[],"categories_nodes":[],"categories_segments":[],"categories_sizes":[],"default_left":[0,0,0,0,0,0,0,0,0,0,0,0,0,0,0,0,0,0,0,0,0,0,0,0,0,0,0,0,0],"id":26,"left_children":[1,3,5,7,9,11,13,15,17,19,-1,21,23,25,27,-1,-1,-1,-1,-1,-1,-1,-1,-1,-1,-1,-1,-1,-1],"loss_changes":[2.614693E2,9.457869E1,5.088684E1,6.7847626E1,4.7235657E1,2.4287933E1,6.1260452E1,6.148448E1,8.561361E1,2.7063457E1,0E0,9.441528E0,6.339949E1,4.5562134E1,9.198845E0,0E0,0E0,0E0,0E0,0E0,0E0,0E0,0E0,0E0,0E0,0E0,0E0,0E0,0E0],"parents":[2147483647,0,0,1,1,2,2,3,3,4,4,5,5,6,6,7,7,8,8,9,9,11,11,12,12,13,13,14,14],"right_children":[2,4,6,8,10,12,14,16,18,20,-1,22,24,26,28,-1,-1,-1,-1,-1,-1,-1,-1,-1,-1,-1,-1,-1,-1],"split_conditions":[1.385854E0,5.8794475E-1,4.5E1,-1.4412203E0,1.5784386E0,8.6E-6,6.65339E0,-1.6692513E0,3.0703443E-1,-8.180447E-1,-4.958516E-2,6.665E-5,-7.725494E-1,-1.8624451E0,1.7112638E0,-6.8240277E-3,-4.196179E-2,1.6195036E-4,-1.6714418E-2,-1.913557E-2,1.2722952E-2,3.6948543E-2,-2.6764192E-3,2.7366318E-2,-4.0939618E-2,-5.6778353E-2,1.3700752E-2,-5.1900703E-2,-9.06567E-3],"split_indices":[0,1,5,7,4,11,3,2,7,17,0,8,7,7,19,0,0,0,0,0,0,0,0,0,0,0,0,0,0],"split_type":[0,0,0,0,0,0,0,0,0,0,0,0,0,0,0,0,0,0,0,0,0,0,0,0,0,0,0,0,0],"sum_hessian":[2.3021057E3,1.6057302E3,6.963755E2,1.2784973E3,3.2723288E2,2.1021046E2,4.8616504E2,1.832903E2,1.095207E3,3.1582242E2,1.1410481E1,1.3613132E2,7.407915E1,4.649275E2,2.123753E1,7.861614E1,1.0467416E2,6.102455E2,4.8496155E2,2.526996E1,2.9055246E2,1.3062329E2,5.508028E0,5.9701336E1,1.4377811E1,7.438838E0,4.5748868E2,1.4100785E1,7.136745E0],"tree_param":{"num_deleted":"0","num_feature":"22","num_nodes":"29","size_leaf_vector":"1"}},{"base_weights":[2.090822E-2,-2.4997272E-1,4.650115E-1,-4.9172917E-1,-1.7004186E-2,-2.4350864E-1,7.126112E-1,-9.2410915E-2,-7.893182E-1,-4.7937933E-2,3.9804842E-2,-5.195393E-1,6.8162143E-1,1.3908467E-1,8.3097273E-1,-9.565854E-3,2.5867343E-2,-3.2826368E-2,-1.0189051E-2,5.48099E-2,-1.07324806E-4,-1.903605E-2,3.778222E-2,2.6094405E-2,-2.3992063E-2,1.080018E-2,-2.9455341E-2,2.8178204E-2,1.5144161E-2],"categories":[],"categories_nodes":[],"categories_segments":[],"categories_sizes":[],"default_left":[0,0,0,0,0,0,0,0,0,0,0,0,0,0,0,0,0,0,0,0,0,0,0,0,0,0,0,0,0],"id":27,"left_children":[1,3,5,7,9,11,13,15,17,-1,19,21,23,25,27,-1,-1,-1,-1,-1,-1,-1,-1,-1,-1,-1,-1,-1,-1],"loss_changes":[2.8327176E2,8.237105E1,1.5667451E2,8.5219955E1,6.705391E1,5.9539112E1,4.4778168E1,6.6777954E1,5.5996857E1,0E0,5.5907963E1,3.743245E1,1.5664221E1,2.86673E1,1.8883484E1,0E0,0E0,0E0,0E0,0E0,0E0,0E0,0E0,0E0,0E0,0E0,0E0,0E0,0E0],"parents":[2147483647,0,0,1,1,2,2,3,3,4,4,5,5,6,6,7,7,8,8,10,10,11,11,12,12,13,13,14,14],"right_children":[2,4,6,8,10,12,14,16,18,-1,20,22,24,26,28,-1,-1,-1,-1,-1,-1,-1,-1,-1,-1,-1,-1,-1,-1],"split_conditions":[1.0401879E3,5.266E-5,-1.763719E-1,5E1,3.4832621E-3,9.695159E-1,-3.8887772E-1,4.9E1,9.401464E-1,-4.7937933E-2,5.297E-5,4.2540336E0,9.6459305E-1,1.3116711E0,9.401464E-1,-9.565854E-3,2.5867343E-2,-3.2826368E-2,-1.0189051E-2,5.48099E-2,-1.07324806E-4,-1.903605E-2,3.778222E-2,2.6094405E-2,-2.3992063E-2,1.080018E-2,-2.9455341E-2,2.8178204E-2,1.5144161E-2],"split_indices":[14,8,4,5,15,1,1,5,19,0,8,12,9,19,19,0,0,0,0,0,0,0,0,0,0,0,0,0,0],"split_type":[0,0,0,0,0,0,0,0,0,0,0,0,0,0,0,0,0,0,0,0,0,0,0,0,0,0,0,0,0],"sum_hessian":[2.3527622E3,1.4616597E3,8.911026E2,7.1675586E2,7.449038E2,2.3076689E2,6.603357E2,3.0662427E2,4.1013162E2,2.489787E1,7.200059E2,1.7807358E2,5.2693317E1,1.1333592E2,5.4699976E2,2.4837419E2,5.8250072E1,2.4355989E2,1.6657173E2,1.60889E1,7.03917E2,1.6786562E2,1.0207962E1,4.7120003E1,5.573313E0,9.524345E1,1.8092474E1,4.0923685E2,1.3776292E2],"tree_param":{"num_deleted":"0","num_feature":"22","num_nodes":"29","size_leaf_vector":"1"}},{"base_weights":[1.05567835E-2,-1.8306029E-1,5.5984676E-1,-1.1148076E0,-1.0712064E-1,-4.775007E-1,6.9113946E-1,5.4447734E-1,-1.3878475E0,-3.3113238E-1,2.1836738E-1,2.9159164E-1,-1.0546372E0,-5.3197768E-2,7.3079556E-1,4.3904204E-2,-2.1522712E-2,-4.7404613E-2,-6.488815E-3,5.5103605E-3,-1.5994186E-2,-3.8509797E-2,8.762377E-3,-1.1478114E-2,3.7696004E-2,-4.7401175E-2,-1.2538118E-3,8.909611E-3,2.6494106E-2],"categories":[],"categories_nodes":[],"categories_segments":[],"categories_sizes":[],"default_left":[0,0,0,0,0,0,0,0,0,0,0,0,0,0,0,0,0,0,0,0,0,0,0,0,0,0,0,0,0],"id":28,"left_children":[1,3,5,7,9,11,13,15,17,19,21,23,25,-1,27,-1,-1,-1,-1,-1,-1,-1,-1,-1,-1,-1,-1,-1,-1],"loss_changes":[2.4549843E2,1.20647446E2,8.2265884E1,5.8980988E1,1.15222244E2,3.0570362E1,5.352423E1,2.294244E1,2.458519E1,9.742295E1,7.172307E1,2.000553E1,2.0776684E1,0E0,3.454355E1,0E0,0E0,0E0,0E0,0E0,0E0,0E0,0E0,0E0,0E0,0E0,0E0,0E0,0E0],"parents":[2147483647,0,0,1,1,2,2,3,3,4,4,5,5,6,6,7,7,8,8,9,9,10,10,11,11,12,12,14,14],"right_children":[2,4,6,8,10,12,14,16,18,20,22,24,26,-1,28,-1,-1,-1,-1,-1,-1,-1,-1,-1,-1,-1,-1,-1,-1],"split_conditions":[1.2025343E3,-1.7536663E0,-1.3190937E0,-1.9620043E0,4.4914237E-1,7.1909827E-1,-9.159E-5,8.974322E1,-4.558967E-1,-5.614657E-1,-1.673037E0,4.9012014E-1,4.0319872E-1,-5.3197768E-2,-1.1032243E-1,4.3904204E-2,-2.1522712E-2,-4.7404613E-2,-6.488815E-3,5.5103605E-3,-1.5994186E-2,-3.8509797E-2,8.762377E-3,-1.1478114E-2,3.7696004E-2,-4.7401175E-2,-1.2538118E-3,8.909611E-3,2.6494106E-2],"split_indices":[14,7,1,1,20,16,11,18,12,12,12,16,20,0,0,0,0,0,0,0,0,0,0,0,0,0,0,0,0],"split_type":[0,0,0,0,0,0,0,0,0,0,0,0,0,0,0,0,0,0,0,0,0,0,0,0,0,0,0,0,0],"sum_hessian":[2.3063958E3,1.7057938E3,6.0060187E2,1.27518295E2,1.5782755E3,6.7179306E1,5.3342255E2,1.7878023E1,1.09640274E2,9.348578E2,6.434178E2,2.9012285E1,3.8167023E1,7.7553744E0,5.256672E2,1.0252077E1,7.625947E0,9.388123E1,1.5759034E1,2.634786E2,6.7137915E2,2.9330725E1,6.1408704E2,1.743448E1,1.1577805E1,2.4761995E1,1.3405029E1,1.3738832E2,3.8827887E2],"tree_param":{"num_deleted":"0","num_feature":"22","num_nodes":"29","size_leaf_vector":"1"}},{"base_weights":[3.0067998E-3,-1.8103932E-1,5.401383E-1,-9.881434E-1,-1.10378236E-1,-6.171704E-1,7.293773E-1,-4.742909E-1,-4.686194E-2,1.2435869E-1,-4.1860023E-1,-1.2494199E0,9.6065384E-1,-5.16554E-2,7.655527E-1,-2.3106655E-2,3.697127E-2,-1.415879E-3,3.5981923E-2,3.4445822E-2,-1.918692E-2,-1.2520317E-2,-4.664004E-2,3.8493726E-2,-6.824852E-4,-3.4897532E-2,2.4268828E-2],"categories":[],"categories_nodes":[],"categories_segments":[],"categories_sizes":[],"default_left":[0,0,0,0,0,0,0,0,0,0,0,0,0,0,0,0,0,0,0,0,0,0,0,0,0,0,0],"id":29,"left_children":[1,3,5,7,9,11,13,15,-1,17,19,21,23,-1,25,-1,-1,-1,-1,-1,-1,-1,-1,-1,-1,-1,-1],"loss_changes":[2.2625233E2,9.710678E1,1.2836736E2,3.9690796E1,1.13536224E2,8.362574E1,4.5872406E1,3.8207348E1,0E0,1.6441406E2,2.3558096E2,1.4444008E1,7.704258E0,0E0,4.2455353E1,0E0,0E0,0E0,0E0,0E0,0E0,0E0,0E0,0E0,0E0,0E0,0E0],"parents":[2147483647,0,0,1,1,2,2,3,3,4,4,5,5,6,6,7,7,9,9,10,10,11,11,12,12,14,14],"right_children":[2,4,6,8,10,12,14,16,-1,18,20,22,24,-1,26,-1,-1,-1,-1,-1,-1,-1,-1,-1,-1,-1,-1],"split_conditions":[1.2025343E3,-1.7536663E0,-7.598147E-1,4.8E1,3.0703443E-1,4.250302E1,-9.159E-5,-6.1679024E-1,-4.686194E-2,7.1E1,4.5E1,-7.2573143E-1,3.0496565E-1,-5.16554E-2,-5.3312244E0,-2.3106655E-2,3.697127E-2,-1.415879E-3,3.5981923E-2,3.4445822E-2,-1.918692E-2,-1.2520317E-2,-4.664004E-2,3.8493726E-2,-6.824852E-4,-3.4897532E-2,2.4268828E-2],"split_indices":[14,7,4,5,7,13,11,12,0,5,5,9,20,0,2,0,0,0,0,0,0,0,0,0,0,0,0],"split_type":[0,0,0,0,0,0,0,0,0,0,0,0,0,0,0,0,0,0,0,0,0,0,0,0,0,0,0],"sum_hessian":[2.2866943E3,1.7036187E3,5.830756E2,1.3609798E2,1.5675206E3,8.162556E1,5.0145007E2,7.277041E1,6.3327568E1,8.9017456E2,6.773461E2,5.8423023E1,2.3202534E1,6.6151385E0,4.9483496E2,6.2484486E1,1.0285927E1,7.684944E2,1.21680214E2,8.320013E1,5.94146E2,1.6315588E1,4.2107437E1,1.724342E1,5.959115E0,1.032348E1,4.8451147E2],"tree_param":{"num_deleted":"0","num_feature":"22","num_nodes":"27","size_leaf_vector":"1"}},{"base_weights":[-6.0205377E-4,-1.8176723E-1,5.788233E-1,-2.7219662E-1,4.0990475E-1,-5.32178E-1,6.6105956E-1,-1.0410622E0,-2.0012291E-1,-4.2704187E-2,5.3360474E-1,2.9414404E-2,-9.820582E-1,-5.082733E-2,6.895644E-1,-5.169124E-3,-3.912056E-2,-7.465285E-3,2.6129387E-2,-7.660367E-4,2.8561566E-2,-4.2276077E-2,6.577518E-3,1.8003915E-2,3.3925228E-2],"categories":[],"categories_nodes":[],"categories_segments":[],"categories_sizes":[],"default_left":[0,0,0,0,0,0,0,0,0,0,0,0,0,0,0,0,0,0,0,0,0,0,0,0,0],"id":30,"left_children":[1,3,5,7,9,11,13,15,17,-1,19,-1,21,-1,23,-1,-1,-1,-1,-1,-1,-1,-1,-1,-1],"loss_changes":[2.4216728E2,9.414445E1,5.055655E1,8.430391E1,5.3691116E1,2.711148E1,3.5547714E1,2.9580765E1,7.304521E1,0E0,5.135063E1,0E0,1.5762493E1,0E0,1.9316833E1,0E0,0E0,0E0,0E0,0E0,0E0,0E0,0E0,0E0,0E0],"parents":[2147483647,0,0,1,1,2,2,3,3,4,4,5,5,6,6,7,7,8,8,10,10,12,12,14,14],"right_children":[2,4,6,8,10,12,14,16,18,-1,20,-1,22,-1,24,-1,-1,-1,-1,-1,-1,-1,-1,-1,-1],"split_conditions":[1.8541149E0,1.3867764E-2,3.915507E-1,-1.7790445E0,-4.017052E-1,3.9E1,-5.953E-5,-2.187777E0,7.6E1,-4.2704187E-2,-8.344554E-1,2.9414404E-2,7.6E1,-5.082733E-2,3.5285137E1,-5.169124E-3,-3.912056E-2,-7.465285E-3,2.6129387E-2,-7.660367E-4,2.8561566E-2,-4.2276077E-2,6.577518E-3,1.8003915E-2,3.3925228E-2],"split_indices":[0,15,20,7,21,5,8,0,5,0,7,0,5,0,13,0,0,0,0,0,0,0,0,0,0],"split_type":[0,0,0,0,0,0,0,0,0,0,0,0,0,0,0,0,0,0,0,0,0,0,0,0,0],"sum_hessian":[2.3049744E3,1.756475E3,5.484993E2,1.5240792E3,2.3239577E2,3.742471E1,5.1107462E2,1.2947073E2,1.3946085E3,1.4024778E1,2.1837099E2,8.308647E0,2.9116064E1,5.4124956E0,5.0566214E2,3.0467413E1,9.900332E1,1.3346678E3,5.9940712E1,9.387372E1,1.2449727E2,2.1351238E1,7.764826E0,4.224116E2,8.325053E1],"tree_param":{"num_deleted":"0","num_feature":"22","num_nodes":"25","size_leaf_vector":"1"}},{"base_weights":[7.744822E-3,-1.90829E-1,4.7275013E-1,-6.204529E-1,-7.000163E-2,6.3338965E-2,7.3981285E-1,4.9444506E-1,-1.1182225E0,-6.513771E-1,5.0505422E-2,-4.529787E-2,1.2897732E0,-4.3260302E-2,7.746563E-1,-1.6762294E-2,2.6528964E-2,-3.5498008E-2,1.6163526E-2,3.483365E-2,-2.3849068E-2,3.352269E-3,-3.1666737E-2,-3.800831E-2,1.9714187E-3,2.2340009E-2,4.3396454E-2,2.6301399E-2,1.35614155E-2],"categories":[],"categories_nodes":[],"categories_segments":[],"categories_sizes":[],"default_left":[0,0,0,0,0,0,0,0,0,0,0,0,0,0,0,0,0,0,0,0,0,0,0,0,0,0,0,0,0],"id":31,"left_children":[1,3,5,7,9,11,13,15,17,19,21,23,25,-1,27,-1,-1,-1,-1,-1,-1,-1,-1,-1,-1,-1,-1,-1,-1],"loss_changes":[2.1239037E2,8.36288E1,7.521138E1,1.968353E2,8.82505E1,3.640882E1,3.27787E1,4.5602646E1,2.7024384E1,5.7207237E1,7.082419E1,3.420357E1,8.2292557E-1,0E0,1.3121887E1,0E0,0E0,0E0,0E0,0E0,0E0,0E0,0E0,0E0,0E0,0E0,0E0,0E0,0E0],"parents":[2147483647,0,0,1,1,2,2,3,3,4,4,5,5,6,6,7,7,8,8,9,9,10,10,11,11,12,12,14,14],"right_children":[2,4,6,8,10,12,14,16,18,20,22,24,26,-1,28,-1,-1,-1,-1,-1,-1,-1,-1,-1,-1,-1,-1,-1,-1],"split_conditions":[1.385854E0,2.6109982E-1,1.0401879E3,-1.3671831E0,-1.4412203E0,7.6E1,-1.7007224E-1,-1.2466265E0,8.067E-5,1.5E1,1.2515424E0,2.71408E-2,1.3820527E0,-4.3260302E-2,9.2719615E-1,-1.6762294E-2,2.6528964E-2,-3.5498008E-2,1.6163526E-2,3.483365E-2,-2.3849068E-2,3.352269E-3,-3.1666737E-2,-3.800831E-2,1.9714187E-3,2.2340009E-2,4.3396454E-2,2.6301399E-2,1.35614155E-2],"split_indices":[0,20,14,12,7,5,21,7,10,5,4,21,7,0,19,0,0,0,0,0,0,0,0,0,0,0,0,0,0],"split_type":[0,0,0,0,0,0,0,0,0,0,0,0,0,0,0,0,0,0,0,0,0,0,0,0,0,0,0,0,0],"sum_hessian":[2.2981665E3,1.6108611E3,6.8730536E2,3.52686E2,1.258175E3,2.7182727E2,4.1547812E2,1.0886292E2,2.4382309E2,2.1526125E2,1.0429138E3,2.5059294E2,2.1234312E1,5.8960295E0,4.095821E2,2.9293486E1,7.956944E1,2.3488861E2,8.934473E0,1.5281621E1,1.9997963E2,9.8905414E2,5.3859726E1,2.0007275E1,2.3058568E2,6.0273085E0,1.5207004E1,3.098453E2,9.973679E1],"tree_param":{"num_deleted":"0","num_feature":"22","num_nodes":"29","size_leaf_vector":"1"}},{"base_weights":[-1.0578668E-2,-2.1070538E-1,4.7641957E-1,-1.3874465E-1,-8.4441257E-1,-5.5557853E-1,5.886571E-1,-3.934956E-1,7.7661686E-2,-1.2303362E0,-2.3487674E-1,-1.0495054E0,8.7066674E-1,-4.9893193E-2,6.272721E-1,1.0553449E-2,-1.680318E-2,-1.2418579E-2,6.677931E-3,-3.98006E-2,7.607333E-3,2.0088594E-2,-2.0780722E-2,-3.765351E-2,1.3885414E-2,3.4839597E-2,6.040389E-3,2.1576857E-2,-2.3655554E-3],"categories":[],"categories_nodes":[],"categories_segments":[],"categories_sizes":[],"default_left":[0,0,0,0,0,0,0,0,0,0,0,0,0,0,0,0,0,0,0,0,0,0,0,0,0,0,0,0,0],"id":32,"left_children":[1,3,5,7,9,11,13,15,17,19,21,23,25,-1,27,-1,-1,-1,-1,-1,-1,-1,-1,-1,-1,-1,-1,-1,-1],"loss_changes":[2.2013431E2,7.288256E1,7.652544E1,7.934867E1,3.806492E1,4.673398E1,5.2676163E1,8.227358E1,5.5580696E1,1.4576721E1,2.7150387E1,1.5744869E1,3.1273575E0,0E0,3.8011505E1,0E0,0E0,0E0,0E0,0E0,0E0,0E0,0E0,0E0,0E0,0E0,0E0,0E0,0E0],"parents":[2147483647,0,0,1,1,2,2,3,3,4,4,5,5,6,6,7,7,8,8,9,9,10,10,11,11,12,12,14,14],"right_children":[2,4,6,8,10,12,14,16,18,20,22,24,26,-1,28,-1,-1,-1,-1,-1,-1,-1,-1,-1,-1,-1,-1,-1,-1],"split_conditions":[1.1433093E3,3.6679714E0,-2.546926E-1,-1.881332E-2,9.0597217E2,3.5543648E1,-9.024E-5,-2.2272143E0,-1.0865653E0,3.755198E0,-8.291869E-1,2.6605346E0,1.4230892E3,-4.9893193E-2,3.779E-5,1.0553449E-2,-1.680318E-2,-1.2418579E-2,6.677931E-3,-3.98006E-2,7.607333E-3,2.0088594E-2,-2.0780722E-2,-3.765351E-2,1.3885414E-2,3.4839597E-2,6.040389E-3,2.1576857E-2,-2.3655554E-3],"split_indices":[14,3,21,0,14,13,11,0,16,19,16,2,14,0,11,0,0,0,0,0,0,0,0,0,0,0,0,0,0],"split_type":[0,0,0,0,0,0,0,0,0,0,0,0,0,0,0,0,0,0,0,0,0,0,0,0,0,0,0,0,0],"sum_hessian":[2.2566528E3,1.5997997E3,6.568532E2,1.4377542E3,1.620455E2,6.4042946E1,5.928103E2,6.599962E2,7.7775793E2,9.8599434E1,6.3446064E1,4.7765347E1,1.6277597E1,9.285322E0,5.8352496E2,1.2038444E2,5.3961176E2,1.7666493E2,6.0109296E2,9.268722E1,5.9122176E0,2.116602E1,4.2280045E1,4.2198364E1,5.5669813E0,1.0836683E1,5.4409146E0,5.1627356E2,6.725137E1],"tree_param":{"num_deleted":"0","num_feature":"22","num_nodes":"29","size_leaf_vector":"1"}},{"base_weights":[8.0700405E-3,-1.9069639E-1,4.8114896E-1,-2.4066637E-1,9.867313E-1,-6.9552857E-1,6.0323066E-1,-1.7634287E-1,-8.6624527E-1,1.2569789E0,-4.3491926E-2,-1.0827372E0,1.0330405E0,-4.9209002E-2,6.4741474E-1,-1.0505598E-2,1.092658E-3,-4.2614844E-2,-7.4542626E-3,4.1955516E-2,-1.7224828E-3,-4.486579E-2,-1.6199293E-2,2.0328952E-2,3.8087294E-2,2.2321755E-2,-2.4325345E-3],"categories":[],"categories_nodes":[],"categories_segments":[],"categories_sizes":[],"default_left":[0,0,0,0,0,0,0,0,0,0,0,0,0,0,0,0,0,0,0,0,0,0,0,0,0,0,0],"id":33,"left_children":[1,3,5,7,9,11,13,15,17,19,-1,21,23,-1,25,-1,-1,-1,-1,-1,-1,-1,-1,-1,-1,-1,-1],"loss_changes":[2.1431921E2,9.466537E1,9.728372E1,6.183188E1,4.4974525E1,4.385311E1,6.1674515E1,5.172292E1,4.873474E1,1.1154839E1,0E0,1.0988792E1,1.6502476E-1,0E0,4.2328766E1,0E0,0E0,0E0,0E0,0E0,0E0,0E0,0E0,0E0,0E0,0E0,0E0],"parents":[2147483647,0,0,1,1,2,2,3,3,4,4,5,5,6,6,7,7,8,8,9,9,11,11,12,12,14,14],"right_children":[2,4,6,8,10,12,14,16,18,20,-1,22,24,-1,26,-1,-1,-1,-1,-1,-1,-1,-1,-1,-1,-1,-1],"split_conditions":[1.1433093E3,7.6E1,-2.546926E-1,3.6679714E0,5.6712093E0,4.250302E1,-9.024E-5,1.1285037E-1,4.1974083E-1,5.5347085E0,-4.3491926E-2,5.973191E-1,2.3437428E0,-4.9209002E-2,3.779E-5,-1.0505598E-2,1.092658E-3,-4.2614844E-2,-7.4542626E-3,4.1955516E-2,-1.7224828E-3,-4.486579E-2,-1.6199293E-2,2.0328952E-2,3.8087294E-2,2.2321755E-2,-2.4325345E-3],"split_indices":[14,5,21,3,3,13,11,1,20,12,0,9,19,0,11,0,0,0,0,0,0,0,0,0,0,0,0],"split_type":[0,0,0,0,0,0,0,0,0,0,0,0,0,0,0,0,0,0,0,0,0,0,0,0,0,0,0],"sum_hessian":[2.277235E3,1.6039321E3,6.7330304E2,1.5393958E3,6.4536316E1,6.284808E1,6.1045496E2,1.3970316E3,1.4236421E2,5.8528545E1,6.007773E0,5.1651493E1,1.1196586E1,1.109242E1,5.9936255E2,7.6848206E2,6.285495E2,7.435508E1,6.8009125E1,5.278092E1,5.747627E0,2.8341417E1,2.3310078E1,6.018403E0,5.178183E0,5.2914417E2,7.021836E1],"tree_param":{"num_deleted":"0","num_feature":"22","num_nodes":"27","size_leaf_vector":"1"}},{"base_weights":[5.0995457E-3,-1.7681313E-1,4.523507E-1,-4.391436E-1,2.4095962E-2,-4.2711002E-1,6.0290873E-1,-5.358694E-1,8.3895785E-1,-1.7165248E-1,4.077413E-1,-8.82796E-1,5.9029025E-1,-4.9305324E-2,6.3872457E-1,3.0418288E-2,-1.7544173E-2,-4.5040667E-2,3.6371995E-2,6.201E-3,-1.574484E-2,4.4232212E-2,3.873991E-4,1.7152889E-2,-3.543235E-2,3.1444483E-2,-2.8198874E-2,2.8670486E-2,1.3399447E-2],"categories":[],"categories_nodes":[],"categories_segments":[],"categories_sizes":[],"default_left":[0,0,0,0,0,0,0,0,0,0,0,0,0,0,0,0,0,0,0,0,0,0,0,0,0,0,0,0,0],"id":34,"left_children":[1,3,5,7,9,11,13,15,17,19,21,23,25,-1,27,-1,-1,-1,-1,-1,-1,-1,-1,-1,-1,-1,-1,-1,-1],"loss_changes":[1.8259656E2,8.4095795E1,8.6177795E1,8.5996735E1,6.7990074E1,4.4766037E1,4.566028E1,4.942871E1,4.4709892E1,8.0225235E1,1.2879158E2,2.9446678E1,2.2089298E1,0E0,3.2842987E1,0E0,0E0,0E0,0E0,0E0,0E0,0E0,0E0,0E0,0E0,0E0,0E0,0E0,0E0],"parents":[2147483647,0,0,1,1,2,2,3,3,4,4,5,5,6,6,7,7,8,8,9,9,10,10,11,11,12,12,14,14],"right_children":[2,4,6,8,10,12,14,16,18,20,22,24,26,-1,28,-1,-1,-1,-1,-1,-1,-1,-1,-1,-1,-1,-1,-1,-1],"split_conditions":[1.1433093E3,-1.881332E-2,-7.324586E-1,2.4426315E0,7.1E1,3.6461334E1,-5.3312244E0,-4.7616634E0,-1.2635736E0,5E1,3.0703443E-1,-1.8698313E0,3.1167966E-1,-4.9305324E-2,3.9E1,3.0418288E-2,-1.7544173E-2,-4.5040667E-2,3.6371995E-2,6.201E-3,-1.574484E-2,4.4232212E-2,3.873991E-4,1.7152889E-2,-3.543235E-2,3.1444483E-2,-2.8198874E-2,2.8670486E-2,1.3399447E-2],"split_indices":[14,0,4,16,5,13,2,12,7,5,7,9,20,0,5,0,0,0,0,0,0,0,0,0,0,0,0,0,0],"split_type":[0,0,0,0,0,0,0,0,0,0,0,0,0,0,0,0,0,0,0,0,0,0,0,0,0,0,0,0,0],"sum_hessian":[2.242303E3,1.5944066E3,6.4789624E2,6.9098706E2,9.034196E2,9.443463E1,5.534616E2,6.429126E2,4.807443E1,5.985648E2,3.0485483E2,6.53135E1,2.9121128E1,7.981209E0,5.454804E2,1.9075428E1,6.2383716E2,6.199931E0,4.1874496E1,2.8918225E2,3.0938254E2,8.161899E1,2.2323584E2,1.0958425E1,5.4355076E1,2.2657068E1,6.4640594E0,2.0432848E2,3.4115192E2],"tree_param":{"num_deleted":"0","num_feature":"22","num_nodes":"29","size_leaf_vector":"1"}},{"base_weights":[1.5639141E-2,-1.2596984E-1,4.90023E-1,-1.7856158E-1,7.6479197E-1,-4.8147562E-1,5.723695E-1,-2.7508214E-2,-4.6332332E-1,-4.4563748E-2,9.1380984E-1,2.047647E-1,-1.2261415E0,3.913614E-1,8.0593693E-1,-4.6324586E-3,3.1127164E-2,3.685996E-2,-2.1179833E-2,-7.396442E-3,3.4388676E-2,-3.9426256E-2,2.3288896E-2,-4.9174197E-2,-7.5847507E-3,-5.920508E-2,1.383351E-2,-4.2271973E-3,2.534512E-2],"categories":[],"categories_nodes":[],"categories_segments":[],"categories_sizes":[],"default_left":[0,0,0,0,0,0,0,0,0,0,0,0,0,0,0,0,0,0,0,0,0,0,0,0,0,0,0,0,0],"id":35,"left_children":[1,3,5,7,9,11,13,15,17,-1,19,21,23,25,27,-1,-1,-1,-1,-1,-1,-1,-1,-1,-1,-1,-1,-1,-1],"loss_changes":[1.5350162E2,8.2578354E1,4.2298813E1,7.14993E1,3.431973E1,2.150391E1,2.0176712E1,1.4713388E2,2.3743933E2,0E0,2.5319695E1,2.0553839E1,7.6607533E0,4.6278206E1,7.879059E0,0E0,0E0,0E0,0E0,0E0,0E0,0E0,0E0,0E0,0E0,0E0,0E0,0E0,0E0],"parents":[2147483647,0,0,1,1,2,2,3,3,4,4,5,5,6,6,7,7,8,8,10,10,11,11,12,12,13,13,14,14],"right_children":[2,4,6,8,10,12,14,16,18,-1,20,22,24,26,28,-1,-1,-1,-1,-1,-1,-1,-1,-1,-1,-1,-1,-1,-1],"split_conditions":[1.8541149E0,7.6E1,3.915507E-1,3.0703443E-1,7.8063354E2,2.5788739E0,1.2342407E3,7.1E1,4.5E1,-4.4563748E-2,-2.889705E-1,9.597193E2,3.640507E-1,-1.7256479E0,-6.543E-5,-4.6324586E-3,3.1127164E-2,3.685996E-2,-2.1179833E-2,-7.396442E-3,3.4388676E-2,-3.9426256E-2,2.3288896E-2,-4.9174197E-2,-7.5847507E-3,-5.920508E-2,1.383351E-2,-4.2271973E-3,2.534512E-2],"split_indices":[0,5,20,7,14,0,14,5,5,0,21,14,20,7,10,0,0,0,0,0,0,0,0,0,0,0,0,0,0],"split_type":[0,0,0,0,0,0,0,0,0,0,0,0,0,0,0,0,0,0,0,0,0,0,0,0,0,0,0,0,0],"sum_hessian":[2.283113E3,1.7588197E3,5.242933E2,1.6615209E3,9.729884E1,4.0589077E1,4.8370416E2,1.0863549E3,5.751661E2,5.4861846E0,9.181266E1,2.1500504E1,1.9088575E1,2.7402115E2,2.0968303E2,9.7145807E2,1.1489672E2,7.163543E1,5.0353064E2,1.5314408E1,7.649825E1,5.52285E0,1.5977653E1,1.2921597E1,6.1669784E0,7.069181E0,2.6695197E2,8.17124E0,2.0151178E2],"tree_param":{"num_deleted":"0","num_feature":"22","num_nodes":"29","size_leaf_vector":"1"}},{"base_weights":[6.577316E-3,-3.342141E-1,2.478811E-1,5.9482973E-2,-5.5601627E-1,-3.380723E-2,5.9094954E-1,-5.866985E-1,3.364314E-1,-6.2339264E-1,7.6832354E-1,8.018725E-2,-9.145578E-1,-7.901346E-1,6.3861126E-1,-3.1718165E-2,1.0233033E-2,-1.2509804E-2,1.7127765E-2,2.0434815E-3,-2.3702897E-2,1.640659E-3,4.784581E-2,-4.1384525E-3,1.8143887E-2,1.6397702E-2,-3.2716334E-2,-5.4424185E-2,3.29536E-4,-1.4622487E-3,2.1969253E-2],"categories":[],"categories_nodes":[],"categories_segments":[],"categories_sizes":[],"default_left":[0,0,0,0,0,0,0,0,0,0,0,0,0,0,0,0,0,0,0,0,0,0,0,0,0,0,0,0,0,0,0],"id":36,"left_children":[1,3,5,7,9,11,13,15,17,19,21,23,25,27,29,-1,-1,-1,-1,-1,-1,-1,-1,-1,-1,-1,-1,-1,-1,-1,-1],"loss_changes":[1.844163E2,8.121297E1,1.2689778E2,6.0312225E1,5.3546967E1,7.25523E1,3.9473938E1,4.4519096E1,4.1892784E1,6.535806E1,1.716025E1,7.333266E1,2.1889435E1,1.6587803E1,3.6927032E1,0E0,0E0,0E0,0E0,0E0,0E0,0E0,0E0,0E0,0E0,0E0,0E0,0E0,0E0,0E0,0E0],"parents":[2147483647,0,0,1,1,2,2,3,3,4,4,5,5,6,6,7,7,8,8,9,9,10,10,11,11,12,12,13,13,14,14],"right_children":[2,4,6,8,10,12,14,16,18,20,22,24,26,28,30,-1,-1,-1,-1,-1,-1,-1,-1,-1,-1,-1,-1,-1,-1,-1,-1],"split_conditions":[2.519943E-2,-1.6270031E0,9.779193E2,2.5071642E1,7.6E1,3.6679714E0,-1.5641949E0,-9.6956605E-1,7.375569E-1,4.2E1,5.973191E-1,1.9095285E0,-5.338695E-1,8.9674366E-1,-7.9622155E-1,-3.1718165E-2,1.0233033E-2,-1.2509804E-2,1.7127765E-2,2.0434815E-3,-2.3702897E-2,1.640659E-3,4.784581E-2,-4.1384525E-3,1.8143887E-2,1.6397702E-2,-3.2716334E-2,-5.4424185E-2,3.29536E-4,-1.4622487E-3,2.1969253E-2],"split_indices":[0,0,14,13,5,3,1,4,19,5,9,3,1,19,17,0,0,0,0,0,0,0,0,0,0,0,0,0,0,0,0],"split_type":[0,0,0,0,0,0,0,0,0,0,0,0,0,0,0,0,0,0,0,0,0,0,0,0,0,0,0,0,0,0,0],"sum_hessian":[2.2405652E3,9.2865216E2,1.3119131E3,3.3491412E2,5.9373804E2,7.208969E2,5.910161E2,1.0014213E2,2.34772E2,5.654974E2,2.8240654E1,6.390893E2,8.18076E1,1.9196104E1,5.7182E2,6.6350204E1,3.3791924E1,5.5541145E1,1.7923085E2,1.09960205E2,4.555372E2,1.5727575E1,1.251308E1,4.5191663E2,1.871727E2,8.5676775E0,7.323992E1,7.8708878E0,1.1325217E1,6.8654854E1,5.031652E2],"tree_param":{"num_deleted":"0","num_feature":"22","num_nodes":"31","size_leaf_vector":"1"}},{"base_weights":[-2.1318404E-2,-2.0120332E-1,3.8032985E-1,-2.4359101E-1,7.1499294E-1,4.5303732E-2,6.4327353E-1,-8.5256845E-2,-5.460201E-1,-4.2435266E-2,9.207379E-1,-1.9668144E-1,4.6731395E-1,6.713698E-1,-3.61028E-2,-8.256728E-3,2.2607561E-2,2.9377576E-2,-2.2476364E-2,-6.2171505E-3,3.676549E-2,8.075712E-3,-2.8920222E-2,1.9212656E-2,-5.2526794E-2,2.1173917E-2,-1.785454E-2],"categories":[],"categories_nodes":[],"categories_segments":[],"categories_sizes":[],"default_left":[0,0,0,0,0,0,0,0,0,0,0,0,0,0,0,0,0,0,0,0,0,0,0,0,0,0,0],"id":37,"left_children":[1,3,5,7,9,11,13,15,17,-1,19,21,23,25,-1,-1,-1,-1,-1,-1,-1,-1,-1,-1,-1,-1,-1],"loss_changes":[1.600751E2,5.9598022E1,6.0345764E1,7.001997E1,3.1058594E1,3.0977634E1,2.0727234E1,1.5344067E2,1.5651074E2,0E0,2.1753387E1,6.922591E1,4.355925E1,1.6936829E1,0E0,0E0,0E0,0E0,0E0,0E0,0E0,0E0,0E0,0E0,0E0,0E0,0E0],"parents":[2147483647,0,0,1,1,2,2,3,3,4,4,5,5,6,6,7,7,8,8,10,10,11,11,12,12,13,13],"right_children":[2,4,6,8,10,12,14,16,18,-1,20,22,24,26,-1,-1,-1,-1,-1,-1,-1,-1,-1,-1,-1,-1,-1],"split_conditions":[1.2876933E0,7.6E1,1.0702528E3,3.0703443E-1,7.8063354E2,9.496E-5,1.7752889E0,6.8E1,4.5E1,-4.2435266E-2,-1.3322666E0,1.8356825E0,5.622E-5,1.7627766E0,-3.61028E-2,-8.256728E-3,2.2607561E-2,2.9377576E-2,-2.2476364E-2,-6.2171505E-3,3.676549E-2,8.075712E-3,-2.8920222E-2,1.9212656E-2,-5.2526794E-2,2.1173917E-2,-1.785454E-2],"split_indices":[0,5,14,7,14,8,9,5,5,0,0,12,11,7,0,0,0,0,0,0,0,0,0,0,0,0,0],"split_type":[0,0,0,0,0,0,0,0,0,0,0,0,0,0,0,0,0,0,0,0,0,0,0,0,0,0,0],"sum_hessian":[2.2134993E3,1.529145E3,6.843542E2,1.4622292E3,6.69157E1,3.0144476E2,3.8290942E2,9.605982E2,5.0163107E2,5.3779354E0,6.153777E1,1.9192618E2,1.0951858E2,3.7779794E2,5.1114855E0,7.8377374E2,1.7682448E2,5.8520943E1,4.4311014E2,1.3158517E1,4.8379253E1,1.1982513E2,7.210105E1,1.022503E2,7.26828E0,3.6823114E2,9.566786E0],"tree_param":{"num_deleted":"0","num_feature":"22","num_nodes":"27","size_leaf_vector":"1"}},{"base_weights":[1.9160595E-2,-1.583479E-1,4.5022774E-1,-1.0461432E0,-9.112128E-2,-4.415149E-1,6.0708547E-1,-1.2094042E0,2.9204503E-1,4.9953252E-1,-1.6946803E-1,-1.0192158E0,7.2681177E-1,-4.9837496E-2,6.4015836E-1,9.1455755E-4,-3.9670747E-2,-3.9274517E-2,4.6275996E-2,-1.2592359E-3,3.0634867E-2,-1.0109989E-2,4.627312E-3,1.0222149E-2,-3.7685018E-2,-3.201149E-2,3.834086E-2,2.2052886E-2,-3.542506E-3],"categories":[],"categories_nodes":[],"categories_segments":[],"categories_sizes":[],"default_left":[0,0,0,0,0,0,0,0,0,0,0,0,0,0,0,0,0,0,0,0,0,0,0,0,0,0,0,0,0],"id":38,"left_children":[1,3,5,7,9,11,13,15,17,19,21,23,25,-1,27,-1,-1,-1,-1,-1,-1,-1,-1,-1,-1,-1,-1,-1,-1],"loss_changes":[1.7091405E2,9.433688E1,9.139693E1,2.4665245E1,6.819965E1,6.6908516E1,4.2659225E1,1.3957916E1,2.7860231E1,4.8805534E1,7.056996E1,2.1700737E1,3.401413E1,0E0,3.947841E1,0E0,0E0,0E0,0E0,0E0,0E0,0E0,0E0,0E0,0E0,0E0,0E0,0E0,0E0],"parents":[2147483647,0,0,1,1,2,2,3,3,4,4,5,5,6,6,7,7,8,8,9,9,10,10,11,11,12,12,14,14],"right_children":[2,4,6,8,10,12,14,16,18,20,22,24,26,-1,28,-1,-1,-1,-1,-1,-1,-1,-1,-1,-1,-1,-1,-1,-1],"split_conditions":[1.1433093E3,-1.7536663E0,-7.598147E-1,2.038771E0,-1.1996123E0,3.611656E1,-9.159E-5,2.6315978E-1,4.633E-5,-1.0049666E0,7.1E1,-5.888E-5,-9.87E-6,-4.9837496E-2,3.779E-5,9.1455755E-4,-3.9670747E-2,-3.9274517E-2,4.6275996E-2,-1.2592359E-3,3.0634867E-2,-1.0109989E-2,4.627312E-3,1.0222149E-2,-3.7685018E-2,-3.201149E-2,3.834086E-2,2.2052886E-2,-3.542506E-3],"split_indices":[14,7,4,2,7,13,11,20,11,12,5,11,11,0,11,0,0,0,0,0,0,0,0,0,0,0,0,0,0],"split_type":[0,0,0,0,0,0,0,0,0,0,0,0,0,0,0,0,0,0,0,0,0,0,0,0,0,0,0,0,0],"sum_hessian":[2.2317107E3,1.5812166E3,6.504942E2,1.1028119E2,1.4709354E3,9.7034485E1,5.534597E2,9.8375465E1,1.1905723E1,1.7163188E2,1.2993035E3,6.501448E1,3.202E1,7.2461367E0,5.4621356E2,8.274703E0,9.010076E1,5.200192E0,6.70553E0,8.466263E1,8.696925E1,8.561674E2,4.431361E2,9.581963E0,5.543252E1,7.3064237E0,2.4713577E1,4.854606E2,6.0752983E1],"tree_param":{"num_deleted":"0","num_feature":"22","num_nodes":"29","size_leaf_vector":"1"}},{"base_weights":[-2.069823E-2,-2.0460814E-1,4.226286E-1,-9.944798E-1,-1.225133E-1,-4.899126E-2,4.5929012E-1,-1.2024679E0,-3.2509777E-1,8.9763796E-1,-2.2900121E-1,-3.7736705E-1,5.5563825E-1,-4.1418884E-2,-1.8605046E-2,-4.197287E-2,1.0029197E-2,-1.7129187E-3,4.028763E-2,-8.531325E-3,2.8142326E-2,-4.3358997E-2,7.907693E-3,2.4661398E-2,9.193638E-3],"categories":[],"categories_nodes":[],"categories_segments":[],"categories_sizes":[],"default_left":[0,0,0,0,0,0,0,0,0,0,0,0,0,0,0,0,0,0,0,0,0,0,0,0,0],"id":39,"left_children":[1,3,5,7,9,-1,11,13,15,17,19,21,23,-1,-1,-1,-1,-1,-1,-1,-1,-1,-1,-1,-1],"loss_changes":[1.7597794E2,9.87955E1,4.8445488E1,1.9584854E1,1.504436E2,0E0,5.039444E1,1.0461792E1,2.5526411E1,5.573426E1,8.124994E1,4.479471E1,3.683545E1,0E0,0E0,0E0,0E0,0E0,0E0,0E0,0E0,0E0,0E0,0E0,0E0],"parents":[2147483647,0,0,1,1,2,2,3,3,4,4,6,6,7,7,8,8,9,9,10,10,11,11,12,12],"right_children":[2,4,6,8,10,-1,12,14,16,18,20,22,24,-1,-1,-1,-1,-1,-1,-1,-1,-1,-1,-1,-1],"split_conditions":[1.1382493E3,-1.507044E0,-9.024E-5,4.254E-5,-1.1996123E0,-4.899126E-2,-2.4649927E-1,7.437E-5,-1.7934042E0,-1.2329384E0,6.366E-5,5.4045314E-1,4.113E-5,-4.1418884E-2,-1.8605046E-2,-4.197287E-2,1.0029197E-2,-1.7129187E-3,4.028763E-2,-8.531325E-3,2.8142326E-2,-4.3358997E-2,7.907693E-3,2.4661398E-2,9.193638E-3],"split_indices":[14,7,11,11,7,0,21,8,3,12,10,9,8,0,0,0,0,0,0,0,0,0,0,0,0],"split_type":[0,0,0,0,0,0,0,0,0,0,0,0,0,0,0,0,0,0,0,0,0,0,0,0,0],"sum_hessian":[2.1563252E3,1.524457E3,6.3186804E2,1.4247989E2,1.3819772E3,1.0308519E1,6.215595E2,1.0809621E2,3.4383682E1,1.2991977E2,1.2520574E3,6.388506E1,5.5767444E2,8.172153E1,2.6374681E1,1.2653186E1,2.1730497E1,4.1598927E1,8.832085E1,1.1960623E3,5.599516E1,2.3490822E1,4.0394238E1,2.684109E2,2.8926355E2],"tree_param":{"num_deleted":"0","num_feature":"22","num_nodes":"25","size_leaf_vector":"1"}},{"base_weights":[-1.1550252E-3,-1.2993532E-1,4.485308E-1,-1.7463735E-1,7.067059E-1,-4.093511E-1,5.4794455E-1,9.7990416E-2,-3.6085492E-1,-4.2358655E-2,8.569322E-1,8.764275E-1,-7.554167E-1,3.6814463E-1,8.338956E-1,-6.318582E-4,2.4099065E-2,-3.9981354E-2,-8.1626475E-3,-4.732875E-3,3.5739057E-2,3.5810996E-2,1.2456157E-2,-3.9492227E-2,1.1129804E-2,4.1968506E-3,2.7260972E-2,2.1423304E-2,3.545797E-2],"categories":[],"categories_nodes":[],"categories_segments":[],"categories_sizes":[],"default_left":[0,0,0,0,0,0,0,0,0,0,0,0,0,0,0,0,0,0,0,0,0,0,0,0,0,0,0,0,0],"id":40,"left_children":[1,3,5,7,9,11,13,15,17,-1,19,21,23,25,27,-1,-1,-1,-1,-1,-1,-1,-1,-1,-1,-1,-1,-1,-1],"loss_changes":[1.2736123E2,6.406371E1,4.198085E1,8.2469574E1,2.88723E1,2.354108E1,2.2273636E1,5.5416725E1,8.288444E1,0E0,2.7934551E1,1.1677513E0,2.64285E1,3.3362995E1,6.191414E0,0E0,0E0,0E0,0E0,0E0,0E0,0E0,0E0,0E0,0E0,0E0,0E0,0E0,0E0],"parents":[2147483647,0,0,1,1,2,2,3,3,4,4,5,5,6,6,7,7,8,8,10,10,11,11,12,12,13,13,14,14],"right_children":[2,4,6,8,10,12,14,16,18,-1,20,22,24,26,28,-1,-1,-1,-1,-1,-1,-1,-1,-1,-1,-1,-1,-1,-1],"split_conditions":[1.8541149E0,7.6E1,4.1463226E-1,5E1,7.8063354E2,-5.7915634E-1,1.3333472E3,4.9E1,5.3E1,-4.2358655E-2,-6.7960423E-1,1.9830195E0,7.5E1,7.2E1,9.3856776E-1,-6.318582E-4,2.4099065E-2,-3.9981354E-2,-8.1626475E-3,-4.732875E-3,3.5739057E-2,3.5810996E-2,1.2456157E-2,-3.9492227E-2,1.1129804E-2,4.1968506E-3,2.7260972E-2,2.1423304E-2,3.545797E-2],"split_indices":[0,5,20,5,14,7,14,5,5,0,0,0,5,5,7,0,0,0,0,0,0,0,0,0,0,0,0,0,0],"split_type":[0,0,0,0,0,0,0,0,0,0,0,0,0,0,0,0,0,0,0,0,0,0,0,0,0,0,0,0,0],"sum_hessian":[2.197264E3,1.7086536E3,4.8861038E2,1.6227412E3,8.591236E1,5.04177E1,4.381927E2,6.5876483E2,9.6397644E2,5.1322803E0,8.0780075E1,1.0367087E1,4.0050613E1,2.7043588E2,1.677568E2,5.644579E2,9.430694E1,7.9505135E1,8.844713E2,2.0152498E1,6.062758E1,5.2011323E0,5.1659546E0,2.6622849E1,1.3427766E1,1.9103146E2,7.940442E1,1.2707322E2,4.0683586E1],"tree_param":{"num_deleted":"0","num_feature":"22","num_nodes":"29","size_leaf_vector":"1"}},{"base_weights":[-1.7506251E-2,-1.7531697E-1,5.023452E-1,-2.844761E-1,2.643676E-1,-5.36763E-1,5.874646E-1,-2.2196798E-1,-1.1908895E0,3.60923E-1,-5.0344244E-2,1.8661639E-1,-1.2363424E0,1.031387E-1,7.259489E-1,-1.0856548E-2,5.4122396E-3,-4.1515578E-2,-1.4509359E-2,4.259456E-3,2.8285554E-2,2.4233365E-2,-1.2359639E-2,-4.4545572E-2,-1.2278165E-2,-3.8972825E-2,1.1804098E-2,2.8929086E-2,1.7015455E-2],"categories":[],"categories_nodes":[],"categories_segments":[],"categories_sizes":[],"default_left":[0,0,0,0,0,0,0,0,0,0,0,0,0,0,0,0,0,0,0,0,0,0,0,0,0,0,0,0,0],"id":41,"left_children":[1,3,5,7,9,11,13,15,17,19,-1,21,23,25,27,-1,-1,-1,-1,-1,-1,-1,-1,-1,-1,-1,-1,-1,-1],"loss_changes":[1.7995302E2,8.083392E1,4.5497116E1,7.613659E1,6.3471016E1,2.0067902E1,3.1625015E1,7.115372E1,1.1171539E1,4.065287E1,0E0,7.821692E0,3.51503E0,4.3769394E1,1.3355438E1,0E0,0E0,0E0,0E0,0E0,0E0,0E0,0E0,0E0,0E0,0E0,0E0,0E0,0E0],"parents":[2147483647,0,0,1,1,2,2,3,3,4,4,5,5,6,6,7,7,8,8,9,9,11,11,12,12,13,13,14,14],"right_children":[2,4,6,8,10,12,14,16,18,20,-1,22,24,26,28,-1,-1,-1,-1,-1,-1,-1,-1,-1,-1,-1,-1,-1,-1],"split_conditions":[1.8541149E0,1.2025343E3,3.915507E-1,3.6679714E0,5.892E-5,2.7364641E1,9.0597217E2,4.2E-1,3.247E-5,2.429718E0,-5.0344244E-2,2.2945387E0,1.7112638E0,-8.621274E-1,5.3467476E-1,-1.0856548E-2,5.4122396E-3,-4.1515578E-2,-1.4509359E-2,4.259456E-3,2.8285554E-2,2.4233365E-2,-1.2359639E-2,-4.4545572E-2,-1.2278165E-2,-3.8972825E-2,1.1804098E-2,2.8929086E-2,1.7015455E-2],"split_indices":[0,14,20,3,11,13,14,6,11,3,0,3,19,9,19,0,0,0,0,0,0,0,0,0,0,0,0,0,0],"split_type":[0,0,0,0,0,0,0,0,0,0,0,0,0,0,0,0,0,0,0,0,0,0,0,0,0,0,0,0,0],"sum_hessian":[2.1914553E3,1.6816282E3,5.0982724E2,1.3474531E3,3.3417502E2,3.819916E1,4.7162808E2,1.2616893E3,8.57638E1,3.1912656E2,1.5048479E1,1.9140617E1,1.9058542E1,1.0525635E2,3.6637173E2,9.362356E2,3.254537E2,6.6628365E1,1.9135437E1,2.3278792E2,8.633864E1,9.22183E0,9.918787E0,1.4043557E1,5.014985E0,1.7458982E1,8.779736E1,1.444452E2,2.2192653E2],"tree_param":{"num_deleted":"0","num_feature":"22","num_nodes":"29","size_leaf_vector":"1"}},{"base_weights":[-1.7307056E-2,-1.6446185E-1,3.5389683E-1,-1.0315193E0,-1.01785466E-1,4.6265855E-1,-4.4598135E-1,-1.2721368E0,1.5390262E-1,-2.2486769E-2,-7.835578E-1,3.0085158E-1,1.0346513E0,3.4175697E-1,-1.8570107E0,-1.8537681E-3,-4.239674E-2,-4.1090716E-2,4.5558594E-2,-1.8403474E-3,3.5674565E-2,-3.6152977E-2,-3.1480663E-3,1.5776254E-2,-7.6002115E-3,1.2384765E-3,3.2532953E-2,-3.2888822E-2,2.1724712E-2,-2.3051599E-2,-6.671135E-2],"categories":[],"categories_nodes":[],"categories_segments":[],"categories_sizes":[],"default_left":[0,0,0,0,0,0,0,0,0,0,0,0,0,0,0,0,0,0,0,0,0,0,0,0,0,0,0,0,0,0,0],"id":42,"left_children":[1,3,5,7,9,11,13,15,17,19,21,23,25,27,29,-1,-1,-1,-1,-1,-1,-1,-1,-1,-1,-1,-1,-1,-1,-1,-1],"loss_changes":[1.1858755E2,8.437689E1,5.3823837E1,3.0056717E1,7.842259E1,4.9948326E1,8.319969E1,1.4791946E1,4.0664036E1,6.1314568E1,4.3110764E1,5.3096737E1,5.8563004E0,2.747196E1,8.976959E0,0E0,0E0,0E0,0E0,0E0,0E0,0E0,0E0,0E0,0E0,0E0,0E0,0E0,0E0,0E0,0E0],"parents":[2147483647,0,0,1,1,2,2,3,3,4,4,5,5,6,6,7,7,8,8,9,9,10,10,11,11,12,12,13,13,14,14],"right_children":[2,4,6,8,10,12,14,16,18,20,22,24,26,28,30,-1,-1,-1,-1,-1,-1,-1,-1,-1,-1,-1,-1,-1,-1,-1,-1],"split_conditions":[1.1433093E3,-1.7536663E0,3.779E-5,-6.1679024E-1,3.6679714E0,3.5383275E0,3.9E1,2.9024723E-1,4.577E-5,7.6E1,9.0597217E2,6.5E1,2.68674E-1,-5.3312244E0,2.3932226E-1,-1.8537681E-3,-4.239674E-2,-4.1090716E-2,4.5558594E-2,-1.8403474E-3,3.5674565E-2,-3.6152977E-2,-3.1480663E-3,1.5776254E-2,-7.6002115E-3,1.2384765E-3,3.2532953E-2,-3.2888822E-2,2.1724712E-2,-2.3051599E-2,-6.671135E-2],"split_indices":[14,7,11,12,3,12,5,20,11,5,14,5,20,2,20,0,0,0,0,0,0,0,0,0,0,0,0,0,0,0,0],"split_type":[0,0,0,0,0,0,0,0,0,0,0,0,0,0,0,0,0,0,0,0,0,0,0,0,0,0,0,0,0,0,0],"sum_hessian":[2.168896E3,1.5535756E3,6.153205E2,1.0368952E2,1.4498861E3,5.420394E2,7.3281075E1,8.613305E1,1.7556477E1,1.2997427E3,1.5014345E2,4.2370615E2,1.18333275E2,4.751344E1,2.5767632E1,9.142308E0,7.699074E1,8.293656E0,9.26282E0,1.260274E3,3.946854E1,9.213557E1,5.800788E1,3.013837E2,1.2232244E2,5.7343183E0,1.1259895E2,9.588421E0,3.792502E1,7.2726727E0,1.8494959E1],"tree_param":{"num_deleted":"0","num_feature":"22","num_nodes":"31","size_leaf_vector":"1"}},{"base_weights":[1.1683183E-2,-1.560208E-1,3.5849786E-1,-2.7238783E-1,2.0300592E-1,-1.2888647E0,4.0510216E-1,-5.243782E-1,-4.0571377E-2,3.221544E-1,-6.0331327E-1,-4.5547575E-2,-1.5708134E-2,-4.6323728E-2,4.346192E-1,-3.024344E-2,-5.352069E-3,1.4004785E-2,-7.3602106E-3,-1.7907158E-2,1.314055E-2,6.9565945E-3,-4.3817855E-2,-5.2986197E-2,1.3797502E-2],"categories":[],"categories_nodes":[],"categories_segments":[],"categories_sizes":[],"default_left":[0,0,0,0,0,0,0,0,0,0,0,0,0,0,0,0,0,0,0,0,0,0,0,0,0],"id":43,"left_children":[1,3,5,7,9,11,13,15,17,19,21,-1,-1,-1,23,-1,-1,-1,-1,-1,-1,-1,-1,-1,-1],"loss_changes":[1.2775674E2,6.1915333E1,5.5488113E1,6.5325E1,3.5069145E1,2.7046547E0,4.0773705E1,8.9511734E1,6.076362E1,3.4009445E1,3.4050346E1,0E0,0E0,0E0,3.908313E1,0E0,0E0,0E0,0E0,0E0,0E0,0E0,0E0,0E0,0E0],"parents":[2147483647,0,0,1,1,2,2,3,3,4,4,5,5,6,6,7,7,8,8,9,9,10,10,14,14],"right_children":[2,4,6,8,10,12,14,16,18,20,22,-1,-1,-1,24,-1,-1,-1,-1,-1,-1,-1,-1,-1,-1],"split_conditions":[1.1576396E0,4.332112E-1,3.2062748E-1,-2.8304228E-1,8.800075E-1,2.6605346E0,5.18875E2,-4.1333783E-1,-1.2890154E0,2.5856563E-1,2.7995664E-1,-4.5547575E-2,-1.5708134E-2,-4.6323728E-2,-5.953E-5,-3.024344E-2,-5.352069E-3,1.4004785E-2,-7.3602106E-3,-1.7907158E-2,1.314055E-2,6.9565945E-3,-4.3817855E-2,-5.2986197E-2,1.3797502E-2],"split_indices":[0,1,20,17,4,2,14,4,4,20,21,0,0,0,8,0,0,0,0,0,0,0,0,0,0],"split_type":[0,0,0,0,0,0,0,0,0,0,0,0,0,0,0,0,0,0,0,0,0,0,0,0,0],"sum_hessian":[2.1945977E3,1.4796537E3,7.149439E2,1.1176459E3,3.620078E2,1.8936136E1,6.9600775E2,5.349163E2,5.827296E2,3.159246E2,4.6083206E1,1.3812001E1,5.124135E0,9.61695E0,6.863908E2,2.222529E2,3.126634E2,1.6718407E2,4.1554553E2,3.4904247E1,2.8102036E2,2.3711746E1,2.237146E1,7.0180736E0,6.7937274E2],"tree_param":{"num_deleted":"0","num_feature":"22","num_nodes":"25","size_leaf_vector":"1"}},{"base_weights":[9.058621E-3,-2.1828847E-1,2.789226E-1,2.7725676E-1,-3.7367165E-1,2.3745013E-2,5.5367523E-1,1.1137396E-1,6.488537E-2,-4.8444277E-1,2.0954515E-1,8.603947E-1,-1.2627852E-1,-5.81757E-1,6.110565E-1,2.0343034E-2,-8.3038965E-3,-2.3539543E-2,-3.7722394E-3,-3.7002157E-2,1.3214956E-2,3.4942728E-2,-1.9126603E-2,-2.0140244E-2,3.4120674E-3,-3.962976E-2,1.5557395E-2,-3.792343E-2,1.9429786E-2],"categories":[],"categories_nodes":[],"categories_segments":[],"categories_sizes":[],"default_left":[0,0,0,0,0,0,0,0,0,0,0,0,0,0,0,0,0,0,0,0,0,0,0,0,0,0,0,0,0],"id":44,"left_children":[1,3,5,7,9,11,13,15,-1,17,19,21,23,25,27,-1,-1,-1,-1,-1,-1,-1,-1,-1,-1,-1,-1,-1,-1],"loss_changes":[1.3437688E2,9.163916E1,7.019973E1,8.869957E1,5.8595802E1,6.5411446E1,3.1771225E1,5.7914494E1,0E0,8.1873E1,4.8938255E1,3.6867382E1,5.790461E1,1.9969551E1,3.2355988E1,0E0,0E0,0E0,0E0,0E0,0E0,0E0,0E0,0E0,0E0,0E0,0E0,0E0,0E0],"parents":[2147483647,0,0,1,1,2,2,3,3,4,4,5,5,6,6,7,7,9,9,10,10,11,11,12,12,13,13,14,14],"right_children":[2,4,6,8,10,12,14,16,-1,18,20,22,24,26,28,-1,-1,-1,-1,-1,-1,-1,-1,-1,-1,-1,-1,-1,-1],"split_conditions":[4.2028508E-1,4.2E1,9.779193E2,4E1,1.9105829E0,1.3303037E1,9.130062E-3,-4.6096096E0,6.488537E-2,6.8E1,2.1186342E1,6.1411555E-3,5.786058E-3,8.900889E-1,1.3509099E1,2.0343034E-2,-8.3038965E-3,-2.3539543E-2,-3.7722394E-3,-3.7002157E-2,1.3214956E-2,3.4942728E-2,-1.9126603E-2,-2.0140244E-2,3.4120674E-3,-3.962976E-2,1.5557395E-2,-3.792343E-2,1.9429786E-2],"split_indices":[4,5,14,5,16,13,15,3,0,5,13,15,15,9,13,0,0,0,0,0,0,0,0,0,0,0,0,0,0],"split_type":[0,0,0,0,0,0,0,0,0,0,0,0,0,0,0,0,0,0,0,0,0,0,0,0,0,0,0,0,0],"sum_hessian":[2.1882402E3,1.1877828E3,1.00045734E3,2.8334854E2,9.0443427E2,5.192699E2,4.8118747E2,2.6141028E2,2.193824E1,7.60215E2,1.4421927E2,7.823495E1,4.4103494E2,2.2708305E1,4.5847916E2,1.05960915E2,1.5544937E2,4.1320395E2,3.4701108E2,1.9299482E1,1.24919785E2,6.520799E1,1.3026954E1,1.3428398E2,3.0675098E2,1.3462985E1,9.24532E0,8.136018E0,4.5034314E2],"tree_param":{"num_deleted":"0","num_feature":"22","num_nodes":"29","size_leaf_vector":"1"}},{"base_weights":[1.3119956E-3,-1.2977879E-1,4.1710323E-1,-9.623531E-1,-6.4427204E-2,-5.207986E-1,5.713519E-1,3.9788166E-1,-1.1786904E0,1.2092594E-2,-7.941467E-1,-1.0658937E0,9.3423235E-1,-1.1473569E0,6.1661005E-1,-1.10475365E-2,4.8114125E-2,-4.0118277E-2,3.5378968E-3,1.7378561E-2,-2.0726684E-3,-3.154819E-2,-1.7190838E-3,-4.0779557E-2,2.2817895E-2,3.455315E-2,1.5323149E-2,-4.494817E-2,-1.7427972E-2,2.847237E-2,1.1436267E-2],"categories":[],"categories_nodes":[],"categories_segments":[],"categories_sizes":[],"default_left":[0,0,0,0,0,0,0,0,0,0,0,0,0,0,0,0,0,0,0,0,0,0,0,0,0,0,0,0,0,0,0],"id":45,"left_children":[1,3,5,7,9,11,13,15,17,19,21,23,25,27,29,-1,-1,-1,-1,-1,-1,-1,-1,-1,-1,-1,-1,-1,-1,-1,-1],"loss_changes":[1.1899763E2,9.02517E1,7.600656E1,3.5997513E1,8.600775E1,6.003156E1,3.570224E1,1.658774E1,2.1629059E1,6.4271225E1,2.7672844E1,3.030439E1,1.3294849E0,1.493412E0,3.399556E1,0E0,0E0,0E0,0E0,0E0,0E0,0E0,0E0,0E0,0E0,0E0,0E0,0E0,0E0,0E0,0E0],"parents":[2147483647,0,0,1,1,2,2,3,3,4,4,5,5,6,6,7,7,8,8,9,9,10,10,11,11,12,12,13,13,14,14],"right_children":[2,4,6,8,10,12,14,16,18,20,22,24,26,28,30,-1,-1,-1,-1,-1,-1,-1,-1,-1,-1,-1,-1,-1,-1,-1,-1],"split_conditions":[1.2248E3,-1.7536663E0,-7.598147E-1,-1.9620043E0,3.920849E0,4.250302E1,-5.3312244E0,-2.9278634E0,2.5408924E0,-1.2098153E0,1.1979077E0,5.172102E0,1.0001597E0,2.9527306E1,3.9E1,-1.10475365E-2,4.8114125E-2,-4.0118277E-2,3.5378968E-3,1.7378561E-2,-2.0726684E-3,-3.154819E-2,-1.7190838E-3,-4.0779557E-2,2.2817895E-2,3.455315E-2,1.5323149E-2,-4.494817E-2,-1.7427972E-2,2.847237E-2,1.1436267E-2],"split_indices":[14,7,4,1,3,13,2,12,2,7,4,3,16,18,5,0,0,0,0,0,0,0,0,0,0,0,0,0,0,0,0],"split_type":[0,0,0,0,0,0,0,0,0,0,0,0,0,0,0,0,0,0,0,0,0,0,0,0,0,0,0,0,0,0,0],"sum_hessian":[2.181193E3,1.6588716E3,5.2232166E2,1.19734695E2,1.5391368E3,7.343389E1,4.4888776E2,1.6314852E1,1.03419846E2,1.3939481E3,1.4518867E2,5.3615482E1,1.9818407E1,1.0892337E1,4.3799542E2,1.0401391E1,5.913461E0,9.2121414E1,1.1298437E1,1.73765E2,1.2201832E3,1.07277725E2,3.791095E1,4.641475E1,7.2007356E0,1.1956324E1,7.8620844E0,5.709811E0,5.182525E0,1.8030698E2,2.5768845E2],"tree_param":{"num_deleted":"0","num_feature":"22","num_nodes":"31","size_leaf_vector":"1"}},{"base_weights":[1.5925828E-2,-2.9244393E-1,2.3361391E-1,1.3835064E-1,-4.3050852E-1,3.9538965E-3,5.543309E-1,5.1668304E-1,-3.4827852E-1,-5.3329086E-1,4.7317004E-1,-3.3594522E-1,3.040263E-1,-3.0886367E-1,6.277873E-1,2.0702621E-2,-2.1466462E-2,-1.964543E-2,2.4182389E-2,3.151874E-2,-1.7840099E-2,-3.4233555E-2,2.1099757E-2,-2.8931858E-2,-4.1902848E-3,-4.9471322E-2,1.0893659E-2,2.0133816E-2,-5.7668574E-2,2.3870489E-2,6.2163477E-3],"categories":[],"categories_nodes":[],"categories_segments":[],"categories_sizes":[],"default_left":[0,0,0,0,0,0,0,0,0,0,0,0,0,0,0,0,0,0,0,0,0,0,0,0,0,0,0,0,0,0,0],"id":46,"left_children":[1,3,5,7,9,11,13,15,17,19,21,23,25,27,29,-1,-1,-1,-1,-1,-1,-1,-1,-1,-1,-1,-1,-1,-1,-1,-1],"loss_changes":[1.4695241E2,5.3940483E1,9.45131E1,4.079846E1,6.3995598E1,7.647115E1,3.4144897E1,2.710181E1,3.4889843E1,6.0576645E1,2.7038515E1,4.3228E1,4.6558453E1,6.874498E1,3.470247E1,0E0,0E0,0E0,0E0,0E0,0E0,0E0,0E0,0E0,0E0,0E0,0E0,0E0,0E0,0E0,0E0],"parents":[2147483647,0,0,1,1,2,2,3,3,4,4,5,5,6,6,7,7,8,8,9,9,10,10,11,11,12,12,13,13,14,14],"right_children":[2,4,6,8,10,12,14,16,18,20,22,24,26,28,30,-1,-1,-1,-1,-1,-1,-1,-1,-1,-1,-1,-1,-1,-1,-1,-1],"split_conditions":[2.519943E-2,-2.2272143E0,1.0341871E3,7.1909827E-1,2.183174E0,5.694E-5,-8.734256E-1,2.0435044E-1,1.0951622E0,-3.602E-5,-1.2466265E0,5.150079E2,-2.6E-1,-1.2E-1,9.3496794E-1,2.0702621E-2,-2.1466462E-2,-1.964543E-2,2.4182389E-2,3.151874E-2,-1.7840099E-2,-3.4233555E-2,2.1099757E-2,-2.8931858E-2,-4.1902848E-3,-4.9471322E-2,1.0893659E-2,2.0133816E-2,-5.7668574E-2,2.3870489E-2,6.2163477E-3],"split_indices":[0,0,14,16,16,8,17,3,1,8,7,14,6,6,19,0,0,0,0,0,0,0,0,0,0,0,0,0,0,0,0],"split_type":[0,0,0,0,0,0,0,0,0,0,0,0,0,0,0,0,0,0,0,0,0,0,0,0,0,0,0,0,0,0,0],"sum_hessian":[2.187106E3,9.049046E2,1.2822014E3,2.1962378E2,6.852808E2,7.477573E2,5.344441E2,1.2352605E2,9.609773E1,6.156662E2,6.96146E1,3.505554E2,3.9720193E2,4.166221E1,4.927819E2,1.0867313E2,1.4852926E1,7.627396E1,1.9823774E1,2.236669E1,5.932995E2,8.192823E0,6.142178E1,8.249481E1,2.6806058E2,1.087532E1,3.863266E2,2.6282364E1,1.5379845E1,3.5154977E2,1.4123212E2],"tree_param":{"num_deleted":"0","num_feature":"22","num_nodes":"31","size_leaf_vector":"1"}},{"base_weights":[-2.71189E-4,-2.8091085E-1,1.8822666E-1,-5.6993693E-2,-7.490852E-1,5.287299E-2,5.775445E-1,2.5573498E-1,-3.367007E-1,1.0131289E0,-8.707778E-1,-7.9141414E-1,1.3813587E-1,-5.240745E-1,6.563309E-1,1.0089418E-2,-4.1929737E-2,-3.6891036E-2,-3.1980176E-3,6.012886E-3,5.3279776E-2,-3.16124E-2,-9.263081E-3,