{"learner":{"attributes":{"scikit_learn":"{\"_estimator_type\": \"classifier\"}"},"feature_names":[],"feature_types":[],"gradient_booster":{"model":{"gbtree_model_param":{"num_parallel_tree":"1","num_trees":"300"},"iteration_indptr":[0,1,2,3,4,5,6,7,8,9,10,11,12,13,14,15,16,17,18,19,20,21,22,23,24,25,26,27,28,29,30,31,32,33,34,35,36,37,38,39,40,41,42,43,44,45,46,47,48,49,50,51,52,53,54,55,56,57,58,59,60,61,62,63,64,65,66,67,68,69,70,71,72,73,74,75,76,77,78,79,80,81,82,83,84,85,86,87,88,89,90,91,92,93,94,95,96,97,98,99,100,101,102,103,104,105,106,107,108,109,110,111,112,113,114,115,116,117,118,119,120,121,122,123,124,125,126,127,128,129,130,131,132,133,134,135,136,137,138,139,140,141,142,143,144,145,146,147,148,149,150,151,152,153,154,155,156,157,158,159,160,161,162,163,164,165,166,167,168,169,170,171,172,173,174,175,176,177,178,179,180,181,182,183,184,185,186,187,188,189,190,191,192,193,194,195,196,197,198,199,200,201,202,203,204,205,206,207,208,209,210,211,212,213,214,215,216,217,218,219,220,221,222,223,224,225,226,227,228,229,230,231,232,233,234,235,236,237,238,239,240,241,242,243,244,245,246,247,248,249,250,251,252,253,254,255,256,257,258,259,260,261,262,263,264,265,266,267,268,269,270,271,272,273,274,275,276,277,278,279,280,281,282,283,284,285,286,287,288,289,290,291,292,293,294,295,296,297,298,299,300],"tree_info":[0,0,0,0,0,0,0,0,0,0,0,0,0,0,0,0,0,0,0,0,0,0,0,0,0,0,0,0,0,0,0,0,0,0,0,0,0,0,0,0,0,0,0,0,0,0,0,0,0,0,0,0,0,0,0,0,0,0,0,0,0,0,0,0,0,0,0,0,0,0,0,0,0,0,0,0,0,0,0,0,0,0,0,0,0,0,0,0,0,0,0,0,0,0,0,0,0,0,0,0,0,0,0,0,0,0,0,0,0,0,0,0,0,0,0,0,0,0,0,0,0,0,0,0,0,0,0,0,0,0,0,0,0,0,0,0,0,0,0,0,0,0,0,0,0,0,0,0,0,0,0,0,0,0,0,0,0,0,0,0,0,0,0,0,0,0,0,0,0,0,0,0,0,0,0,0,0,0,0,0,0,0,0,0,0,0,0,0,0,0,0,0,0,0,0,0,0,0,0,0,0,0,0,0,0,0,0,0,0,0,0,0,0,0,0,0,0,0,0,0,0,0,0,0,0,0,0,0,0,0,0,0,0,0,0,0,0,0,0,0,0,0,0,0,0,0,0,0,0,0,0,0,0,0,0,0,0,0,0,0,0,0,0,0,0,0,0,0,0,0,0,0,0,0,0,0,0,0,0,0,0,0,0,0,0,0,0,0,0,0,0,0,0,0,0,0,0,0,0,0],"trees":[{"base_weights":[4.642659E-3,-4.410843E-1,9.2429215E-1,-9.244008E-1,-1.0031203E-1,4.1924235E-1,1.3657409E0,-1.3121825E0,-6.669035E-1,-2.4800424E-1,1.0687101E0,-6.725954E-1,5.9537387E-1,1.4726675E0,-9.4690174E-1,-5.099843E-3,-5.2203115E-2,-1.41647365E-2,-3.862735E-2,5.7601538E-2,-9.423213E-3,-5.244788E-3,3.7431523E-2,-4.9672686E-2,4.1572456E-3,1.3110961E-2,4.468967E-2,5.277165E-2,3.6733057E-2,-5.5555552E-2,3.2320507E-2],"categories":[],"categories_nodes":[],"categories_segments":[],"categories_sizes":[],"default_left":[0,0,0,0,0,0,0,0,0,0,0,0,0,0,0,0,0,0,0,0,0,0,0,0,0,0,0,0,0,0,0],"id":0,"left_children":[1,3,5,7,9,11,13,15,17,19,21,23,25,27,29,-1,-1,-1,-1,-1,-1,-1,-1,-1,-1,-1,-1,-1,-1,-1,-1],"loss_changes":[9.805293E2,2.6526825E2,1.7352771E2,6.5638794E1,1.6360574E2,7.071701E1,1.0432196E2,1.2911981E2,4.8024292E1,1.2109433E2,2.3881691E1,4.111068E1,4.4008377E1,2.6156555E1,3.68057E1,0E0,0E0,0E0,0E0,0E0,0E0,0E0,0E0,0E0,0E0,0E0,0E0,0E0,0E0,0E0,0E0],"parents":[2147483647,0,0,1,1,2,2,3,3,4,4,5,5,6,6,7,7,8,8,9,9,10,10,11,11,12,12,13,13,14,14],"right_children":[2,4,6,8,10,12,14,16,18,20,22,24,26,28,30,-1,-1,-1,-1,-1,-1,-1,-1,-1,-1,-1,-1,-1,-1,-1,-1],"split_conditions":[1.517057E0,5.722857E0,9.581429E0,-3.3019873E-1,1.7550963E0,4.6814284E0,1.7627766E0,-1.3506744E0,9.850496E-1,1.5E1,1.9907957E1,1.9794215E0,7.5E1,2.4442407E-1,1.1005387E1,-5.099843E-3,-5.2203115E-2,-1.41647365E-2,-3.862735E-2,5.7601538E-2,-9.423213E-3,-5.244788E-3,3.7431523E-2,-4.9672686E-2,4.1572456E-3,1.3110961E-2,4.468967E-2,5.277165E-2,3.6733057E-2,-5.5555552E-2,3.2320507E-2],"split_indices":[0,14,14,4,1,14,7,12,7,5,13,12,5,2,0,0,0,0,0,0,0,0,0,0,0,0,0,0,0,0,0],"split_type":[0,0,0,0,0,0,0,0,0,0,0,0,0,0,0,0,0,0,0,0,0,0,0,0,0,0,0,0,0,0,0],"sum_hessian":[2.3900505E3,1.6101693E3,7.7988116E2,6.651194E2,9.450499E2,3.6464743E2,4.152337E2,2.637801E2,4.0133926E2,8.397457E2,1.0530416E2,5.0261032E1,3.143864E2,3.9723068E2,1.800301E1,7.2272064E1,1.9150803E2,3.0682825E2,9.451103E1,2.4016048E1,8.157297E2,1.3254012E1,9.205015E1,2.2251003E1,2.801003E1,2.6835934E2,4.602708E1,1.8161435E2,2.1561635E2,1.25E1,5.503009E0],"tree_param":{"num_deleted":"0","num_feature":"22","num_nodes":"31","size_leaf_vector":"1"}},{"base_weights":[-1.07572805E-2,-5.638615E-1,7.268758E-1,-6.8581086E-1,7.703118E-1,-1.2473148E0,9.605274E-1,-2.7259377E-1,-9.608414E-1,2.4266402E-1,1.2647344E0,-1.6088902E0,1.3226278E-1,5.527068E-1,1.247306E0,5.5250797E-2,-1.0653881E-2,-3.891755E-2,-1.4094608E-2,-3.6066294E-2,1.5929239E-2,1.6211212E-2,4.9524482E-2,-7.872533E-4,-5.3962037E-2,2.8201325E-2,-3.4727074E-2,-1.2526747E-2,2.0580173E-2,3.896632E-2,-1.2958752E-2],"categories":[],"categories_nodes":[],"categories_segments":[],"categories_sizes":[],"default_left":[0,0,0,0,0,0,0,0,0,0,0,0,0,0,0,0,0,0,0,0,0,0,0,0,0,0,0,0,0,0,0],"id":1,"left_children":[1,3,5,7,9,11,13,15,17,19,21,23,25,27,29,-1,-1,-1,-1,-1,-1,-1,-1,-1,-1,-1,-1,-1,-1,-1,-1],"loss_changes":[9.743893E2,2.225911E2,4.732774E2,1.41919E2,2.9636002E1,5.445581E1,1.0640381E2,8.81393E1,1.2340033E2,2.428296E1,1.5612534E1,2.5863144E1,2.557907E1,4.9414955E1,4.7051758E1,0E0,0E0,0E0,0E0,0E0,0E0,0E0,0E0,0E0,0E0,0E0,0E0,0E0,0E0,0E0,0E0],"parents":[2147483647,0,0,1,1,2,2,3,3,4,4,5,5,6,6,7,7,8,8,9,9,10,10,11,11,12,12,13,13,14,14],"right_children":[2,4,6,8,10,12,14,16,18,20,22,24,26,28,30,-1,-1,-1,-1,-1,-1,-1,-1,-1,-1,-1,-1,-1,-1,-1,-1],"split_conditions":[9.2774856E-1,1.3727878E0,7.1087903E-3,-7.8619397E-1,1.3487164E0,2.1886706E0,1.2090825E-2,1.5E1,1.8158708E-2,-2.52559E0,2.3836548E0,1.4157732E1,2.1117384E0,-2.5985137E-1,1.7627766E0,5.5250797E-2,-1.0653881E-2,-3.891755E-2,-1.4094608E-2,-3.6066294E-2,1.5929239E-2,1.6211212E-2,4.9524482E-2,-7.872533E-4,-5.3962037E-2,2.8201325E-2,-3.4727074E-2,-1.2526747E-2,2.0580173E-2,3.896632E-2,-1.2958752E-2],"split_indices":[0,1,15,2,16,2,15,5,0,12,1,13,3,1,7,0,0,0,0,0,0,0,0,0,0,0,0,0,0,0,0],"split_type":[0,0,0,0,0,0,0,0,0,0,0,0,0,0,0,0,0,0,0,0,0,0,0,0,0,0,0,0,0,0,0],"sum_hessian":[2.386275E3,1.3638477E3,1.0224273E3,1.2500715E3,1.1377611E2,1.07742386E2,9.146849E2,5.0033667E2,7.497349E2,5.5759926E1,5.801618E1,8.5236435E1,2.250595E1,3.7885367E2,5.3583124E2,1.7997103E1,4.8233954E2,4.4393948E2,3.0579544E2,8.7482195E0,4.7011707E1,2.1005537E1,3.7010643E1,9.251232E0,7.59852E1,1.4005766E1,8.500184E0,4.550397E1,3.333497E2,5.200856E2,1.5745682E1],"tree_param":{"num_deleted":"0","num_feature":"22","num_nodes":"31","size_leaf_vector":"1"}},{"base_weights":[-9.391484E-3,-6.374292E-1,5.7162255E-1,-8.377647E-1,9.372749E-3,-2.0244421E-1,1.0100607E0,-4.710182E-1,-1.0632749E0,-1.2344053E0,3.138974E-1,1.6750593E-1,-9.2607266E-1,1.0528059E0,-5.3835154E-2,-2.3751814E-2,1.7733779E-2,-4.4632424E-2,-1.5734276E-2,5.936454E-3,-4.4961404E-2,-2.4194168E-3,2.3884898E-2,-1.0758071E-3,3.9346553E-2,-3.199318E-2,3.5216894E-2,1.3988259E-2,3.528648E-2],"categories":[],"categories_nodes":[],"categories_segments":[],"categories_sizes":[],"default_left":[0,0,0,0,0,0,0,0,0,0,0,0,0,0,0,0,0,0,0,0,0,0,0,0,0,0,0,0,0],"id":2,"left_children":[1,3,5,7,9,11,13,15,17,19,21,23,25,27,-1,-1,-1,-1,-1,-1,-1,-1,-1,-1,-1,-1,-1,-1,-1],"loss_changes":[8.700116E2,1.4847177E2,4.2052753E2,7.1850586E1,1.03388954E2,1.20267365E2,9.669556E1,1.1454546E2,1.2293091E2,2.0621475E1,4.1782818E1,6.9318306E1,4.603734E1,5.5881104E1,0E0,0E0,0E0,0E0,0E0,0E0,0E0,0E0,0E0,0E0,0E0,0E0,0E0,0E0,0E0],"parents":[2147483647,0,0,1,1,2,2,3,3,4,4,5,5,6,6,7,7,8,8,9,9,10,10,11,11,12,12,13,13],"right_children":[2,4,6,8,10,12,14,16,18,20,22,24,26,28,-1,-1,-1,-1,-1,-1,-1,-1,-1,-1,-1,-1,-1,-1,-1],"split_conditions":[1.0374523E-2,1.2972144E0,3.2453835E-2,-4.7259682E-1,6.675885E-3,-5.292236E-1,2.0788789E0,-6.192667E-1,7.1E1,4.3704454E-3,8.1463546E-1,1.6650918E0,7.5E1,-4.2452753E-1,-5.3835154E-2,-2.3751814E-2,1.7733779E-2,-4.4632424E-2,-1.5734276E-2,5.936454E-3,-4.4961404E-2,-2.4194168E-3,2.3884898E-2,-1.0758071E-3,3.9346553E-2,-3.199318E-2,3.5216894E-2,1.3988259E-2,3.528648E-2],"split_indices":[15,0,0,7,15,2,7,7,5,15,7,1,5,1,0,0,0,0,0,0,0,0,0,0,0,0,0,0,0],"split_type":[0,0,0,0,0,0,0,0,0,0,0,0,0,0,0,0,0,0,0,0,0,0,0,0,0,0,0,0,0],"sum_hessian":[2.3822566E3,1.1447551E3,1.2375015E3,8.7381195E2,2.7094315E2,4.4767142E2,7.898301E2,3.338924E2,5.3991956E2,5.26893E1,2.1825383E2,2.9673578E2,1.5093564E2,7.7858795E2,1.1242098E1,2.566522E2,7.72402E1,3.0101492E2,2.3890463E2,8.247485E0,4.4441814E1,1.2050265E2,9.775118E1,2.5277162E2,4.3964157E1,1.419402E2,8.995447E0,1.361738E2,6.424142E2],"tree_param":{"num_deleted":"0","num_feature":"22","num_nodes":"29","size_leaf_vector":"1"}},{"base_weights":[-1.8845186E-2,-4.4082108E-1,8.477173E-1,-5.6563526E-1,7.081696E-1,3.7021923E-1,1.224959E0,5.483472E-2,-6.047708E-1,8.215216E-1,-5.2483298E-2,-5.3417724E-1,5.312727E-1,2.104914E-1,1.3249195E0,3.2775702E-3,-2.1385167E-2,1.5954297E-2,4.561732E-2,-4.1472174E-2,1.0663742E-2,-1.1413281E-2,2.0743316E-2,-2.800851E-2,3.261285E-2,4.9520895E-2,3.1939726E-2],"categories":[],"categories_nodes":[],"categories_segments":[],"categories_sizes":[],"default_left":[0,0,0,0,0,0,0,0,0,0,0,0,0,0,0,0,0,0,0,0,0,0,0,0,0,0,0],"id":3,"left_children":[1,3,5,7,9,11,13,-1,15,17,-1,19,21,23,25,-1,-1,-1,-1,-1,-1,-1,-1,-1,-1,-1,-1],"loss_changes":[8.6915173E2,2.2963657E2,1.3976123E2,1.362136E2,4.519303E1,5.053253E1,4.3773987E1,0E0,1.0964484E2,2.9737167E1,0E0,4.0218876E1,4.309903E1,4.1287262E1,3.175586E1,0E0,0E0,0E0,0E0,0E0,0E0,0E0,0E0,0E0,0E0,0E0,0E0],"parents":[2147483647,0,0,1,1,2,2,3,3,4,4,5,5,6,6,8,8,9,9,11,11,12,12,13,13,14,14],"right_children":[2,4,6,8,10,12,14,-1,16,18,-1,20,22,24,26,-1,-1,-1,-1,-1,-1,-1,-1,-1,-1,-1,-1],"split_conditions":[1.517057E0,1.3727878E0,9.367857E0,1.5E1,3.5440452E0,4.760714E0,-5.3960676E-3,5.483472E-2,-2.6108794E0,3.1695666E0,-5.2483298E-2,2.2005067E0,-4.957508E-1,6.997E-5,2.5837818E-1,3.2775702E-3,-2.1385167E-2,1.5954297E-2,4.561732E-2,-4.1472174E-2,1.0663742E-2,-1.1413281E-2,2.0743316E-2,-2.800851E-2,3.261285E-2,4.9520895E-2,3.1939726E-2],"split_indices":[0,1,14,5,2,14,21,0,2,1,0,12,9,11,2,0,0,0,0,0,0,0,0,0,0,0,0],"split_type":[0,0,0,0,0,0,0,0,0,0,0,0,0,0,0,0,0,0,0,0,0,0,0,0,0,0,0],"sum_hessian":[2.3748625E3,1.5974631E3,7.773994E2,1.4413932E3,1.5606995E2,3.439818E2,4.334176E2,2.2453823E1,1.4189393E3,1.498253E2,6.2446404E0,5.16461E1,2.9233572E2,3.9154697E1,3.942629E2,1.8652536E2,1.232414E3,1.0717091E2,4.2654392E1,2.6154766E1,2.5491333E1,4.3478004E1,2.4885771E2,1.6957457E1,2.2197239E1,1.7272087E2,2.2154204E2],"tree_param":{"num_deleted":"0","num_feature":"22","num_nodes":"27","size_leaf_vector":"1"}},{"base_weights":[1.1629659E-2,-4.124681E-1,8.390511E-1,-8.5964364E-1,-6.0815703E-2,1.4328955E-1,1.12749E0,-1.2275809E0,-5.673418E-1,-3.3587983E-1,4.4501716E-1,-1.0722502E0,3.2355446E-1,1.1896664E0,-8.6319745E-1,1.441246E-2,-4.2862974E-2,-2.0161219E-2,2.1093333E-2,-1.2334925E-3,-2.6308334E-2,-4.9378905E-3,1.9662315E-2,3.4712683E-2,-5.392739E-2,9.0826425E-4,2.8697696E-2,2.6737904E-2,4.4054348E-2,-5.3345967E-2,3.418758E-2],"categories":[],"categories_nodes":[],"categories_segments":[],"categories_sizes":[],"default_left":[0,0,0,0,0,0,0,0,0,0,0,0,0,0,0,0,0,0,0,0,0,0,0,0,0,0,0,0,0,0,0],"id":4,"left_children":[1,3,5,7,9,11,13,15,17,19,21,23,25,27,29,-1,-1,-1,-1,-1,-1,-1,-1,-1,-1,-1,-1,-1,-1,-1,-1],"loss_changes":[8.411906E2,2.4917041E2,1.6285883E2,7.4329895E1,1.2374086E2,5.276283E1,7.208649E1,1.0651703E2,5.2430702E1,9.182113E1,4.0293507E1,5.241001E1,3.8789185E1,4.5044434E1,3.4953533E1,0E0,0E0,0E0,0E0,0E0,0E0,0E0,0E0,0E0,0E0,0E0,0E0,0E0,0E0,0E0,0E0],"parents":[2147483647,0,0,1,1,2,2,3,3,4,4,5,5,6,6,7,7,8,8,9,9,10,10,11,11,12,12,13,13,14,14],"right_children":[2,4,6,8,10,12,14,16,18,20,22,24,26,28,30,-1,-1,-1,-1,-1,-1,-1,-1,-1,-1,-1,-1,-1,-1,-1,-1],"split_conditions":[1.517057E0,8.63598E-3,1.0258835E-2,-2.0649834E-1,4.3569334E-2,6.230396E-3,1.7627766E0,-1.9709411E0,1.7140799E0,-4.4410622E-1,1.0374523E-2,4.3704454E-3,7.2E1,1.1463572E1,8.4558E0,1.441246E-2,-4.2862974E-2,-2.0161219E-2,2.1093333E-2,-1.2334925E-3,-2.6308334E-2,-4.9378905E-3,1.9662315E-2,3.4712683E-2,-5.392739E-2,9.0826425E-4,2.8697696E-2,2.6737904E-2,4.4054348E-2,-5.3345967E-2,3.418758E-2],"split_indices":[0,15,15,4,0,15,7,4,9,2,15,15,5,14,2,0,0,0,0,0,0,0,0,0,0,0,0,0,0,0,0],"split_type":[0,0,0,0,0,0,0,0,0,0,0,0,0,0,0,0,0,0,0,0,0,0,0,0,0,0,0,0,0,0,0],"sum_hessian":[2.3951992E3,1.5838783E3,8.1132086E2,6.966039E2,8.872745E2,2.3821185E2,5.73109E2,3.0698468E2,3.896192E2,5.749574E2,3.1231705E2,3.0125458E1,2.080864E2,5.561411E2,1.6967928E1,3.220304E1,2.7478165E2,3.6039023E2,2.9228956E1,3.7288925E2,2.0206816E2,8.018864E1,2.3212839E2,7.249246E0,2.2876211E1,1.4292055E2,6.516584E1,2.7065976E2,2.8548132E2,1.1723849E1,5.2440786E0],"tree_param":{"num_deleted":"0","num_feature":"22","num_nodes":"31","size_leaf_vector":"1"}},{"base_weights":[-1.4343359E-2,-5.9996146E-1,5.108272E-1,-1.0148189E0,-1.7757057E-1,-1.522941E-1,9.787218E-1,-8.369047E-3,-1.1391557E0,-7.43317E-1,2.6335502E-1,-4.2625722E-1,5.624727E-1,1.008851E0,-4.957787E-2,2.245015E-2,-3.9279718E-2,-4.2206034E-2,-2.1665033E-2,1.1904274E-2,-2.9878795E-2,-1.611582E-2,1.4484459E-2,-2.0887963E-2,2.2588655E-2,-5.200082E-2,2.0757334E-2,-5.315806E-2,3.0971892E-2],"categories":[],"categories_nodes":[],"categories_segments":[],"categories_sizes":[],"default_left":[0,0,0,0,0,0,0,0,0,0,0,0,0,0,0,0,0,0,0,0,0,0,0,0,0,0,0,0,0],"id":5,"left_children":[1,3,5,7,9,11,13,15,17,19,21,23,25,27,-1,-1,-1,-1,-1,-1,-1,-1,-1,-1,-1,-1,-1,-1,-1],"loss_changes":[7.3177673E2,1.9694489E2,3.8936713E2,7.098389E1,1.395446E2,1.0203121E2,5.998712E1,6.3381027E1,5.5350708E1,7.094855E1,5.5545246E1,1.2035481E2,4.4130344E1,4.9489502E1,0E0,0E0,0E0,0E0,0E0,0E0,0E0,0E0,0E0,0E0,0E0,0E0,0E0,0E0,0E0],"parents":[2147483647,0,0,1,1,2,2,3,3,4,4,5,5,6,6,7,7,8,8,9,9,10,10,11,11,12,12,13,13],"right_children":[2,4,6,8,10,12,14,16,18,20,22,24,26,28,-1,-1,-1,-1,-1,-1,-1,-1,-1,-1,-1,-1,-1,-1,-1],"split_conditions":[1.0258835E-2,1.9604008E-1,1.755469E-1,-1.712822E0,7.1087903E-3,3.2984398E1,2.0788789E0,-2.3216298E-2,-3.3019873E-1,-9.7253406E-1,-2.5235754E-1,4.705609E0,-1.1395937E1,-4.5001E-4,-4.957787E-2,2.245015E-2,-3.9279718E-2,-4.2206034E-2,-2.1665033E-2,1.1904274E-2,-2.9878795E-2,-1.611582E-2,1.4484459E-2,-2.0887963E-2,2.2588655E-2,-5.200082E-2,2.0757334E-2,-5.315806E-2,3.0971892E-2],"split_indices":[15,4,4,4,15,13,7,7,4,7,3,12,3,11,0,0,0,0,0,0,0,0,0,0,0,0,0,0,0],"split_type":[0,0,0,0,0,0,0,0,0,0,0,0,0,0,0,0,0,0,0,0,0,0,0,0,0,0,0,0,0],"sum_hessian":[2.3773833E3,1.1239374E3,1.2534459E3,5.6631757E2,5.5761975E2,5.1882227E2,7.3462366E2,6.238738E1,5.039302E2,2.4393886E2,3.1368088E2,3.753557E2,1.4346654E2,7.269169E2,7.7067766E0,3.971292E1,2.2674458E1,3.0545193E2,1.9847829E2,4.414605E1,1.997928E2,6.7178566E1,2.4650232E2,3.057554E2,6.9600296E1,6.9955745E0,1.3647096E2,5.4797873E0,7.214371E2],"tree_param":{"num_deleted":"0","num_feature":"22","num_nodes":"29","size_leaf_vector":"1"}},{"base_weights":[4.2933384E-3,-5.4721606E-1,4.9806905E-1,-9.260203E-1,-1.361706E-1,-1.0317532E-1,9.2251205E-1,-5.0546056E-1,-1.181113E0,-7.206572E-1,2.7824447E-1,-3.2397637E-1,8.364741E-1,3.3784276E-1,1.102781E0,-4.798962E-2,-6.7840987E-3,-3.8710315E-2,-3.6928612E-3,5.012966E-4,-2.801839E-2,-3.972668E-3,2.3788143E-2,-1.995957E-2,1.2748678E-2,4.7402065E-2,-6.531351E-3,-1.1953812E-3,3.2166403E-2,1.772248E-2,3.5780452E-2],"categories":[],"categories_nodes":[],"categories_segments":[],"categories_sizes":[],"default_left":[0,0,0,0,0,0,0,0,0,0,0,0,0,0,0,0,0,0,0,0,0,0,0,0,0,0,0,0,0,0,0],"id":6,"left_children":[1,3,5,7,9,11,13,15,17,19,21,23,25,27,29,-1,-1,-1,-1,-1,-1,-1,-1,-1,-1,-1,-1,-1,-1,-1,-1],"loss_changes":[6.4792596E2,1.7487625E2,3.2044888E2,6.2134033E1,1.3104738E2,1.08235756E2,7.7196045E1,6.764607E1,4.1817627E1,3.5306114E1,6.706779E1,1.081848E2,7.8177376E1,4.8548553E1,2.5169067E1,0E0,0E0,0E0,0E0,0E0,0E0,0E0,0E0,0E0,0E0,0E0,0E0,0E0,0E0,0E0,0E0],"parents":[2147483647,0,0,1,1,2,2,3,3,4,4,5,5,6,6,7,7,8,8,9,9,10,10,11,11,12,12,13,13,14,14],"right_children":[2,4,6,8,10,12,14,16,18,20,22,24,26,28,30,-1,-1,-1,-1,-1,-1,-1,-1,-1,-1,-1,-1,-1,-1,-1,-1],"split_conditions":[1.0258835E-2,2.3993826E-1,1.22893214E-1,-5.683612E-1,6.981578E-3,4.705609E0,-5.581247E-2,-2.099955E0,1.377138E0,-2.6581994E-1,7.1E1,3.2083126E1,6.1E1,1.3608571E1,4.608686E-1,-4.798962E-2,-6.7840987E-3,-3.8710315E-2,-3.6928612E-3,5.012966E-4,-2.801839E-2,-3.972668E-3,2.3788143E-2,-1.995957E-2,1.2748678E-2,4.7402065E-2,-6.531351E-3,-1.1953812E-3,3.2166403E-2,1.772248E-2,3.5780452E-2],"split_indices":[15,4,4,2,15,12,1,3,9,12,5,13,5,14,20,0,0,0,0,0,0,0,0,0,0,0,0,0,0,0,0],"split_type":[0,0,0,0,0,0,0,0,0,0,0,0,0,0,0,0,0,0,0,0,0,0,0,0,0,0,0,0,0,0,0],"sum_hessian":[2.377264E3,1.1229297E3,1.2543341E3,5.837315E2,5.3919824E2,5.193733E2,7.349608E2,2.2151357E2,3.6221793E2,2.2339099E2,3.1580725E2,4.2108173E2,9.8291565E1,1.7388174E2,5.610791E2,4.4086597E1,1.7742696E2,3.2812262E2,3.409532E1,5.0326763E1,1.7306422E2,1.760679E2,1.3973936E2,2.893264E2,1.3175533E2,5.734387E1,4.09477E1,1.1545082E2,5.843093E1,8.492983E1,4.7614926E2],"tree_param":{"num_deleted":"0","num_feature":"22","num_nodes":"31","size_leaf_vector":"1"}},{"base_weights":[2.4670286E-2,-5.398505E-1,5.3426737E-1,-9.292547E-1,-2.1841589E-1,-1.7719446E-1,9.313646E-1,1.02206975E-1,-1.0781064E0,-7.985017E-1,1.005003E-1,-4.6956825E-1,6.2706935E-1,-4.5510533E-1,9.861475E-1,-5.0243877E-2,1.3066463E-2,-3.531379E-2,-1.6097921E-3,-4.1684587E-2,-1.3502924E-2,-5.0567446E-4,4.1433E-2,-1.8390821E-2,2.0388734E-2,2.5379958E-2,-3.9623886E-2,-4.4004247E-2,1.1202346E-2,2.037407E-2,3.4299467E-2],"categories":[],"categories_nodes":[],"categories_segments":[],"categories_sizes":[],"default_left":[0,0,0,0,0,0,0,0,0,0,0,0,0,0,0,0,0,0,0,0,0,0,0,0,0,0,0,0,0,0,0],"id":7,"left_children":[1,3,5,7,9,11,13,15,17,19,21,23,25,27,29,-1,-1,-1,-1,-1,-1,-1,-1,-1,-1,-1,-1,-1,-1,-1,-1],"loss_changes":[6.9544446E2,1.4335657E2,3.5910654E2,7.9691284E1,1.16557144E2,1.0750838E2,6.2394165E1,3.99907E1,4.5893982E1,4.5385803E1,6.121182E1,5.5638702E1,5.313847E1,2.710566E1,3.709558E1,0E0,0E0,0E0,0E0,0E0,0E0,0E0,0E0,0E0,0E0,0E0,0E0,0E0,0E0,0E0,0E0],"parents":[2147483647,0,0,1,1,2,2,3,3,4,4,5,5,6,6,7,7,8,8,9,9,10,10,11,11,12,12,13,13,14,14],"right_children":[2,4,6,8,10,12,14,16,18,20,22,24,26,28,30,-1,-1,-1,-1,-1,-1,-1,-1,-1,-1,-1,-1,-1,-1,-1,-1],"split_conditions":[1.0316307E-2,2.4471713E-2,3.2453835E-2,-1.712822E0,6.4988444E-3,3.3909153E1,-1.6763173E-1,6.293514E-1,7.5E1,9.2286706E-2,1.709E-4,1.6650918E0,-8.6385727E-1,7.2E1,9.581429E0,-5.0243877E-2,1.3066463E-2,-3.531379E-2,-1.6097921E-3,-4.1684587E-2,-1.3502924E-2,-5.0567446E-4,4.1433E-2,-1.8390821E-2,2.0388734E-2,2.5379958E-2,-3.9623886E-2,-4.4004247E-2,1.1202346E-2,2.037407E-2,3.4299467E-2],"split_indices":[15,4,0,4,15,13,21,19,5,1,11,1,2,5,14,0,0,0,0,0,0,0,0,0,0,0,0,0,0,0,0],"split_type":[0,0,0,0,0,0,0,0,0,0,0,0,0,0,0,0,0,0,0,0,0,0,0,0,0,0,0,0,0,0,0],"sum_hessian":[2.4154368E3,1.1459349E3,1.2695017E3,5.173259E2,6.286091E2,4.5494687E2,8.145548E2,6.528055E1,4.5204538E2,2.2246225E2,4.061468E2,3.33959E2,1.2098788E2,3.0683996E1,7.8387085E2,9.675804E0,5.5604744E1,4.120672E2,3.9978172E1,8.139943E1,1.4106282E2,3.7295544E2,3.319137E1,2.9731085E2,3.6648155E1,1.0927199E2,1.1715883E1,1.3467912E1,1.7216085E1,2.6721475E2,5.1665607E2],"tree_param":{"num_deleted":"0","num_feature":"22","num_nodes":"31","size_leaf_vector":"1"}},{"base_weights":[4.7113663E-3,-4.0875757E-1,6.67786E-1,-5.1698196E-1,7.1125525E-1,-9.2529404E-1,8.205405E-1,-1.04536876E-1,-6.955902E-1,-4.935171E-2,8.282859E-1,-1.2610922E0,7.335577E-1,4.3880787E-1,1.0900615E0,9.8846145E-3,-1.1679055E-2,-3.1464025E-2,-8.128301E-3,1.1641946E-2,3.692805E-2,-8.409102E-3,-4.652329E-2,4.1833404E-2,-1.4892161E-3,5.826994E-3,2.7876576E-2,3.4062292E-2,-1.723671E-2],"categories":[],"categories_nodes":[],"categories_segments":[],"categories_sizes":[],"default_left":[0,0,0,0,0,0,0,0,0,0,0,0,0,0,0,0,0,0,0,0,0,0,0,0,0,0,0,0,0],"id":8,"left_children":[1,3,5,7,9,11,13,15,17,-1,19,21,23,25,27,-1,-1,-1,-1,-1,-1,-1,-1,-1,-1,-1,-1,-1,-1],"loss_changes":[6.5451685E2,1.7860419E2,2.2388882E2,9.874716E1,3.720788E1,4.587607E1,8.565814E1,5.037536E1,1.4009271E2,0E0,2.159079E1,1.8737343E1,7.4282503E0,4.1577812E1,3.764557E1,0E0,0E0,0E0,0E0,0E0,0E0,0E0,0E0,0E0,0E0,0E0,0E0,0E0,0E0],"parents":[2147483647,0,0,1,1,2,2,3,3,4,4,5,5,6,6,7,7,8,8,10,10,11,11,12,12,13,13,14,14],"right_children":[2,4,6,8,10,12,14,16,18,-1,20,22,24,26,28,-1,-1,-1,-1,-1,-1,-1,-1,-1,-1,-1,-1,-1,-1],"split_conditions":[1.1659644E0,1.4162991E0,6.981578E-3,-1.2323363E0,-9.77903E-1,2.5652242E0,1.2090825E-2,-2.714148E0,1.8158708E-2,-4.935171E-2,1.327641E0,1.9630238E1,4.7E1,7.2E1,1.7627766E0,9.8846145E-3,-1.1679055E-2,-3.1464025E-2,-8.128301E-3,1.1641946E-2,3.692805E-2,-8.409102E-3,-4.652329E-2,4.1833404E-2,-1.4892161E-3,5.826994E-3,2.7876576E-2,3.4062292E-2,-1.723671E-2],"split_indices":[0,1,15,2,16,2,15,0,0,0,16,13,5,5,7,0,0,0,0,0,0,0,0,0,0,0,0,0,0],"split_type":[0,0,0,0,0,0,0,0,0,0,0,0,0,0,0,0,0,0,0,0,0,0,0,0,0,0,0,0,0],"sum_hessian":[2.3853513E3,1.4694437E3,9.1590753E2,1.3404568E3,1.28987E2,7.969624E1,8.3621124E2,4.055468E2,9.3491E2,5.48545E0,1.2350155E2,6.6478836E1,1.3217402E1,3.4715338E2,4.890579E2,1.6060458E2,2.4494223E2,5.0958234E2,4.2532764E2,5.99363E1,6.3565254E1,1.5606675E1,5.087216E1,6.745158E0,6.4722443E0,2.3256575E2,1.14587616E2,4.763976E2,1.2660285E1],"tree_param":{"num_deleted":"0","num_feature":"22","num_nodes":"29","size_leaf_vector":"1"}},{"base_weights":[3.0437496E-3,-3.8369808E-1,7.528656E-1,-4.902603E-1,8.1096447E-1,-9.833609E-1,8.40655E-1,-1.0548344E0,-3.3540788E-1,-3.2745728E-1,1.0269488E0,2.208429E-2,-1.3426918E0,5.3717935E-1,1.1214089E0,2.3792038E-2,-4.1655924E-2,-1.9053577E-2,1.2737657E-3,-5.322445E-2,1.6088668E-2,-2.272223E-2,3.4132596E-2,1.2912743E-2,-5.0628494E-2,-8.498942E-3,2.102961E-2,3.5153076E-2,-8.602654E-3],"categories":[],"categories_nodes":[],"categories_segments":[],"categories_sizes":[],"default_left":[0,0,0,0,0,0,0,0,0,0,0,0,0,0,0,0,0,0,0,0,0,0,0,0,0,0,0,0,0],"id":9,"left_children":[1,3,5,7,9,11,13,15,17,19,21,-1,23,25,27,-1,-1,-1,-1,-1,-1,-1,-1,-1,-1,-1,-1,-1,-1],"loss_changes":[6.9210876E2,2.0084917E2,1.24612335E2,1.2608484E2,3.213463E1,2.5424057E1,6.530768E1,1.9277042E2,1.2872684E2,2.766892E1,2.2401306E1,0E0,2.094946E1,5.041922E1,2.8766846E1,0E0,0E0,0E0,0E0,0E0,0E0,0E0,0E0,0E0,0E0,0E0,0E0,0E0,0E0],"parents":[2147483647,0,0,1,1,2,2,3,3,4,4,5,5,6,6,7,7,8,8,9,9,10,10,12,12,13,13,14,14],"right_children":[2,4,6,8,10,12,14,16,18,20,22,-1,24,26,28,-1,-1,-1,-1,-1,-1,-1,-1,-1,-1,-1,-1,-1,-1],"split_conditions":[1.517057E0,1.6128765E0,6.579903E-3,5.987601E-3,2.0083906E1,4.3704454E-3,1.3082331E-2,-1.0680897E0,-1.9477396E-1,7.371212E-1,8.299333E-3,2.208429E-2,1.9808191E1,-8.649786E-2,1.7627766E0,2.3792038E-2,-4.1655924E-2,-1.9053577E-2,1.2737657E-3,-5.322445E-2,1.6088668E-2,-2.272223E-2,3.4132596E-2,1.2912743E-2,-5.0628494E-2,-8.498942E-3,2.102961E-2,3.5153076E-2,-8.602654E-3],"split_indices":[0,1,15,15,13,15,15,7,0,0,15,0,13,1,7,0,0,0,0,0,0,0,0,0,0,0,0,0,0],"split_type":[0,0,0,0,0,0,0,0,0,0,0,0,0,0,0,0,0,0,0,0,0,0,0,0,0,0,0,0,0],"sum_hessian":[2.384689E3,1.5735662E3,8.111229E2,1.4452422E3,1.2832396E2,3.8548145E1,7.7257477E2,3.098291E2,1.1354131E3,2.0381256E1,1.0794271E2,6.481865E0,3.206628E1,3.72664E2,3.9991077E2,4.7180767E1,2.6264832E2,6.328091E2,5.02604E2,7.225399E0,1.3155857E1,5.9699025E0,1.019728E2,5.1816525E0,2.6884628E1,6.1898453E1,3.1076553E2,3.8626462E2,1.364614E1],"tree_param":{"num_deleted":"0","num_feature":"22","num_nodes":"29","size_leaf_vector":"1"}},{"base_weights":[-9.495184E-3,-3.655616E-1,7.0413625E-1,-4.7519723E-1,5.9581405E-1,2.4305715E-1,1.0558589E0,5.390301E-2,-5.1347685E-1,8.4904563E-1,-2.1070488E-1,-8.934809E-1,3.5096183E-1,-1.9336758E-2,1.0872501E0,-1.915536E-2,4.9957465E-3,1.2722599E-2,4.0203042E-2,1.6700173E-2,-3.1047896E-2,3.5440035E-2,-4.862751E-2,1.247084E-2,-4.087051E-2,3.3835366E-2,-1.4334781E-3],"categories":[],"categories_nodes":[],"categories_segments":[],"categories_sizes":[],"default_left":[0,0,0,0,0,0,0,0,0,0,0,0,0,0,0,0,0,0,0,0,0,0,0,0,0,0,0],"id":10,"left_children":[1,3,5,7,9,11,13,-1,15,17,19,21,23,-1,25,-1,-1,-1,-1,-1,-1,-1,-1,-1,-1,-1,-1],"loss_changes":[5.9218677E2,1.6415575E2,1.2554947E2,1.2234625E2,3.2774616E1,4.164149E1,2.4174744E1,0E0,1.16912415E2,2.4819626E1,2.5203962E1,4.6442566E1,3.4780113E1,0E0,1.9966919E1,0E0,0E0,0E0,0E0,0E0,0E0,0E0,0E0,0E0,0E0,0E0,0E0],"parents":[2147483647,0,0,1,1,2,2,3,3,4,4,5,5,6,6,8,8,9,9,10,10,11,11,12,12,14,14],"right_children":[2,4,6,8,10,12,14,-1,16,18,20,22,24,-1,26,-1,-1,-1,-1,-1,-1,-1,-1,-1,-1,-1,-1],"split_conditions":[1.517057E0,1.3727878E0,1.2090825E-2,-7E-1,6.4108245E-2,6.230396E-3,-2.136703E0,5.390301E-2,5.316114E-1,1.2831804E0,1.9380044E-2,4.3704454E-3,4.393961E1,-1.9336758E-2,1.7627766E0,-1.915536E-2,4.9957465E-3,1.2722599E-2,4.0203042E-2,1.6700173E-2,-3.1047896E-2,3.5440035E-2,-4.862751E-2,1.247084E-2,-4.087051E-2,3.3835366E-2,-1.4334781E-3],"split_indices":[0,1,15,6,17,15,1,0,20,16,16,15,13,0,7,0,0,0,0,0,0,0,0,0,0,0,0],"split_type":[0,0,0,0,0,0,0,0,0,0,0,0,0,0,0,0,0,0,0,0,0,0,0,0,0,0,0],"sum_hessian":[2.3285115E3,1.5537538E3,7.7475775E2,1.3951554E3,1.5859827E2,3.359917E2,4.3876608E2,2.2355906E1,1.3727996E3,1.2066045E2,3.793782E1,2.850232E1,3.0748938E2,7.5991254E0,4.3116696E2,1.1596333E3,2.1316628E2,6.568252E1,5.4977932E1,1.981453E1,1.812329E1,7.2369375E0,2.1265383E1,2.9702448E2,1.0464884E1,4.162845E2,1.4882472E1],"tree_param":{"num_deleted":"0","num_feature":"22","num_nodes":"27","size_leaf_vector":"1"}},{"base_weights":[2.7633138E-2,-4.9923575E-1,4.979346E-1,-6.700842E-1,1.7673884E-1,-4.9036592E-2,9.494345E-1,-1.191474E0,-4.6317706E-1,-1.3304341E0,3.4663478E-1,-1.6513777E-1,7.7019596E-1,9.888612E-1,-5.070482E-2,9.085028E-3,-4.4104252E-2,-2.0176472E-2,6.4363074E-3,5.048805E-3,-5.3339332E-2,-1.4149296E-3,2.4091417E-2,5.101218E-2,-6.6040717E-3,3.602979E-2,-5.064617E-2,2.3093697E-2,3.6374573E-2],"categories":[],"categories_nodes":[],"categories_segments":[],"categories_sizes":[],"default_left":[0,0,0,0,0,0,0,0,0,0,0,0,0,0,0,0,0,0,0,0,0,0,0,0,0,0,0,0,0],"id":11,"left_children":[1,3,5,7,9,11,13,15,17,19,21,23,25,27,-1,-1,-1,-1,-1,-1,-1,-1,-1,-1,-1,-1,-1,-1,-1],"loss_changes":[5.859581E2,1.2892749E2,3.086017E2,9.551691E1,5.8283268E1,5.3955032E1,7.2907166E1,1.0553134E2,9.0838776E1,1.5781837E1,3.6655197E1,5.1316406E1,7.661209E1,3.213733E1,0E0,0E0,0E0,0E0,0E0,0E0,0E0,0E0,0E0,0E0,0E0,0E0,0E0,0E0,0E0],"parents":[2147483647,0,0,1,1,2,2,3,3,4,4,5,5,6,6,7,7,8,8,9,9,10,10,11,11,12,12,13,13],"right_children":[2,4,6,8,10,12,14,16,18,20,22,24,26,28,-1,-1,-1,-1,-1,-1,-1,-1,-1,-1,-1,-1,-1,-1,-1],"split_conditions":[1.0374523E-2,5.406773E-1,7.9887E-1,5.8105066E-3,-1.507044E0,4.5312147E0,2.0788789E0,-9.114537E-1,3.588E-5,4.3E1,8.349398E-3,1.5E1,1.6615288E0,1.1463572E1,-5.070482E-2,9.085028E-3,-4.4104252E-2,-2.0176472E-2,6.4363074E-3,5.048805E-3,-5.3339332E-2,-1.4149296E-3,2.4091417E-2,5.101218E-2,-6.6040717E-3,3.602979E-2,-5.064617E-2,2.3093697E-2,3.6374573E-2],"split_indices":[15,20,0,15,7,12,7,7,11,5,15,5,7,14,0,0,0,0,0,0,0,0,0,0,0,0,0,0,0],"split_type":[0,0,0,0,0,0,0,0,0,0,0,0,0,0,0,0,0,0,0,0,0,0,0,0,0,0,0,0,0],"sum_hessian":[2.3627603E3,1.1143339E3,1.2484264E3,8.895214E2,2.2481238E2,5.649306E2,6.834958E2,2.5135873E2,6.381627E2,2.2082678E1,2.027297E2,4.9550613E2,6.942443E1,6.740531E2,9.442718E0,3.949373E1,2.11865E2,4.8754907E2,1.5061363E2,5.2213755E0,1.6861301E1,1.09311165E2,9.341855E1,1.3332916E1,4.8217322E2,5.9508034E1,9.916394E0,3.4273703E2,3.3131604E2],"tree_param":{"num_deleted":"0","num_feature":"22","num_nodes":"29","size_leaf_vector":"1"}},{"base_weights":[2.389811E-2,-3.4696186E-1,6.2151885E-1,-4.6729094E-1,7.321417E-1,-9.5085305E-1,7.612719E-1,5.0854865E-2,-4.9556836E-1,3.835649E-1,1.2840368E0,2.237662E-2,-1.128613E0,3.2437146E-1,9.621312E-1,-1.694381E-2,9.941971E-3,-4.0684614E-2,1.908309E-2,4.3646984E-2,1.1673182E-2,-4.416211E-2,-7.2600003E-3,5.8721155E-3,4.3817744E-2,3.0375144E-2,-3.078407E-2],"categories":[],"categories_nodes":[],"categories_segments":[],"categories_sizes":[],"default_left":[0,0,0,0,0,0,0,0,0,0,0,0,0,0,0,0,0,0,0,0,0,0,0,0,0,0,0],"id":12,"left_children":[1,3,5,7,9,11,13,-1,15,17,19,-1,21,23,25,-1,-1,-1,-1,-1,-1,-1,-1,-1,-1,-1,-1],"loss_changes":[5.2592035E2,1.904784E2,2.0039389E2,8.1434784E1,2.784301E1,2.3346222E1,7.296689E1,0E0,7.470999E1,4.1150597E1,8.08725E0,0E0,2.0331154E1,3.837246E1,5.8281982E1,0E0,0E0,0E0,0E0,0E0,0E0,0E0,0E0,0E0,0E0,0E0,0E0],"parents":[2147483647,0,0,1,1,2,2,3,3,4,4,5,5,6,6,8,8,9,9,10,10,12,12,13,13,14,14],"right_children":[2,4,6,8,10,12,14,-1,16,18,20,-1,22,24,26,-1,-1,-1,-1,-1,-1,-1,-1,-1,-1,-1,-1],"split_conditions":[1.1659644E0,1.3727878E0,6.981578E-3,1.5E1,1.7202934E0,3.3706582E-1,1.0878936E-2,5.0854865E-2,4.1827354E0,-2.6373932E0,1.0714577E-1,2.237662E-2,9.3856776E-1,1.8834E-4,1.7627766E0,-1.694381E-2,9.941971E-3,-4.0684614E-2,1.908309E-2,4.3646984E-2,1.1673182E-2,-4.416211E-2,-7.2600003E-3,5.8721155E-3,4.3817744E-2,3.0375144E-2,-3.078407E-2],"split_indices":[0,1,15,5,16,20,15,0,12,12,17,0,7,11,7,0,0,0,0,0,0,0,0,0,0,0,0],"split_type":[0,0,0,0,0,0,0,0,0,0,0,0,0,0,0,0,0,0,0,0,0,0,0,0,0,0,0],"sum_hessian":[2.3709536E3,1.4633041E3,9.076496E2,1.3170131E3,1.46291E2,7.36136E1,8.34036E2,1.6238817E1,1.3007743E3,9.069994E1,5.559106E1,6.677737E0,6.693586E1,2.634991E2,5.705369E2,1.20059E3,1.0018426E2,1.0943157E1,7.975678E1,4.6153576E1,9.437484E0,4.7770233E1,1.9165627E1,2.3775461E2,2.5744522E1,5.569179E2,1.3618997E1],"tree_param":{"num_deleted":"0","num_feature":"22","num_nodes":"27","size_leaf_vector":"1"}},{"base_weights":[-3.3889493E-5,-3.2525057E-1,6.583168E-1,-7.36283E-1,-1.0515509E-2,7.842116E-2,8.8516223E-1,7.369546E-1,-7.8786886E-1,-1.4613141E-1,8.78709E-1,-1.1654494E0,2.4172777E-1,9.481674E-1,-1.1381165E0,4.269664E-2,-1.2109434E-2,-3.5670996E-2,-1.6194407E-2,5.1361386E-2,-6.197885E-3,-7.2735385E-3,3.1633284E-2,9.993658E-3,-4.6862453E-2,1.4459788E-2,-2.8749714E-2,3.7218355E-2,2.2010662E-2,3.7086138E-3,-5.1779997E-2],"categories":[],"categories_nodes":[],"categories_segments":[],"categories_sizes":[],"default_left":[0,0,0,0,0,0,0,0,0,0,0,0,0,0,0,0,0,0,0,0,0,0,0,0,0,0,0,0,0,0,0],"id":13,"left_children":[1,3,5,7,9,11,13,15,17,19,21,23,25,27,29,-1,-1,-1,-1,-1,-1,-1,-1,-1,-1,-1,-1,-1,-1,-1,-1],"loss_changes":[5.035896E2,2.0365942E2,1.0223523E2,5.2465607E1,1.07773506E2,4.4925804E1,7.23295E1,1.9058016E1,6.504529E1,8.746964E1,2.355661E1,1.5782684E1,5.671541E1,3.3122894E1,1.3070871E1,0E0,0E0,0E0,0E0,0E0,0E0,0E0,0E0,0E0,0E0,0E0,0E0,0E0,0E0,0E0,0E0],"parents":[2147483647,0,0,1,1,2,2,3,3,4,4,5,5,6,6,7,7,8,8,9,9,10,10,11,11,12,12,13,13,14,14],"right_children":[2,4,6,8,10,12,14,16,18,20,22,24,26,28,30,-1,-1,-1,-1,-1,-1,-1,-1,-1,-1,-1,-1,-1,-1,-1,-1],"split_conditions":[1.517057E0,8.63598E-3,1.0258835E-2,-2.2344537E0,1.6128765E0,6.230396E-3,1.7627766E0,5E1,-3.3019873E-1,1.5E1,1.9907957E1,4.597663E-3,7.07E0,3.5771328E-1,-3.7188805E1,4.269664E-2,-1.2109434E-2,-3.5670996E-2,-1.6194407E-2,5.1361386E-2,-6.197885E-3,-7.2735385E-3,3.1633284E-2,9.993658E-3,-4.6862453E-2,1.4459788E-2,-2.8749714E-2,3.7218355E-2,2.2010662E-2,3.7086138E-3,-5.1779997E-2],"split_indices":[0,15,15,4,1,15,7,5,4,5,13,15,14,2,18,0,0,0,0,0,0,0,0,0,0,0,0,0,0,0,0],"split_type":[0,0,0,0,0,0,0,0,0,0,0,0,0,0,0,0,0,0,0,0,0,0,0,0,0,0,0,0,0,0,0],"sum_hessian":[2.3500505E3,1.5733446E3,7.767059E2,6.81713E2,8.916316E2,2.1877835E2,5.5792755E2,2.2613358E1,6.590997E2,7.743681E2,1.1726345E2,2.4677637E1,1.9410072E2,5.415936E2,1.6333912E1,1.3963907E1,8.64945E0,2.5038087E2,4.087188E2,2.3542902E1,7.508252E2,1.583818E1,1.0142527E2,5.1981006E0,1.9479536E1,1.6222052E2,3.1880196E1,2.271235E2,3.1447012E2,5.4425755E0,1.0891336E1],"tree_param":{"num_deleted":"0","num_feature":"22","num_nodes":"31","size_leaf_vector":"1"}},{"base_weights":[-5.7717366E-3,-3.9609903E-1,5.6132716E-1,-4.9661955E-1,6.0845685E-1,1.0508639E0,3.6529577E-1,-6.56319E-1,1.3762856E-1,-4.8881397E-2,7.603641E-1,2.6696262E-1,1.1869729E0,2.3227814E-1,1.2606462E0,-2.230722E-2,5.4411776E-3,-3.3478934E-2,1.4100277E-2,1.189404E-3,3.6345728E-2,-1.45726865E-2,2.6930682E-2,2.703746E-2,4.35934E-2,8.75939E-4,2.9037993E-2,-1.708728E-2,4.553354E-2],"categories":[],"categories_nodes":[],"categories_segments":[],"categories_sizes":[],"default_left":[0,0,0,0,0,0,0,0,0,0,0,0,0,0,0,0,0,0,0,0,0,0,0,0,0,0,0,0,0],"id":14,"left_children":[1,3,5,7,9,11,13,15,17,-1,19,21,23,25,27,-1,-1,-1,-1,-1,-1,-1,-1,-1,-1,-1,-1,-1,-1],"loss_changes":[5.2009534E2,1.408341E2,9.154068E1,1.2828778E2,4.4426044E1,2.8850555E1,8.1352264E1,7.404996E1,1.0694585E2,0E0,3.8856667E1,2.0249332E1,1.6380676E1,8.932386E1,4.2489212E1,0E0,0E0,0E0,0E0,0E0,0E0,0E0,0E0,0E0,0E0,0E0,0E0,0E0,0E0],"parents":[2147483647,0,0,1,1,2,2,3,3,4,4,5,5,6,6,7,7,8,8,10,10,11,11,12,12,13,13,14,14],"right_children":[2,4,6,8,10,12,14,16,18,-1,20,22,24,26,28,-1,-1,-1,-1,-1,-1,-1,-1,-1,-1,-1,-1,-1,-1],"split_conditions":[1.0515375E0,3.7876423E1,-2.5615853E-1,5.0527644E-1,-2.0205E-4,4.5643222E-1,7.5E1,6.043E-5,-1.8752222E0,-4.8881397E-2,4.8E1,-3.2921827E-1,2.8179977E0,4.738176E0,-4.375599E-1,-2.230722E-2,5.4411776E-3,-3.3478934E-2,1.4100277E-2,1.189404E-3,3.6345728E-2,-1.45726865E-2,2.6930682E-2,2.703746E-2,4.35934E-2,8.75939E-4,2.9037993E-2,-1.708728E-2,4.553354E-2],"split_indices":[0,13,2,20,8,20,5,8,7,0,5,16,0,2,9,0,0,0,0,0,0,0,0,0,0,0,0,0,0],"split_type":[0,0,0,0,0,0,0,0,0,0,0,0,0,0,0,0,0,0,0,0,0,0,0,0,0,0,0,0,0],"sum_hessian":[2.3476025E3,1.3907013E3,9.5690137E2,1.2646592E3,1.26042046E2,2.723695E2,6.8453186E2,1.0102502E3,2.5440906E2,7.3937736E0,1.1864827E2,4.0733246E1,2.3163625E2,5.970854E2,8.744649E1,9.150498E2,9.520039E1,5.2823742E1,2.0158531E2,4.609712E1,7.255115E1,1.8675486E1,2.2057758E1,1.13823524E2,1.1781273E2,4.6873038E2,1.28355E2,1.0622704E1,7.6823784E1],"tree_param":{"num_deleted":"0","num_feature":"22","num_nodes":"29","size_leaf_vector":"1"}},{"base_weights":[1.8656675E-2,-3.5126922E-1,5.157401E-1,-4.3339127E-1,4.7130257E-1,-7.2788E-1,6.6711533E-1,-7.17623E-1,-1.4600019E-1,-2.5836343E-1,9.578067E-1,-1.3352839E0,1.9908234E-1,1.1477101E0,4.8801082E-1,-8.223452E-3,-3.2884955E-2,-3.164038E-2,-5.4383936E-4,2.7146727E-2,-2.5344698E-2,3.4815468E-2,-4.3866973E-2,1.0435063E-2,-5.0246675E-2,3.6065184E-2,-1.7612487E-2,-2.4147214E-2,3.587736E-2,-1.0859653E-2,1.8068556E-2],"categories":[],"categories_nodes":[],"categories_segments":[],"categories_sizes":[],"default_left":[0,0,0,0,0,0,0,0,0,0,0,0,0,0,0,0,0,0,0,0,0,0,0,0,0,0,0,0,0,0,0],"id":15,"left_children":[1,3,5,7,9,11,13,15,17,19,21,23,25,27,29,-1,-1,-1,-1,-1,-1,-1,-1,-1,-1,-1,-1,-1,-1,-1,-1],"loss_changes":[4.300222E2,9.077663E1,1.8831934E2,9.951964E1,4.3622227E1,6.149618E1,7.605002E1,1.0260019E2,7.059112E1,3.4646812E1,3.7763794E1,3.8210182E1,3.534125E1,2.3635712E1,6.336682E1,0E0,0E0,0E0,0E0,0E0,0E0,0E0,0E0,0E0,0E0,0E0,0E0,0E0,0E0,0E0,0E0],"parents":[2147483647,0,0,1,1,2,2,3,3,4,4,5,5,6,6,7,7,8,8,9,9,10,10,11,11,12,12,13,13,14,14],"right_children":[2,4,6,8,10,12,14,16,18,20,22,24,26,28,30,-1,-1,-1,-1,-1,-1,-1,-1,-1,-1,-1,-1,-1,-1,-1,-1],"split_conditions":[9.2774856E-1,3.7876423E1,4.6814284E0,-3.187692E-1,4.8E1,1.9794215E0,-6.3354284E-1,-6.13409E-1,-1.4801068E0,-4.061794E-1,1.1210464E0,1.4157732E1,4.4E1,-7.391895E-2,-1.0826905E-1,-8.223452E-3,-3.2884955E-2,-3.164038E-2,-5.4383936E-4,2.7146727E-2,-2.5344698E-2,3.4815468E-2,-4.3866973E-2,1.0435063E-2,-5.0246675E-2,3.6065184E-2,-1.7612487E-2,-2.4147214E-2,3.587736E-2,-1.0859653E-2,1.8068556E-2],"split_indices":[0,13,14,4,5,12,2,2,7,9,7,13,5,21,12,0,0,0,0,0,0,0,0,0,0,0,0,0,0,0,0],"split_type":[0,0,0,0,0,0,0,0,0,0,0,0,0,0,0,0,0,0,0,0,0,0,0,0,0,0,0,0,0,0,0],"sum_hessian":[2.3365657E3,1.3397941E3,9.967716E2,1.2186067E3,1.2118739E2,1.07749466E2,8.8902216E2,6.119183E2,6.0668835E2,4.866614E1,7.252125E1,6.482897E1,4.2920498E1,2.3989609E2,6.491261E2,2.8257343E2,3.2934485E2,7.3948845E1,5.327395E2,1.6129667E1,3.2536472E1,6.73964E1,5.1248474E0,1.0880392E1,5.3948578E1,1.8625956E1,2.4294542E1,5.401158E0,2.3449492E2,7.66699E1,5.724562E2],"tree_param":{"num_deleted":"0","num_feature":"22","num_nodes":"31","size_leaf_vector":"1"}},{"base_weights":[-9.932673E-3,-3.2343322E-1,6.041602E-1,-3.9459825E-1,9.898269E-1,6.5237455E-2,8.3367974E-1,4.9642976E-2,-4.269799E-1,-3.0297138E-2,1.1651682E0,-7.692823E-1,2.3375052E-1,8.715299E-1,-4.7282558E-2,-1.9446734E-2,-3.8879467E-3,4.0618267E-2,9.64714E-3,2.9979523E-2,-3.6813736E-2,-1.861642E-2,1.2322606E-2,3.529946E-2,1.9657228E-2],"categories":[],"categories_nodes":[],"categories_segments":[],"categories_sizes":[],"default_left":[0,0,0,0,0,0,0,0,0,0,0,0,0,0,0,0,0,0,0,0,0,0,0,0,0],"id":16,"left_children":[1,3,5,7,9,11,13,-1,15,-1,17,19,21,23,-1,-1,-1,-1,-1,-1,-1,-1,-1,-1,-1],"loss_changes":[4.464947E2,1.4388397E2,9.690143E1,9.74066E1,2.8950348E1,3.3255905E1,5.150595E1,0E0,9.4349884E1,0E0,1.1235741E1,3.3411892E1,2.9961578E1,3.4983215E1,0E0,0E0,0E0,0E0,0E0,0E0,0E0,0E0,0E0,0E0,0E0],"parents":[2147483647,0,0,1,1,2,2,3,3,4,4,5,5,6,6,8,8,10,10,11,11,12,12,13,13],"right_children":[2,4,6,8,10,12,14,-1,16,-1,18,20,22,24,-1,-1,-1,-1,-1,-1,-1,-1,-1,-1,-1],"split_conditions":[1.496332E0,2.2437878E0,1.0258835E-2,1.5E1,-1.8752222E0,6.579903E-3,2.0788789E0,4.9642976E-2,3.2453835E-2,-3.0297138E-2,-4.9183004E-2,4.3704454E-3,-6.130926E-1,2.5837818E-1,-4.7282558E-2,-1.9446734E-2,-3.8879467E-3,4.0618267E-2,9.64714E-3,2.9979523E-2,-3.6813736E-2,-1.861642E-2,1.2322606E-2,3.529946E-2,1.9657228E-2],"split_indices":[0,1,15,5,7,15,7,0,0,0,17,15,7,2,0,0,0,0,0,0,0,0,0,0,0],"split_type":[0,0,0,0,0,0,0,0,0,0,0,0,0,0,0,0,0,0,0,0,0,0,0,0,0],"sum_hessian":[2.3172156E3,1.534375E3,7.828405E2,1.4561655E3,7.8209496E1,2.342036E2,5.486369E2,2.1871367E1,1.4342942E3,5.9210815E0,7.2288414E1,3.8748085E1,1.9545552E2,5.407812E2,7.8557057E0,8.217515E2,6.125426E2,5.857577E1,1.3712638E1,7.724898E0,3.1023186E1,3.3116108E1,1.6233942E2,2.2248347E2,3.182977E2],"tree_param":{"num_deleted":"0","num_feature":"22","num_nodes":"25","size_leaf_vector":"1"}},{"base_weights":[-6.0733184E-3,-3.802686E-1,4.962885E-1,-6.0253483E-1,1.0123015E-2,-8.583357E-1,6.457717E-1,-2.033209E-1,-8.610753E-1,-4.828342E-1,3.4482276E-1,-1.1182349E0,7.6142764E-1,1.0632223E0,4.5846558E-1,2.8161813E-2,-1.1709312E-2,-3.5819795E-2,-1.266108E-2,-2.2379335E-2,1.6187692E-2,3.2820188E-2,1.7301647E-3,3.6309639E-3,-4.0150218E-2,4.7491714E-2,-2.6296112E-3,-2.6610197E-2,3.4592446E-2,-6.194561E-2,1.4675341E-2],"categories":[],"categories_nodes":[],"categories_segments":[],"categories_sizes":[],"default_left":[0,0,0,0,0,0,0,0,0,0,0,0,0,0,0,0,0,0,0,0,0,0,0,0,0,0,0,0,0,0,0],"id":17,"left_children":[1,3,5,7,9,11,13,15,17,19,21,23,25,27,29,-1,-1,-1,-1,-1,-1,-1,-1,-1,-1,-1,-1,-1,-1,-1,-1],"loss_changes":[4.3121683E2,1.1408046E2,1.9884955E2,8.6289734E1,7.9021416E1,4.2002693E1,6.8517365E1,7.096476E1,7.376782E1,5.2513405E1,6.1300404E1,2.3249527E1,9.983032E0,4.879062E1,4.8356186E1,0E0,0E0,0E0,0E0,0E0,0E0,0E0,0E0,0E0,0E0,0E0,0E0,0E0,0E0,0E0,0E0],"parents":[2147483647,0,0,1,1,2,2,3,3,4,4,5,5,6,6,7,7,8,8,9,9,10,10,11,11,12,12,13,13,14,14],"right_children":[2,4,6,8,10,12,14,16,18,20,22,24,26,28,30,-1,-1,-1,-1,-1,-1,-1,-1,-1,-1,-1,-1,-1,-1,-1,-1],"split_conditions":[9.2774856E-1,1.1453411E-2,6.981578E-3,-5.258928E-1,-8.1187654E-1,2.5652242E0,-3.260559E-1,-1.6857312E0,7.1E1,5.7E1,4.5E1,1.9112019E-2,4.2E1,-3.918074E-2,2.1E1,2.8161813E-2,-1.1709312E-2,-3.5819795E-2,-1.266108E-2,-2.2379335E-2,1.6187692E-2,3.2820188E-2,1.7301647E-3,3.6309639E-3,-4.0150218E-2,4.7491714E-2,-2.6296112E-3,-2.6610197E-2,3.4592446E-2,-6.194561E-2,1.4675341E-2],"split_indices":[0,15,15,7,7,2,2,4,5,5,5,21,5,21,5,0,0,0,0,0,0,0,0,0,0,0,0,0,0,0,0],"split_type":[0,0,0,0,0,0,0,0,0,0,0,0,0,0,0,0,0,0,0,0,0,0,0,0,0,0,0,0,0,0,0],"sum_hessian":[2.2919292E3,1.313662E3,9.782671E2,8.367321E2,4.769299E2,9.675216E1,8.815149E2,3.2959256E2,5.0713956E2,1.9268875E2,2.8424115E2,8.364114E1,1.3111013E1,2.7157568E2,6.099392E2,4.580654E1,2.8378604E2,2.8745016E2,2.1968938E2,1.534622E2,3.9226547E1,7.7979836E1,2.0626132E2,1.2682826E1,7.095832E1,6.223902E0,6.887111E0,1.1571288E1,2.600044E2,6.538125E0,6.034011E2],"tree_param":{"num_deleted":"0","num_feature":"22","num_nodes":"31","size_leaf_vector":"1"}},{"base_weights":[-1.0127584E-2,-3.669703E-1,4.7525117E-1,-4.5068678E-1,4.7461495E-1,-8.311273E-1,6.287695E-1,-6.9865197E-1,-2.0918818E-1,-4.8130803E-2,6.4744747E-1,-1.3460712E0,-7.686352E-2,3.1081402E-1,8.7484133E-1,-6.5983967E-3,-3.152307E-2,-4.269135E-2,-4.2278166E-3,4.177266E-2,4.991279E-3,1.013763E-3,-4.8338044E-2,-4.425955E-2,1.07725095E-2,5.4898383E-3,3.918282E-2,-2.8013151E-2,2.7391344E-2],"categories":[],"categories_nodes":[],"categories_segments":[],"categories_sizes":[],"default_left":[0,0,0,0,0,0,0,0,0,0,0,0,0,0,0,0,0,0,0,0,0,0,0,0,0,0,0,0,0],"id":18,"left_children":[1,3,5,7,9,11,13,15,17,-1,19,21,23,25,27,-1,-1,-1,-1,-1,-1,-1,-1,-1,-1,-1,-1,-1,-1],"loss_changes":[3.9905188E2,9.376094E1,1.9629681E2,7.220169E1,4.437791E1,3.9933945E1,6.811682E1,1.0017456E2,5.0631985E1,0E0,3.9933056E1,2.2449326E1,2.6673527E1,4.847151E1,3.486084E1,0E0,0E0,0E0,0E0,0E0,0E0,0E0,0E0,0E0,0E0,0E0,0E0,0E0,0E0],"parents":[2147483647,0,0,1,1,2,2,3,3,4,4,5,5,6,6,7,7,8,8,10,10,11,11,12,12,13,13,14,14],"right_children":[2,4,6,8,10,12,14,16,18,-1,20,22,24,26,28,-1,-1,-1,-1,-1,-1,-1,-1,-1,-1,-1,-1,-1,-1],"split_conditions":[9.2774856E-1,3.7876423E1,6.981578E-3,-3.5151947E-1,-2.0205E-4,1.441176E0,1.2090825E-2,-8.0528504E-1,2.5328572E0,-4.8130803E-2,-2.4335872E-1,1.4157732E1,1.9472558E0,1.709E-4,-1.516753E-1,-6.5983967E-3,-3.152307E-2,-4.269135E-2,-4.2278166E-3,4.177266E-2,4.991279E-3,1.013763E-3,-4.8338044E-2,-4.425955E-2,1.07725095E-2,5.4898383E-3,3.918282E-2,-2.8013151E-2,2.7391344E-2],"split_indices":[0,13,15,4,8,2,15,2,14,0,9,13,12,11,21,0,0,0,0,0,0,0,0,0,0,0,0,0,0],"split_type":[0,0,0,0,0,0,0,0,0,0,0,0,0,0,0,0,0,0,0,0,0,0,0,0,0,0,0,0,0],"sum_hessian":[2.301936E3,1.3267642E3,9.751719E2,1.207148E3,1.19616264E2,1.0208199E2,8.730899E2,5.946658E2,6.124821E2,8.545158E0,1.11071106E2,6.0198925E1,4.1883064E1,3.8189587E2,4.9119403E2,2.5271832E2,3.4194745E2,3.1552353E1,5.8092975E2,4.283835E1,6.823276E1,9.845218E0,5.0353706E1,9.386947E0,3.249612E1,3.3948163E2,4.2414253E1,9.67597E0,4.8151807E2],"tree_param":{"num_deleted":"0","num_feature":"22","num_nodes":"29","size_leaf_vector":"1"}},{"base_weights":[2.1087147E-2,-3.7397236E-1,3.8086423E-1,-7.115827E-1,-4.2995114E-2,-1.4035912E-1,6.8817323E-1,5.320147E-1,-7.9051924E-1,-6.632445E-1,1.756652E-1,-2.8982115E-1,8.452238E-1,7.213507E-1,-4.8798494E-2,3.0776037E-2,-4.350832E-2,-2.7010387E-2,1.246942E-3,2.4936728E-2,-3.2427505E-2,-3.9521065E-3,1.8833674E-2,-2.675891E-2,-3.0177804E-3,-2.576866E-2,3.1249372E-2,7.57211E-4,2.4176069E-2],"categories":[],"categories_nodes":[],"categories_segments":[],"categories_sizes":[],"default_left":[0,0,0,0,0,0,0,0,0,0,0,0,0,0,0,0,0,0,0,0,0,0,0,0,0,0,0,0,0],"id":19,"left_children":[1,3,5,7,9,11,13,15,17,19,21,23,25,27,-1,-1,-1,-1,-1,-1,-1,-1,-1,-1,-1,-1,-1,-1,-1],"loss_changes":[3.2866052E2,1.2312569E2,1.9393944E2,5.3974213E1,7.574164E1,6.648849E1,5.9654663E1,3.3949245E1,4.695343E1,9.175007E1,5.749135E1,4.4487457E1,2.0801971E1,4.418863E1,0E0,0E0,0E0,0E0,0E0,0E0,0E0,0E0,0E0,0E0,0E0,0E0,0E0,0E0,0E0],"parents":[2147483647,0,0,1,1,2,2,3,3,4,4,5,5,6,6,7,7,8,8,9,9,10,10,11,11,12,12,13,13],"right_children":[2,4,6,8,10,12,14,16,18,20,22,24,26,28,-1,-1,-1,-1,-1,-1,-1,-1,-1,-1,-1,-1,-1,-1,-1],"split_conditions":[1.0258835E-2,1.9604008E-1,3.2453835E-2,-2.2344537E0,5.987601E-3,1.6650918E0,2.0788789E0,-2.3216298E-2,6.651487E-1,-9.7253406E-1,7.1E1,-5.9498864E-1,-1.8752222E0,-7.8652364E-1,-4.8798494E-2,3.0776037E-2,-4.350832E-2,-2.7010387E-2,1.246942E-3,2.4936728E-2,-3.2427505E-2,-3.9521065E-3,1.8833674E-2,-2.675891E-2,-3.0177804E-3,-2.576866E-2,3.1249372E-2,7.57211E-4,2.4176069E-2],"split_indices":[15,4,0,4,15,1,7,7,1,7,5,17,7,1,0,0,0,0,0,0,0,0,0,0,0,0,0,0,0],"split_type":[0,0,0,0,0,0,0,0,0,0,0,0,0,0,0,0,0,0,0,0,0,0,0,0,0,0,0,0,0],"sum_hessian":[2.310337E3,1.1011549E3,1.2091819E3,5.4454584E2,5.566091E2,4.4869632E2,7.6048553E2,3.2159073E1,5.123868E2,1.4454921E2,4.1205988E2,3.9022525E2,5.847108E1,7.504183E2,1.0067251E1,2.6131384E1,6.027691E0,4.5256992E2,5.9816856E1,3.135787E1,1.13191345E2,2.4570918E2,1.663507E2,9.2420616E1,2.9780463E2,5.6942363E0,5.2776844E1,8.1388E1,6.690303E2],"tree_param":{"num_deleted":"0","num_feature":"22","num_nodes":"29","size_leaf_vector":"1"}},{"base_weights":[-4.5817583E-3,-3.6963913E-1,4.8025537E-1,-4.599082E-1,6.15537E-1,-7.6342976E-1,6.179809E-1,4.8920333E-2,-4.9481034E-1,3.038579E-1,1.233286E0,-9.662292E-1,8.7125164E-1,4.6379364E-1,1.0526681E0,-1.661353E-2,8.4462E-3,-5.0530598E-2,1.4297515E-2,2.2957718E-2,4.4096086E-2,8.837864E-3,-3.8346898E-2,3.809239E-2,1.0062026E-2,1.0294147E-2,3.543299E-2,-1.1539671E-2,3.2723855E-2],"categories":[],"categories_nodes":[],"categories_segments":[],"categories_sizes":[],"default_left":[0,0,0,0,0,0,0,0,0,0,0,0,0,0,0,0,0,0,0,0,0,0,0,0,0,0,0,0,0],"id":20,"left_children":[1,3,5,7,9,11,13,-1,15,17,19,21,23,25,27,-1,-1,-1,-1,-1,-1,-1,-1,-1,-1,-1,-1,-1,-1],"loss_changes":[4.0526364E2,1.164445E2,1.6893437E2,8.815683E1,2.0817165E1,3.3496628E1,5.8894806E1,0E0,5.4101166E1,2.638115E1,2.9259262E0,3.5035187E1,2.0078506E0,5.6352844E1,1.3089508E1,0E0,0E0,0E0,0E0,0E0,0E0,0E0,0E0,0E0,0E0,0E0,0E0,0E0,0E0],"parents":[2147483647,0,0,1,1,2,2,3,3,4,4,5,5,6,6,8,8,9,9,10,10,11,11,12,12,13,13,14,14],"right_children":[2,4,6,8,10,12,14,-1,16,18,20,22,24,26,28,-1,-1,-1,-1,-1,-1,-1,-1,-1,-1,-1,-1,-1,-1],"split_conditions":[9.2774856E-1,1.3727878E0,6.981578E-3,1.5E1,1.9626733E0,2.6598046E0,1.73348E-2,4.8920333E-2,4.1059833E0,-4.6891165E0,1.8921152E-2,1.9112019E-2,-1.4895477E0,7.5E1,-2.3247623E0,-1.661353E-2,8.4462E-3,-5.0530598E-2,1.4297515E-2,2.2957718E-2,4.4096086E-2,8.837864E-3,-3.8346898E-2,3.809239E-2,1.0062026E-2,1.0294147E-2,3.543299E-2,-1.1539671E-2,3.2723855E-2],"split_indices":[0,1,15,5,16,2,15,0,12,12,15,21,16,5,1,0,0,0,0,0,0,0,0,0,0,0,0,0,0],"split_type":[0,0,0,0,0,0,0,0,0,0,0,0,0,0,0,0,0,0,0,0,0,0,0,0,0,0,0,0,0],"sum_hessian":[2.2877078E3,1.3051982E3,9.8250946E2,1.1961329E3,1.090653E2,9.7502464E1,8.85007E2,1.8890646E1,1.1772423E3,7.3482376E1,3.5582924E1,8.710508E1,1.0397385E1,6.5480804E2,2.30199E2,1.0943953E3,8.284703E1,5.1739993E0,6.830838E1,1.3369308E1,2.2213614E1,1.7290068E1,6.981501E1,5.1774764E0,5.219908E0,5.617898E2,9.30182E1,5.713706E0,2.244853E2],"tree_param":{"num_deleted":"0","num_feature":"22","num_nodes":"29","size_leaf_vector":"1"}},{"base_weights":[2.771687E-3,-4.1867447E-1,3.81756E-1,-6.5299654E-1,-1.0038226E-1,-1.6129458E-1,6.783464E-1,-2.3314773E-1,-9.4608134E-1,-8.305185E-1,1.1249872E-1,-3.9107168E-1,4.7687677E-1,7.0851463E-1,-4.7539547E-2,-4.2616613E-2,9.3538285E-4,-3.9147466E-2,-1.4558505E-2,2.0560024E-3,-3.9724607E-2,-4.593283E-3,2.0090077E-2,-1.6060377E-2,1.7057182E-2,-1.2954981E-2,2.5766814E-2,1.1074124E-2,2.62095E-2],"categories":[],"categories_nodes":[],"categories_segments":[],"categories_sizes":[],"default_left":[0,0,0,0,0,0,0,0,0,0,0,0,0,0,0,0,0,0,0,0,0,0,0,0,0,0,0,0,0],"id":21,"left_children":[1,3,5,7,9,11,13,15,17,19,21,23,25,27,-1,-1,-1,-1,-1,-1,-1,-1,-1,-1,-1,-1,-1,-1,-1],"loss_changes":[3.6351785E2,8.030568E1,1.9311804E2,7.613211E1,7.1299126E1,6.23757E1,5.4048584E1,8.052223E1,5.9733368E1,4.604045E1,5.272423E1,4.355357E1,3.95028E1,4.259137E1,0E0,0E0,0E0,0E0,0E0,0E0,0E0,0E0,0E0,0E0,0E0,0E0,0E0,0E0,0E0],"parents":[2147483647,0,0,1,1,2,2,3,3,4,4,5,5,6,6,7,7,8,8,9,9,10,10,11,11,12,12,13,13],"right_children":[2,4,6,8,10,12,14,16,18,20,22,24,26,28,-1,-1,-1,-1,-1,-1,-1,-1,-1,-1,-1,-1,-1,-1,-1],"split_conditions":[1.0316307E-2,5.536301E-1,-9.711494E-2,-4.7259682E-1,6.230396E-3,3.419575E1,2.0788789E0,-1.7536663E0,7.1E1,4.9E1,7.2E1,1.0217656E0,-1.0011399E0,9.581429E0,-4.7539547E-2,-4.2616613E-2,9.3538285E-4,-3.9147466E-2,-1.4558505E-2,2.0560024E-3,-3.9724607E-2,-4.593283E-3,2.0090077E-2,-1.6060377E-2,1.7057182E-2,-1.2954981E-2,2.5766814E-2,1.1074124E-2,2.62095E-2],"split_indices":[15,0,0,7,15,13,7,7,5,5,5,9,1,14,0,0,0,0,0,0,0,0,0,0,0,0,0,0,0],"split_type":[0,0,0,0,0,0,0,0,0,0,0,0,0,0,0,0,0,0,0,0,0,0,0,0,0,0,0,0,0],"sum_hessian":[2.2739475E3,1.0766091E3,1.1973384E3,6.194947E2,4.5711444E2,4.2310266E2,7.742357E2,2.554105E2,3.640842E2,1.02536125E2,3.545783E2,3.113769E2,1.1172576E2,7.6472797E2,9.507745E0,4.570792E1,2.0970259E2,2.0365858E2,1.6042563E2,3.6648956E1,6.588717E1,2.4060498E2,1.1397333E2,2.7106653E2,4.0310356E1,3.3028946E1,7.869682E1,2.5136726E2,5.133607E2],"tree_param":{"num_deleted":"0","num_feature":"22","num_nodes":"29","size_leaf_vector":"1"}},{"base_weights":[-9.446359E-3,-3.153622E-1,4.634165E-1,-4.0799397E-1,5.8560705E-1,-7.8376156E-1,5.87157E-1,2.410355E-1,-4.8845097E-1,7.200837E-1,-3.5765752E-2,-1.2347795E0,3.155123E-3,9.9767816E-1,4.1499856E-1,2.6886763E-2,-2.4034232E-2,-2.2473592E-2,-7.7903303E-3,-1.2621131E-2,2.7180962E-2,1.3436065E-2,-4.2971157E-2,1.4076111E-2,-4.354268E-2,-3.1638123E-2,3.1922404E-2,-1.998463E-2,1.6033556E-2],"categories":[],"categories_nodes":[],"categories_segments":[],"categories_sizes":[],"default_left":[0,0,0,0,0,0,0,0,0,0,0,0,0,0,0,0,0,0,0,0,0,0,0,0,0,0,0,0,0],"id":22,"left_children":[1,3,5,7,9,11,13,15,17,19,-1,21,23,25,27,-1,-1,-1,-1,-1,-1,-1,-1,-1,-1,-1,-1,-1,-1],"loss_changes":[3.271369E2,1.1483716E2,1.3755615E2,6.5166565E1,3.156115E1,2.8614094E1,5.6743317E1,9.4988914E1,6.5917725E1,2.5839981E1,0E0,1.7679344E1,2.1266787E1,3.358818E1,7.41639E1,0E0,0E0,0E0,0E0,0E0,0E0,0E0,0E0,0E0,0E0,0E0,0E0,0E0,0E0],"parents":[2147483647,0,0,1,1,2,2,3,3,4,4,5,5,6,6,7,7,8,8,9,9,11,11,12,12,13,13,14,14],"right_children":[2,4,6,8,10,12,14,16,18,20,-1,22,24,26,28,-1,-1,-1,-1,-1,-1,-1,-1,-1,-1,-1,-1,-1,-1],"split_conditions":[1.1021245E0,1.3727878E0,7.1087903E-3,-1.712822E0,2.8563552E0,1.7214717E0,-3.387534E-1,-1.4815867E0,-3.187692E-1,-2.6373932E0,-3.5765752E-2,3.4054464E-1,-2.7836448E-1,8.230042E-3,-3.258783E-1,2.6886763E-2,-2.4034232E-2,-2.2473592E-2,-7.7903303E-3,-1.2621131E-2,2.7180962E-2,1.3436065E-2,-4.2971157E-2,1.4076111E-2,-4.354268E-2,-3.1638123E-2,3.1922404E-2,-1.998463E-2,1.6033556E-2],"split_indices":[0,1,15,4,2,2,2,12,4,12,0,20,16,15,12,0,0,0,0,0,0,0,0,0,0,0,0,0,0],"split_type":[0,0,0,0,0,0,0,0,0,0,0,0,0,0,0,0,0,0,0,0,0,0,0,0,0,0,0,0,0],"sum_hessian":[2.259468E3,1.3721178E3,8.873504E2,1.2446936E3,1.2742415E2,7.961172E1,8.0773865E2,1.3706042E2,1.1076332E3,1.1901644E2,8.407711E0,5.0244915E1,2.9366798E1,2.372376E2,5.705011E2,8.424056E1,5.2819855E1,5.166629E2,5.909703E2,1.6503773E1,1.02512665E2,5.147073E0,4.5097843E1,2.275386E1,6.6129365E0,6.968874E0,2.3026872E2,5.6306194E1,5.141949E2],"tree_param":{"num_deleted":"0","num_feature":"22","num_nodes":"29","size_leaf_vector":"1"}},{"base_weights":[2.434736E-3,-4.518219E-1,3.0010295E-1,-7.4766374E-1,-1.731883E-1,-1.16039775E-1,6.7202556E-1,-1.3245263E0,-5.314289E-1,-1.107893E0,-6.7185834E-2,-2.0279597E-1,8.874857E-1,9.134948E-1,3.3960497E-1,-4.218536E-2,4.692413E-3,-2.4784505E-2,8.943088E-4,-4.225036E-2,1.5200958E-2,-4.7540125E-2,-1.2662861E-4,4.8705E-2,-7.5256657E-3,5.9857145E-3,3.976401E-2,-3.337712E-2,2.8713737E-2,-5.7383128E-2,1.30764125E-2],"categories":[],"categories_nodes":[],"categories_segments":[],"categories_sizes":[],"default_left":[0,0,0,0,0,0,0,0,0,0,0,0,0,0,0,0,0,0,0,0,0,0,0,0,0,0,0,0,0,0,0],"id":23,"left_children":[1,3,5,7,9,11,13,15,17,19,21,23,25,27,29,-1,-1,-1,-1,-1,-1,-1,-1,-1,-1,-1,-1,-1,-1,-1,-1],"loss_changes":[3.0822238E2,7.4255066E1,2.1321094E2,5.385309E1,4.6097984E1,5.6835785E1,5.8071075E1,1.4558701E1,5.2921684E1,2.3708271E1,4.0085907E1,5.305094E1,1.5394196E1,3.8253387E1,6.753999E1,0E0,0E0,0E0,0E0,0E0,0E0,0E0,0E0,0E0,0E0,0E0,0E0,0E0,0E0,0E0,0E0],"parents":[2147483647,0,0,1,1,2,2,3,3,4,4,5,5,6,6,7,7,8,8,9,9,10,10,11,11,12,12,13,13,14,14],"right_children":[2,4,6,8,10,12,14,16,18,20,22,24,26,28,30,-1,-1,-1,-1,-1,-1,-1,-1,-1,-1,-1,-1,-1,-1,-1,-1],"split_conditions":[9.147063E-3,8.611842E-2,7.9887E-1,-5.848728E-1,-2.3727167E-1,2.2437878E0,-2.4857093E-1,8.928869E-3,6.8E1,1.0918114E0,-1.7256479E0,1.5E1,-8.6569643E-1,-4.2485576E0,-4.2525556E-2,-4.218536E-2,4.692413E-3,-2.4784505E-2,8.943088E-4,-4.225036E-2,1.5200958E-2,-4.7540125E-2,-1.2662861E-4,4.8705E-2,-7.5256657E-3,5.9857145E-3,3.976401E-2,-3.337712E-2,2.8713737E-2,-5.7383128E-2,1.30764125E-2],"split_indices":[15,1,0,17,21,1,7,15,5,1,7,5,7,12,7,0,0,0,0,0,0,0,0,0,0,0,0,0,0,0,0],"split_type":[0,0,0,0,0,0,0,0,0,0,0,0,0,0,0,0,0,0,0,0,0,0,0,0,0,0,0,0,0,0,0],"sum_hessian":[2.2774492E3,9.013801E2,1.3760692E3,4.3637332E2,4.6500684E2,6.4975214E2,7.26317E2,1.1757803E2,3.187953E2,4.640112E1,4.186057E2,5.987843E2,5.0967827E1,4.1970016E2,3.0661685E2,1.11481895E2,6.096134E0,2.0871933E2,1.10075966E2,3.9228916E1,7.1722035E0,1.5714356E1,4.0289136E2,1.4512655E1,5.842716E2,2.03922E1,3.0575626E1,8.330925E0,4.1136926E2,1.1795357E1,2.948215E2],"tree_param":{"num_deleted":"0","num_feature":"22","num_nodes":"31","size_leaf_vector":"1"}},{"base_weights":[-1.525809E-2,-3.070789E-1,3.9608577E-1,-3.84329E-1,5.077493E-1,-8.1976706E-1,5.321489E-1,4.6898797E-2,-4.1625434E-1,8.701823E-1,-1.3564196E-1,-1.3152511E0,-1.8595266E-1,2.62209E-1,7.42779E-1,-1.8724255E-2,-3.8941118E-3,-2.751505E-2,3.0458378E-2,-1.7419552E-2,3.655147E-2,-4.5496907E-2,1.4201263E-2,2.8477458E-2,-3.344878E-2,2.3768393E-3,2.2315312E-2,-2.2081785E-2,2.374078E-2],"categories":[],"categories_nodes":[],"categories_segments":[],"categories_sizes":[],"default_left":[0,0,0,0,0,0,0,0,0,0,0,0,0,0,0,0,0,0,0,0,0,0,0,0,0,0,0,0,0],"id":24,"left_children":[1,3,5,7,9,11,13,-1,15,17,19,21,23,25,27,-1,-1,-1,-1,-1,-1,-1,-1,-1,-1,-1,-1,-1,-1],"loss_changes":[2.6902542E2,8.2718185E1,1.5430844E2,7.514453E1,2.6691858E1,2.9277267E1,4.7401443E1,0E0,7.0159485E1,1.9870968E1,2.5971777E1,1.965609E1,4.578417E1,3.2412254E1,3.4324585E1,0E0,0E0,0E0,0E0,0E0,0E0,0E0,0E0,0E0,0E0,0E0,0E0,0E0,0E0],"parents":[2147483647,0,0,1,1,2,2,3,3,4,4,5,5,6,6,8,8,9,9,10,10,11,11,12,12,13,13,14,14],"right_children":[2,4,6,8,10,12,14,-1,16,18,20,22,24,26,28,-1,-1,-1,-1,-1,-1,-1,-1,-1,-1,-1,-1,-1,-1],"split_conditions":[9.2774856E-1,1.3727878E0,6.981578E-3,1.5E1,8.2595795E-1,1.9794215E0,1.2090825E-2,4.6898797E-2,-8.157933E-2,-5.5850616E0,3.920427E1,1.5098782E0,1.7619998E0,1.618601E0,-1.3190812E-1,-1.8724255E-2,-3.8941118E-3,-2.751505E-2,3.0458378E-2,-1.7419552E-2,3.655147E-2,-4.5496907E-2,1.4201263E-2,2.8477458E-2,-3.344878E-2,2.3768393E-3,2.2315312E-2,-2.2081785E-2,2.374078E-2],"split_indices":[0,1,15,5,19,12,15,0,17,3,13,9,3,4,21,0,0,0,0,0,0,0,0,0,0,0,0,0,0],"split_type":[0,0,0,0,0,0,0,0,0,0,0,0,0,0,0,0,0,0,0,0,0,0,0,0,0,0,0,0,0],"sum_hessian":[2.239142E3,1.3100227E3,9.291195E2,1.197063E3,1.12959656E2,9.3005196E1,8.361143E2,1.8532164E1,1.1785309E3,7.203094E1,4.092872E1,5.159539E1,4.14098E1,3.6744635E2,4.6866797E2,6.822318E2,4.9629904E2,5.008883E0,6.702206E1,3.1234457E1,9.694262E0,4.651245E1,5.0829396E0,1.8626875E1,2.2782927E1,2.6712546E2,1.003209E2,1.4456138E1,4.5421185E2],"tree_param":{"num_deleted":"0","num_feature":"22","num_nodes":"29","size_leaf_vector":"1"}},{"base_weights":[2.30591E-2,-3.285627E-1,3.4461105E-1,-6.169754E-1,-3.2890316E-2,-7.5748507E-3,6.4755607E-1,-1.954952E-1,-9.321738E-1,-4.7092152E-1,2.7807015E-1,-5.175306E-2,4.8195362E-2,-5.362074E-2,6.843818E-1,-1.8824844E-2,2.8254243E-2,-3.491859E-2,-6.1894916E-3,1.7577235E-2,-2.0146364E-2,-2.3997957E-2,1.4296359E-2,3.1394416E-3,-4.8875153E-2,-6.043197E-2,2.1311488E-2],"categories":[],"categories_nodes":[],"categories_segments":[],"categories_sizes":[],"default_left":[0,0,0,0,0,0,0,0,0,0,0,0,0,0,0,0,0,0,0,0,0,0,0,0,0,0,0],"id":25,"left_children":[1,3,5,7,9,11,13,15,17,19,21,-1,23,-1,25,-1,-1,-1,-1,-1,-1,-1,-1,-1,-1,-1,-1],"loss_changes":[2.5702896E2,9.258114E1,1.2669032E2,7.283809E1,7.331151E1,5.2771378E1,5.8460266E1,1.16756874E2,5.262155E1,4.7765675E1,6.774205E1,0E0,5.071045E1,0E0,4.560672E1,0E0,0E0,0E0,0E0,0E0,0E0,0E0,0E0,0E0,0E0,0E0,0E0],"parents":[2147483647,0,0,1,1,2,2,3,3,4,4,5,5,6,6,7,7,8,8,9,9,10,10,12,12,14,14],"right_children":[2,4,6,8,10,12,14,16,18,20,22,-1,24,-1,26,-1,-1,-1,-1,-1,-1,-1,-1,-1,-1,-1,-1],"split_conditions":[1.0258835E-2,2.3993826E-1,4.76437E-1,-4.211553E-1,7.1087903E-3,-1.0661E-4,-1.2880596E1,-6.192667E-1,7.4E1,-1.0680897E0,-7.026015E-1,-5.175306E-2,1.7627766E0,-5.362074E-2,-4.5001E-4,-1.8824844E-2,2.8254243E-2,-3.491859E-2,-6.1894916E-3,1.7577235E-2,-2.0146364E-2,-2.3997957E-2,1.4296359E-2,3.1394416E-3,-4.8875153E-2,-6.043197E-2,2.1311488E-2],"split_indices":[15,4,20,7,15,8,3,7,5,7,7,0,7,0,11,0,0,0,0,0,0,0,0,0,0,0,0],"split_type":[0,0,0,0,0,0,0,0,0,0,0,0,0,0,0,0,0,0,0,0,0,0,0,0,0,0,0],"sum_hessian":[2.2712898E3,1.0849066E3,1.1863832E3,5.486454E2,5.3626117E2,5.49057E2,6.373261E2,2.3543892E2,3.1320648E2,2.2242714E2,3.1383405E2,1.6326473E1,5.327305E2,8.787102E0,6.28539E2,1.7095186E2,6.4487045E1,2.3694284E2,7.626365E1,3.5181374E1,1.8724576E2,4.8325825E1,2.6550824E2,5.1629205E2,1.6438475E1,5.268081E0,6.2327094E2],"tree_param":{"num_deleted":"0","num_feature":"22","num_nodes":"27","size_leaf_vector":"1"}},{"base_weights":[-4.501096E-3,-3.116639E-1,3.5498562E-1,2.516706E-1,-4.2083386E-1,2.628812E-1,9.696859E-1,2.8147928E-2,1.3042473E0,-7.5835323E-1,-1.8370885E-1,6.029246E-1,9.434253E-2,1.095254E0,4.9733546E-2,5.560838E-3,-5.0649103E-2,1.0094838E-2,5.1252764E-2,-3.074511E-2,-8.710498E-3,2.345185E-3,-1.6937E-2,5.940384E-3,2.7750842E-2,-3.2362867E-2,5.671847E-3,3.53291E-2,3.9864457E-3,3.7857432E-2,-1.8107114E-2],"categories":[],"categories_nodes":[],"categories_segments":[],"categories_sizes":[],"default_left":[0,0,0,0,0,0,0,0,0,0,0,0,0,0,0,0,0,0,0,0,0,0,0,0,0,0,0,0,0,0,0],"id":26,"left_children":[1,3,5,7,9,11,13,15,17,19,21,23,25,27,29,-1,-1,-1,-1,-1,-1,-1,-1,-1,-1,-1,-1,-1,-1,-1,-1],"loss_changes":[2.4707877E2,7.431138E1,5.811667E1,4.619447E1,8.078415E1,5.140899E1,1.5422264E1,4.4325836E1,1.2879253E1,5.1697647E1,5.940907E1,3.8605865E1,6.705211E1,9.186188E0,1.4334028E1,0E0,0E0,0E0,0E0,0E0,0E0,0E0,0E0,0E0,0E0,0E0,0E0,0E0,0E0,0E0,0E0],"parents":[2147483647,0,0,1,1,2,2,3,3,4,4,5,5,6,6,7,7,8,8,9,9,10,10,11,11,12,12,13,13,14,14],"right_children":[2,4,6,8,10,12,14,16,18,20,22,24,26,28,30,-1,-1,-1,-1,-1,-1,-1,-1,-1,-1,-1,-1,-1,-1,-1,-1],"split_conditions":[2.8171644E-1,-2.4285252E0,4.833133E0,1.8876896E0,-3.3019873E-1,-4.673455E-1,1.9123873E0,0E0,1.9743419E-1,-2.468126E-3,3.0703443E-1,4.0598935E-1,-6.1241734E-1,4.234746E1,3.4E1,5.560838E-3,-5.0649103E-2,1.0094838E-2,5.1252764E-2,-3.074511E-2,-8.710498E-3,2.345185E-3,-1.6937E-2,5.940384E-3,2.7750842E-2,-3.2362867E-2,5.671847E-3,3.53291E-2,3.9864457E-3,3.7857432E-2,-1.8107114E-2],"split_indices":[1,2,0,12,4,2,19,3,7,17,7,16,4,13,5,0,0,0,0,0,0,0,0,0,0,0,0,0,0,0,0],"split_type":[0,0,0,0,0,0,0,0,0,0,0,0,0,0,0,0,0,0,0,0,0,0,0,0,0,0,0,0,0,0,0],"sum_hessian":[2.2356057E3,1.2056086E3,1.0299972E3,1.9549869E2,1.01011E3,8.970188E2,1.3297836E2,1.6210187E2,3.3396824E1,4.1591132E2,5.9419867E2,2.9640833E2,6.006105E2,1.1683985E2,1.6138508E1,1.4931757E2,1.2784298E1,1.037876E1,2.3018064E1,2.6425385E2,1.5165749E2,3.525657E2,2.4163293E2,1.3203888E2,1.6436946E2,4.4095406E1,5.56515E2,1.0742056E2,9.41929E0,5.3255553E0,1.0812953E1],"tree_param":{"num_deleted":"0","num_feature":"22","num_nodes":"31","size_leaf_vector":"1"}},{"base_weights":[6.8914024E-3,-2.3653333E-1,5.0155324E-1,-3.2201126E-1,6.324989E-1,1.1301416E-1,7.140931E-1,4.7392625E-2,-3.5655895E-1,9.266682E-1,1.2976037E-1,7.218412E-1,-2.7436517E-2,1.0015237E0,4.5837197E-1,-4.256069E-2,-9.444791E-3,-7.7380305E-3,3.3152346E-2,-1.0236083E-2,2.3853961E-2,-1.1565423E-2,3.0412998E-2,-9.829197E-3,1.7047022E-2,3.0676636E-3,3.1553913E-2,-6.746989E-2,1.5902566E-2],"categories":[],"categories_nodes":[],"categories_segments":[],"categories_sizes":[],"default_left":[0,0,0,0,0,0,0,0,0,0,0,0,0,0,0,0,0,0,0,0,0,0,0,0,0,0,0,0,0],"id":27,"left_children":[1,3,5,7,9,11,13,-1,15,17,19,21,23,25,27,-1,-1,-1,-1,-1,-1,-1,-1,-1,-1,-1,-1,-1,-1],"loss_changes":[2.7488336E2,1.1385432E2,6.2092804E1,9.212619E1,2.0192238E1,2.288583E1,3.5298264E1,0E0,6.026013E1,1.8563187E1,1.6523495E1,1.6606306E1,3.921335E1,1.020903E1,5.153361E1,0E0,0E0,0E0,0E0,0E0,0E0,0E0,0E0,0E0,0E0,0E0,0E0,0E0,0E0],"parents":[2147483647,0,0,1,1,2,2,3,3,4,4,5,5,6,6,8,8,9,9,10,10,11,11,12,12,13,13,14,14],"right_children":[2,4,6,8,10,12,14,-1,16,18,20,22,24,26,28,-1,-1,-1,-1,-1,-1,-1,-1,-1,-1,-1,-1,-1,-1],"split_conditions":[1.517057E0,1.5686182E0,1.0950153E-2,1.5E1,8.2595795E-1,-3.807E-5,6.6240585E-1,4.7392625E-2,-2.478E-4,-3.0253208E0,1.0940545E2,9.851783E-1,7.2E1,4.237559E-1,2.1E1,-4.256069E-2,-9.444791E-3,-7.7380305E-3,3.3152346E-2,-1.0236083E-2,2.3853961E-2,-1.1565423E-2,3.0412998E-2,-9.829197E-3,1.7047022E-2,3.0676636E-3,3.1553913E-2,-6.746989E-2,1.5902566E-2],"split_indices":[0,1,15,5,19,8,2,0,8,12,18,12,5,20,5,0,0,0,0,0,0,0,0,0,0,0,0,0,0],"split_type":[0,0,0,0,0,0,0,0,0,0,0,0,0,0,0,0,0,0,0,0,0,0,0,0,0,0,0,0,0],"sum_hessian":[2.2808542E3,1.5289666E3,7.518877E2,1.3926182E3,1.3634834E2,2.6640707E2,4.8548065E2,2.4049065E1,1.3685691E3,8.548496E1,5.0863377E1,4.9161564E1,2.1724551E2,2.2719588E2,2.582848E2,5.0492634E1,1.3180764E3,1.1131114E1,7.435385E1,3.0067915E1,2.0795462E1,1.0189465E1,3.89721E1,1.4474669E2,7.249882E1,1.2189505E1,2.1500636E2,5.881527E0,2.5240326E2],"tree_param":{"num_deleted":"0","num_feature":"22","num_nodes":"29","size_leaf_vector":"1"}},{"base_weights":[2.8070984E-3,-3.0185768E-1,3.5453928E-1,-6.593629E-1,-1.6849186E-2,8.2544714E-2,6.951155E-1,-2.5277859E-2,-7.75224E-1,-3.7494537E-1,3.1923977E-1,2.969459E-2,1.3428606E0,-2.9931518E-1,7.782386E-1,2.3678761E-2,-3.324234E-2,-3.0476829E-2,-7.454301E-3,2.4355466E-3,-2.75551E-2,1.8246543E-2,-1.3435308E-3,9.953297E-3,-4.794133E-3,4.5811046E-2,1.8713271E-2,3.274486E-2,-2.7012935E-2,-5.1513803E-3,2.5361286E-2],"categories":[],"categories_nodes":[],"categories_segments":[],"categories_sizes":[],"default_left":[0,0,0,0,0,0,0,0,0,0,0,0,0,0,0,0,0,0,0,0,0,0,0,0,0,0,0,0,0,0,0],"id":28,"left_children":[1,3,5,7,9,11,13,15,17,19,21,23,25,27,29,-1,-1,-1,-1,-1,-1,-1,-1,-1,-1,-1,-1,-1,-1,-1,-1],"loss_changes":[2.4054085E2,1.22547005E2,9.645505E1,3.9176285E1,8.07914E1,3.861837E1,3.8460983E1,7.448726E1,5.693042E1,8.064874E1,3.645772E1,3.1998163E1,2.1379929E0,3.1412622E1,2.7382965E1,0E0,0E0,0E0,0E0,0E0,0E0,0E0,0E0,0E0,0E0,0E0,0E0,0E0,0E0,0E0,0E0],"parents":[2147483647,0,0,1,1,2,2,3,3,4,4,5,5,6,6,7,7,8,8,9,9,10,10,11,11,12,12,13,13,14,14],"right_children":[2,4,6,8,10,12,14,16,18,20,22,24,26,28,30,-1,-1,-1,-1,-1,-1,-1,-1,-1,-1,-1,-1,-1,-1,-1,-1],"split_conditions":[2.8171644E-1,9.147063E-3,1.2090825E-2,-1.3506744E0,-1.9477396E-1,4.6327705E0,2.6E1,4.517143E0,7.1E1,-1.4877112E0,6.818217E-1,-4.7259682E-1,5.1E1,-2.4491744E0,-1.8964397E0,2.3678761E-2,-3.324234E-2,-3.0476829E-2,-7.454301E-3,2.4355466E-3,-2.75551E-2,1.8246543E-2,-1.3435308E-3,9.953297E-3,-4.794133E-3,4.5811046E-2,1.8713271E-2,3.274486E-2,-2.7012935E-2,-5.1513803E-3,2.5361286E-2],"split_indices":[1,15,15,12,0,1,5,14,5,2,2,7,5,7,7,0,0,0,0,0,0,0,0,0,0,0,0,0,0,0,0],"split_type":[0,0,0,0,0,0,0,0,0,0,0,0,0,0,0,0,0,0,0,0,0,0,0,0,0,0,0,0,0,0,0],"sum_hessian":[2.2426816E3,1.2018234E3,1.0408584E3,5.3252637E2,6.6929694E2,5.793857E2,4.614727E2,8.245951E1,4.5006686E2,3.2398337E2,3.4531357E2,5.570499E2,2.2335785E1,3.5397614E1,4.2607507E2,4.721308E1,3.5246433E1,3.082837E2,1.4178317E2,1.7662119E2,1.473622E2,1.9212527E2,1.531883E2,2.1444713E2,3.4260278E2,1.6887043E1,5.4487424E0,1.0435974E1,2.496164E1,2.802225E1,3.9805283E2],"tree_param":{"num_deleted":"0","num_feature":"22","num_nodes":"31","size_leaf_vector":"1"}},{"base_weights":[1.689123E-2,-2.8569728E-1,3.448906E-1,-6.873156E-1,-1.01763286E-1,-1.20361745E-1,6.1874336E-1,3.7082657E-1,-9.4326276E-1,-9.669834E-1,-2.2696692E-2,-3.7733105E-1,6.06079E-1,6.5119576E-1,-4.6900827E-2,2.91854E-2,-3.557761E-2,-3.185061E-2,-1.0713062E-2,4.268772E-2,-4.5784544E-2,1.3804666E-2,-7.509276E-3,2.8362798E-2,-1.4564443E-2,-4.715558E-2,2.2382135E-2,-4.3751944E-2,2.0436577E-2],"categories":[],"categories_nodes":[],"categories_segments":[],"categories_sizes":[],"default_left":[0,0,0,0,0,0,0,0,0,0,0,0,0,0,0,0,0,0,0,0,0,0,0,0,0,0,0,0,0],"id":29,"left_children":[1,3,5,7,9,11,13,15,17,19,21,23,25,27,-1,-1,-1,-1,-1,-1,-1,-1,-1,-1,-1,-1,-1,-1,-1],"loss_changes":[2.2258086E2,8.610413E1,1.3718332E2,9.9543884E1,5.4793793E1,7.481567E1,4.8999084E1,6.8683304E1,2.0112823E1,9.179938E1,8.091754E1,4.2770786E1,3.3122612E1,4.3324036E1,0E0,0E0,0E0,0E0,0E0,0E0,0E0,0E0,0E0,0E0,0E0,0E0,0E0,0E0,0E0],"parents":[2147483647,0,0,1,1,2,2,3,3,4,4,5,5,6,6,7,7,8,8,9,9,10,10,11,11,12,12,13,13],"right_children":[2,4,6,8,10,12,14,16,18,20,22,24,26,28,-1,-1,-1,-1,-1,-1,-1,-1,-1,-1,-1,-1,-1,-1,-1],"split_conditions":[1.0878936E-2,-3.3019873E-1,3.2453835E-2,-1.712822E0,-1.4801068E0,3.4760303E1,2.0788789E0,-2.3216298E-2,7.4E1,1.5E1,-4.211553E-1,1.1106158E-2,-1.2880596E1,7.009286E0,-4.6900827E-2,2.91854E-2,-3.557761E-2,-3.185061E-2,-1.0713062E-2,4.268772E-2,-4.5784544E-2,1.3804666E-2,-7.509276E-3,2.8362798E-2,-1.4564443E-2,-4.715558E-2,2.2382135E-2,-4.3751944E-2,2.0436577E-2],"split_indices":[15,4,0,4,7,13,7,7,5,5,7,15,3,14,0,0,0,0,0,0,0,0,0,0,0,0,0,0,0],"split_type":[0,0,0,0,0,0,0,0,0,0,0,0,0,0,0,0,0,0,0,0,0,0,0,0,0,0,0,0,0],"sum_hessian":[2.2406619E3,1.1655441E3,1.0751178E3,3.6526166E2,8.002825E2,3.9855963E2,6.765581E2,7.105515E1,2.9420648E2,6.606859E1,7.3421387E2,2.947693E2,1.0379037E2,6.67335E2,9.223091E0,5.1510326E1,1.9544828E1,2.4408237E2,5.012412E1,1.223424E1,5.383435E1,2.3489374E2,4.9932013E2,2.169402E1,2.7307526E2,5.6507373E0,9.8139626E1,8.696575E0,6.586385E2],"tree_param":{"num_deleted":"0","num_feature":"22","num_nodes":"29","size_leaf_vector":"1"}},{"base_weights":[-1.1757988E-3,-2.329607E-1,4.4294974E-1,-4.9827603E-1,-2.8967978E-2,1.24914855E-1,7.1505916E-1,-1.377025E0,-4.06919E-1,8.478574E-3,-4.77786E-2,1.6149066E-2,9.9530894E-1,8.222427E-1,2.3416756E-1,-2.364093E-2,-4.678288E-2,2.2202048E-2,-1.587753E-2,-2.418531E-3,2.779284E-2,1.43903075E-2,-1.0483408E-2,3.6059722E-2,-6.499978E-3,-9.631087E-3,2.5830802E-2,1.9660784E-2,-9.393946E-3],"categories":[],"categories_nodes":[],"categories_segments":[],"categories_sizes":[],"default_left":[0,0,0,0,0,0,0,0,0,0,0,0,0,0,0,0,0,0,0,0,0,0,0,0,0,0,0,0,0],"id":30,"left_children":[1,3,5,7,9,11,13,15,17,19,-1,21,23,25,27,-1,-1,-1,-1,-1,-1,-1,-1,-1,-1,-1,-1,-1,-1],"loss_changes":[2.3087897E2,7.974574E1,6.646994E1,5.0859497E1,4.8858322E1,3.3671124E1,2.1160477E1,5.2063217E0,8.19991E1,6.678559E1,0E0,5.3943768E1,1.0157581E1,1.5279999E1,1.7932951E1,0E0,0E0,0E0,0E0,0E0,0E0,0E0,0E0,0E0,0E0,0E0,0E0,0E0,0E0],"parents":[2147483647,0,0,1,1,2,2,3,3,4,4,5,5,6,6,7,7,8,8,9,9,11,11,12,12,13,13,14,14],"right_children":[2,4,6,8,10,12,14,16,18,20,-1,22,24,26,28,-1,-1,-1,-1,-1,-1,-1,-1,-1,-1,-1,-1,-1,-1],"split_conditions":[1.4170887E0,8.63598E-3,1.2090825E-2,-2.1429987E0,1.7266945E0,7.5E1,1.5195539E0,5E1,-1.2506032E0,1.2051778E0,-4.77786E-2,5.1E1,7.8E1,2.1E1,3.786512E-2,-2.364093E-2,-4.678288E-2,2.2202048E-2,-1.587753E-2,-2.418531E-3,2.779284E-2,1.43903075E-2,-1.0483408E-2,3.6059722E-2,-6.499978E-3,-9.631087E-3,2.5830802E-2,1.9660784E-2,-9.393946E-3],"split_indices":[0,15,15,3,7,5,16,5,12,7,0,5,5,5,9,0,0,0,0,0,0,0,0,0,0,0,0,0,0],"split_type":[0,0,0,0,0,0,0,0,0,0,0,0,0,0,0,0,0,0,0,0,0,0,0,0,0,0,0,0,0],"sum_hessian":[2.2408127E3,1.4727001E3,7.6811273E2,6.395071E2,8.33193E2,3.5484155E2,4.1327115E2,5.88985E1,5.806086E2,8.146776E2,1.8515432E1,3.163309E2,3.8510643E1,3.3736722E2,7.590394E1,1.518512E1,4.371338E1,5.5470108E1,5.251384E2,7.434321E2,7.124544E1,1.3934618E2,1.7698474E2,3.2907127E1,5.6035156E0,1.0830403E1,3.265368E2,4.278212E1,3.3121822E1],"tree_param":{"num_deleted":"0","num_feature":"22","num_nodes":"29","size_leaf_vector":"1"}},{"base_weights":[6.41443E-4,-2.1260512E-1,4.1374677E-1,4.626932E-2,-2.5070253E-1,-6.852138E-2,6.396714E-1,-1.391002E0,-1.9218282E-1,-1.3145741E0,1.4927043E-1,6.926065E-1,-4.855292E-2,-2.9372058E-3,-4.8547294E-2,-1.7775664E-2,-4.888086E-4,-5.0873596E-2,-4.4388343E-3,-2.1121271E-2,9.877861E-3,1.6674565E-2,3.484414E-2],"categories":[],"categories_nodes":[],"categories_segments":[],"categories_sizes":[],"default_left":[0,0,0,0,0,0,0,0,0,0,0,0,0,0,0,0,0,0,0,0,0,0,0],"id":31,"left_children":[1,3,5,-1,7,9,11,13,15,17,19,21,-1,-1,-1,-1,-1,-1,-1,-1,-1,-1,-1],"loss_changes":[1.9684967E2,9.892078E1,8.293483E1,0E0,9.604628E1,6.630491E1,6.305945E1,2.0497406E1,9.674371E1,1.5912811E1,3.2217766E1,3.1871002E1,0E0,0E0,0E0,0E0,0E0,0E0,0E0,0E0,0E0,0E0,0E0],"parents":[2147483647,0,0,1,1,2,2,4,4,5,5,6,6,7,7,8,8,9,9,10,10,11,11],"right_children":[2,4,6,-1,8,10,12,14,16,18,20,22,-1,-1,-1,-1,-1,-1,-1,-1,-1,-1,-1],"split_conditions":[9.581429E0,1.5E1,-2.2119111E-1,4.626932E-2,-1.8964397E0,3.3E1,2.0788789E0,-3.656914E0,-3.3019873E-1,-1.2635736E0,2.8894088E-1,7.6328983E0,-4.855292E-2,-2.9372058E-3,-4.8547294E-2,-1.7775664E-2,-4.888086E-4,-5.0873596E-2,-4.4388343E-3,-2.1121271E-2,9.877861E-3,1.6674565E-2,3.484414E-2],"split_indices":[14,5,0,0,7,5,7,0,4,7,20,12,0,0,0,0,0,0,0,0,0,0,0],"split_type":[0,0,0,0,0,0,0,0,0,0,0,0,0,0,0,0,0,0,0,0,0,0,0],"sum_hessian":[2.2325605E3,1.4727874E3,7.597732E2,3.0454418E1,1.442333E3,2.426018E2,5.171713E2,6.9295204E1,1.3730378E3,3.534522E1,2.0725659E2,5.0600278E2,1.1168588E1,1.05712595E1,5.8723946E1,4.183859E2,9.546519E2,2.6298195E1,9.047022E0,3.5594925E1,1.7166167E2,3.9341306E2,1.125897E2],"tree_param":{"num_deleted":"0","num_feature":"22","num_nodes":"23","size_leaf_vector":"1"}},{"base_weights":[8.513952E-3,-2.2710294E-1,4.791662E-1,-4.2434925E-1,5.414238E-2,2.0757826E-1,7.3159456E-1,-1.3378863E-1,-6.0639E-1,-8.6804345E-2,5.261703E-1,-4.527924E-2,6.3705623E-1,8.294496E-1,-1.1271653E0,-1.2100772E-2,2.2111543E-2,-2.9986503E-2,-4.458374E-3,-1.6152017E-2,8.372826E-3,-4.745299E-2,1.936625E-2,6.491892E-3,-4.4677462E-2,4.3860923E-2,1.36946505E-2,2.6377799E-2,-9.557122E-3,-5.346314E-2,1.9088391E-2],"categories":[],"categories_nodes":[],"categories_segments":[],"categories_sizes":[],"default_left":[0,0,0,0,0,0,0,0,0,0,0,0,0,0,0,0,0,0,0,0,0,0,0,0,0,0,0,0,0,0,0],"id":32,"left_children":[1,3,5,7,9,11,13,15,17,19,21,23,25,27,29,-1,-1,-1,-1,-1,-1,-1,-1,-1,-1,-1,-1,-1,-1,-1,-1],"loss_changes":[2.459028E2,8.199925E1,5.0563385E1,4.5866913E1,4.063231E1,3.8879463E1,7.059961E1,7.914845E1,9.592352E1,7.791621E1,3.6353146E1,8.575857E1,1.9091255E1,2.1119293E1,2.3746685E1,0E0,0E0,0E0,0E0,0E0,0E0,0E0,0E0,0E0,0E0,0E0,0E0,0E0,0E0,0E0,0E0],"parents":[2147483647,0,0,1,1,2,2,3,3,4,4,5,5,6,6,7,7,8,8,9,9,10,10,11,11,12,12,13,13,14,14],"right_children":[2,4,6,8,10,12,14,16,18,20,22,24,26,28,30,-1,-1,-1,-1,-1,-1,-1,-1,-1,-1,-1,-1,-1,-1,-1,-1],"split_conditions":[1.517057E0,1.0698249E-2,9.581429E0,-4.211553E-1,3.2984398E1,7.174348E-1,1.7627766E0,-6.192667E-1,7.1E1,-6.3972086E-1,-1.2880596E1,3.0703443E-1,4.5E1,2.208195E0,8.4558E0,-1.2100772E-2,2.2111543E-2,-2.9986503E-2,-4.458374E-3,-1.6152017E-2,8.372826E-3,-4.745299E-2,1.936625E-2,6.491892E-3,-4.4677462E-2,4.3860923E-2,1.36946505E-2,2.6377799E-2,-9.557122E-3,-5.346314E-2,1.9088391E-2],"split_indices":[0,15,14,7,13,7,7,7,5,0,3,7,5,16,2,0,0,0,0,0,0,0,0,0,0,0,0,0,0,0,0],"split_type":[0,0,0,0,0,0,0,0,0,0,0,0,0,0,0,0,0,0,0,0,0,0,0,0,0,0,0,0,0,0,0],"sum_hessian":[2.2154844E3,1.4767263E3,7.3875806E2,8.676835E2,6.090429E2,3.5675128E2,3.8200674E2,3.3489023E2,5.327932E2,4.696287E2,1.3941422E2,2.251107E2,1.3164058E2,3.6342773E2,1.8579012E1,2.5613873E2,7.875149E1,2.8598923E2,2.46804E2,2.0998781E2,2.5964087E2,6.8152533E0,1.3259895E2,1.9129453E2,3.381619E1,2.2364641E1,1.0927594E2,3.485394E2,1.4888351E1,1.3539786E1,5.0392256E0],"tree_param":{"num_deleted":"0","num_feature":"22","num_nodes":"31","size_leaf_vector":"1"}},{"base_weights":[-2.9324528E-3,-3.1801063E-1,2.8127646E-1,-5.2470654E-1,3.3795808E-2,-2.4812384E-2,5.4458207E-1,-1.1479337E-1,-9.526166E-1,-1.5754628E-1,1.3336183E0,-4.4926277E-1,2.4351399E-1,3.617168E-2,7.073619E-1,-1.9587636E-2,6.0604773E-3,-3.1710993E-2,-7.952841E-3,-9.381979E-3,2.5253607E-2,-1.7482469E-2,4.8296995E-2,5.6767752E-3,-2.2990925E-2,-1.0572926E-2,1.4804994E-2,-2.2125283E-2,1.3494973E-2,-2.2061784E-2,2.2374451E-2],"categories":[],"categories_nodes":[],"categories_segments":[],"categories_sizes":[],"default_left":[0,0,0,0,0,0,0,0,0,0,0,0,0,0,0,0,0,0,0,0,0,0,0,0,0,0,0,0,0,0,0],"id":33,"left_children":[1,3,5,7,9,11,13,15,17,19,21,23,25,27,29,-1,-1,-1,-1,-1,-1,-1,-1,-1,-1,-1,-1,-1,-1,-1,-1],"loss_changes":[1.976932E2,7.615064E1,9.356027E1,1.1558165E2,9.681294E1,6.1348885E1,5.1616135E1,5.775573E1,2.2875916E1,5.2909004E1,2.7382378E1,4.23822E1,4.93496E1,4.9102684E1,2.6768295E1,0E0,0E0,0E0,0E0,0E0,0E0,0E0,0E0,0E0,0E0,0E0,0E0,0E0,0E0,0E0,0E0],"parents":[2147483647,0,0,1,1,2,2,3,3,4,4,5,5,6,6,7,7,8,8,9,9,10,10,11,11,12,12,13,13,14,14],"right_children":[2,4,6,8,10,12,14,16,18,20,22,24,26,28,30,-1,-1,-1,-1,-1,-1,-1,-1,-1,-1,-1,-1,-1,-1,-1,-1],"split_conditions":[1.0258835E-2,6.8E1,1.06810264E-1,5.1E1,1.6304396E0,2.2841894E1,-1.4815867E0,4E1,3.7042959E0,6.161288E-1,-9.2957443E-1,4.5E1,-1.0011399E0,1.5719352E-2,2.6E1,-1.9587636E-2,6.0604773E-3,-3.1710993E-2,-7.952841E-3,-9.381979E-3,2.5253607E-2,-1.7482469E-2,4.8296995E-2,5.6767752E-3,-2.2990925E-2,-1.0572926E-2,1.4804994E-2,-2.2125283E-2,1.3494973E-2,-2.2061784E-2,2.2374451E-2],"split_indices":[15,5,21,5,9,13,12,5,12,20,16,5,1,15,5,0,0,0,0,0,0,0,0,0,0,0,0,0,0,0,0],"split_type":[0,0,0,0,0,0,0,0,0,0,0,0,0,0,0,0,0,0,0,0,0,0,0,0,0,0,0,0,0,0,0],"sum_hessian":[2.205679E3,1.0459758E3,1.1597031E3,6.5856146E2,3.8741437E2,5.367014E2,6.230017E2,3.370016E2,3.215599E2,3.3846848E2,4.8945904E1,2.0761407E2,3.2908734E2,1.5138937E2,4.7161237E2,1.24487656E2,2.1251393E2,2.7869583E2,4.2864063E1,2.9356747E2,4.490101E1,6.0275893E0,4.2918316E1,6.902813E1,1.3858595E2,9.712939E1,2.3195796E2,5.2470135E1,9.8919235E1,1.1772859E1,4.598395E2],"tree_param":{"num_deleted":"0","num_feature":"22","num_nodes":"31","size_leaf_vector":"1"}},{"base_weights":[3.4018558E-2,-1.614222E-1,4.6517196E-1,-4.7813302E-1,8.500046E-2,5.438152E-1,-1.1423416E0,-1.0397203E0,-2.929201E-1,-1.1895611E-1,4.7966185E-1,3.9998496E-1,1.2465243E0,-4.9735084E-2,3.0442106E-2,-3.378543E-2,2.378261E-2,3.1807255E-3,-1.9598482E-2,3.3917772E-3,-3.245156E-2,-5.476822E-2,1.703581E-2,-2.740354E-2,1.3939199E-2,4.077913E-2,-7.446133E-3],"categories":[],"categories_nodes":[],"categories_segments":[],"categories_sizes":[],"default_left":[0,0,0,0,0,0,0,0,0,0,0,0,0,0,0,0,0,0,0,0,0,0,0,0,0,0,0],"id":34,"left_children":[1,3,5,7,9,11,13,15,17,19,21,23,25,-1,-1,-1,-1,-1,-1,-1,-1,-1,-1,-1,-1,-1,-1],"loss_changes":[1.8603442E2,1.1860998E2,8.767308E1,6.886026E1,6.890233E1,6.592049E1,3.7753014E1,2.6959473E1,7.2158264E1,1.2625835E2,6.0326286E1,4.687355E1,1.907965E1,0E0,0E0,0E0,0E0,0E0,0E0,0E0,0E0,0E0,0E0,0E0,0E0,0E0,0E0],"parents":[2147483647,0,0,1,1,2,2,3,3,4,4,5,5,6,6,7,7,8,8,9,9,10,10,11,11,12,12],"right_children":[2,4,6,8,10,12,14,16,18,20,22,24,26,-1,-1,-1,-1,-1,-1,-1,-1,-1,-1,-1,-1,-1,-1],"split_conditions":[1.0164286E1,6.473647E-2,1.6615288E0,-6.1501384E-1,7.1E1,7.6328983E0,1.1005387E1,2.1721294E0,-4.8361763E-1,6.3E1,-9.908112E-1,-5.6381702E0,1.7449023E0,-4.9735084E-2,3.0442106E-2,-3.378543E-2,2.378261E-2,3.1807255E-3,-1.9598482E-2,3.3917772E-3,-3.245156E-2,-5.476822E-2,1.703581E-2,-2.740354E-2,1.3939199E-2,4.077913E-2,-7.446133E-3],"split_indices":[14,4,7,17,5,12,0,16,2,5,17,2,4,0,0,0,0,0,0,0,0,0,0,0,0,0,0],"split_type":[0,0,0,0,0,0,0,0,0,0,0,0,0,0,0,0,0,0,0,0,0,0,0,0,0,0,0],"sum_hessian":[2.205841E3,1.5182484E3,6.875925E2,6.6396173E2,8.542867E2,6.5615375E2,3.143882E1,1.6352403E2,5.004377E2,5.636812E2,2.9060553E2,5.459733E2,1.1018039E2,2.55616E1,5.87722E0,1.5652426E2,6.99977E0,2.3783978E2,2.6259793E2,4.5493045E2,1.0875075E2,9.9828205E0,2.806227E2,2.4999165E1,5.209742E2,1.0253458E2,7.645811E0],"tree_param":{"num_deleted":"0","num_feature":"22","num_nodes":"27","size_leaf_vector":"1"}},{"base_weights":[2.031828E-3,-1.916232E-1,4.1165656E-1,-2.654798E-1,7.1081805E-1,2.1784319E-1,7.750012E-1,4.5534566E-2,-2.9701373E-1,-1.3610785E-1,8.438124E-1,8.782641E-2,1.0390408E0,8.824717E-1,-7.429382E-1,-3.89716E-2,-6.9805887E-3,-3.1667467E-2,1.2606522E-2,3.107452E-2,1.34119755E-2,-3.210197E-2,5.8436636E-3,-9.400307E-3,3.5140786E-2,3.9463E-2,2.0635804E-2,-5.1142875E-2,2.2759875E-2],"categories":[],"categories_nodes":[],"categories_segments":[],"categories_sizes":[],"default_left":[0,0,0,0,0,0,0,0,0,0,0,0,0,0,0,0,0,0,0,0,0,0,0,0,0,0,0,0,0],"id":35,"left_children":[1,3,5,7,9,11,13,-1,15,17,19,21,23,25,27,-1,-1,-1,-1,-1,-1,-1,-1,-1,-1,-1,-1,-1,-1],"loss_changes":[1.75814E2,1.0049223E2,4.9932602E1,7.8717E1,1.2968594E1,4.9594864E1,4.0965332E1,0E0,8.7905334E1,8.806545E0,7.060814E0,5.010098E1,1.1732834E1,1.857724E1,2.56737E1,0E0,0E0,0E0,0E0,0E0,0E0,0E0,0E0,0E0,0E0,0E0,0E0,0E0,0E0],"parents":[2147483647,0,0,1,1,2,2,3,3,4,4,5,5,6,6,8,8,9,9,10,10,11,11,12,12,13,13,14,14],"right_children":[2,4,6,8,10,12,14,-1,16,18,20,22,24,26,28,-1,-1,-1,-1,-1,-1,-1,-1,-1,-1,-1,-1,-1,-1],"split_conditions":[1.517057E0,1.7550963E0,1.1463572E1,1.5E1,-3.2921827E-1,7.5E1,1.6147822E0,4.5534566E-2,-2.0933619E0,-1.0007601E0,8.3174264E-1,-4.2452753E-1,-5.848728E-1,-1.7153108E-1,1.1005387E1,-3.89716E-2,-6.9805887E-3,-3.1667467E-2,1.2606522E-2,3.107452E-2,1.34119755E-2,-3.210197E-2,5.8436636E-3,-9.400307E-3,3.5140786E-2,3.9463E-2,2.0635804E-2,-5.1142875E-2,2.2759875E-2],"split_indices":[0,1,14,5,16,5,7,0,7,7,19,1,17,16,0,0,0,0,0,0,0,0,0,0,0,0,0,0,0],"split_type":[0,0,0,0,0,0,0,0,0,0,0,0,0,0,0,0,0,0,0,0,0,0,0,0,0,0,0,0,0],"sum_hessian":[2.2143564E3,1.5039011E3,7.104552E2,1.390784E3,1.1311718E2,4.643589E2,2.4609628E2,2.3346844E1,1.3674371E3,1.5349038E1,9.776814E1,4.0184363E2,6.251527E1,2.302156E2,1.5880676E1,8.13313E1,1.2861058E3,5.447759E0,9.901279E0,6.479831E1,3.2969837E1,3.3220455E1,3.6862317E2,5.449518E0,5.706575E1,6.960432E1,1.606113E2,9.597724E0,6.2829523E0],"tree_param":{"num_deleted":"0","num_feature":"22","num_nodes":"29","size_leaf_vector":"1"}},{"base_weights":[-3.168767E-3,-5.202423E-1,1.4869699E-1,-3.489406E-1,-1.3149649E0,-2.466079E-1,3.5295808E-1,-3.7701055E-2,-6.9069034E-1,-1.4353265E0,1.4551178E-2,-4.1369534E-1,5.7535213E-1,2.79469E-1,9.9890167E-1,6.6540353E-3,-4.4592008E-2,1.022889E-2,-2.8645817E-2,-4.4946577E-2,-2.077239E-2,4.5223877E-2,-1.4424463E-2,-4.4243578E-2,2.15709E-2,5.747086E-3,2.7432015E-2,-2.424575E-2,3.3115685E-2],"categories":[],"categories_nodes":[],"categories_segments":[],"categories_sizes":[],"default_left":[0,0,0,0,0,0,0,0,0,0,0,0,0,0,0,0,0,0,0,0,0,0,0,0,0,0,0,0,0],"id":36,"left_children":[1,3,5,7,9,11,13,15,17,19,-1,21,23,25,27,-1,-1,-1,-1,-1,-1,-1,-1,-1,-1,-1,-1,-1,-1],"loss_changes":[1.704516E2,6.66281E1,1.3556747E2,4.3240005E1,1.9549927E1,7.882469E1,5.225386E1,8.075969E1,5.314834E1,2.7856445E0,0E0,6.2120056E1,2.9658E1,5.5356346E1,2.2258698E1,0E0,0E0,0E0,0E0,0E0,0E0,0E0,0E0,0E0,0E0,0E0,0E0,0E0,0E0],"parents":[2147483647,0,0,1,1,2,2,3,3,4,4,5,5,6,6,7,7,8,8,9,9,11,11,12,12,13,13,14,14],"right_children":[2,4,6,8,10,12,14,16,18,20,-1,22,24,26,28,-1,-1,-1,-1,-1,-1,-1,-1,-1,-1,-1,-1,-1,-1],"split_conditions":[7.15449E-3,7.03E-6,-2.1058202E-1,6.3E1,2.8922546E0,3.7876423E1,1.8306429E1,4.322143E0,-2.5885332E-1,7.2E1,1.4551178E-2,1.5E1,-2.0205E-4,7.5E1,-1.6622999E0,6.6540353E-3,-4.4592008E-2,1.022889E-2,-2.8645817E-2,-4.4946577E-2,-2.077239E-2,4.5223877E-2,-1.4424463E-2,-4.4243578E-2,2.15709E-2,5.747086E-3,2.7432015E-2,-2.424575E-2,3.3115685E-2],"split_indices":[15,11,0,5,9,13,14,14,9,5,0,5,8,5,1,0,0,0,0,0,0,0,0,0,0,0,0,0,0],"split_type":[0,0,0,0,0,0,0,0,0,0,0,0,0,0,0,0,0,0,0,0,0,0,0,0,0,0,0,0,0],"sum_hessian":[2.1686606E3,4.9178888E2,1.6768717E3,4.057656E2,8.60233E1,5.712087E2,1.105663E3,2.1294336E2,1.9282222E2,8.082156E1,5.2017326E0,4.7512274E2,9.6085915E1,9.940074E2,1.1165563E2,1.813122E2,3.1631151E1,3.9250015E1,1.535722E2,7.357615E1,7.2454123E0,1.5314734E1,4.59808E2,5.686126E0,9.039979E1,8.74275E2,1.1973233E2,5.7611156E0,1.05894516E2],"tree_param":{"num_deleted":"0","num_feature":"22","num_nodes":"29","size_leaf_vector":"1"}},{"base_weights":[-2.4225874E-2,-1.9997159E-1,3.56382E-1,-6.238174E-1,-8.71215E-2,3.630081E-3,5.5853695E-1,3.5097274E-1,-7.61576E-1,-8.7879777E-1,1.0631979E-3,-9.102726E-1,1.5773839E-1,8.763263E-1,3.397223E-1,-2.1114692E-2,3.5783596E-2,-3.780349E-2,-1.4078117E-2,2.4247821E-2,-3.3539113E-2,-2.2527996E-2,2.5350512E-3,-2.5730224E-3,-5.304447E-2,-1.8374545E-2,9.8857535E-3,2.8068699E-2,-1.1086631E-2,-6.389542E-2,1.2062086E-2],"categories":[],"categories_nodes":[],"categories_segments":[],"categories_sizes":[],"default_left":[0,0,0,0,0,0,0,0,0,0,0,0,0,0,0,0,0,0,0,0,0,0,0,0,0,0,0,0,0,0,0],"id":37,"left_children":[1,3,5,7,9,11,13,15,17,19,21,23,25,27,29,-1,-1,-1,-1,-1,-1,-1,-1,-1,-1,-1,-1,-1,-1,-1,-1],"loss_changes":[1.436027E2,7.018987E1,4.835975E1,4.171266E1,8.105156E1,3.5082108E1,2.9680603E1,3.5380974E1,3.886183E1,4.785418E1,6.566989E1,2.5271845E1,2.8401836E1,1.3286407E1,4.0418896E1,0E0,0E0,0E0,0E0,0E0,0E0,0E0,0E0,0E0,0E0,0E0,0E0,0E0,0E0,0E0,0E0],"parents":[2147483647,0,0,1,1,2,2,3,3,4,4,5,5,6,6,7,7,8,8,9,9,10,10,11,11,12,12,13,13,14,14],"right_children":[2,4,6,8,10,12,14,16,18,20,22,24,26,28,30,-1,-1,-1,-1,-1,-1,-1,-1,-1,-1,-1,-1,-1,-1,-1,-1],"split_conditions":[1.517057E0,-6.566375E-1,1.0950153E-2,3.1E1,5.128783E-3,7.8613853E-1,2.5837818E-1,-1.0382079E-1,6E1,-1.0680897E0,-1.8964397E0,1.893749E0,-5.9049916E-1,8.5611874E-1,2.1E1,-2.1114692E-2,3.5783596E-2,-3.780349E-2,-1.4078117E-2,2.4247821E-2,-3.3539113E-2,-2.2527996E-2,2.5350512E-3,-2.5730224E-3,-5.304447E-2,-1.8374545E-2,9.8857535E-3,2.8068699E-2,-1.1086631E-2,-6.389542E-2,1.2062086E-2],"split_indices":[0,17,15,5,15,4,2,4,5,7,7,0,9,9,5,0,0,0,0,0,0,0,0,0,0,0,0,0,0,0,0],"split_type":[0,0,0,0,0,0,0,0,0,0,0,0,0,0,0,0,0,0,0,0,0,0,0,0,0,0,0,0,0,0,0],"sum_hessian":[2.1447766E3,1.467591E3,6.771856E2,3.0763568E2,1.1599553E3,2.4707245E2,4.3011316E2,3.7900593E1,2.697351E2,1.1535879E2,1.0445964E3,3.494323E1,2.1212923E2,1.7416483E2,2.5594833E2,1.6895008E1,2.1005585E1,9.847333E1,1.7126176E2,1.40282135E1,1.01330574E2,1.03529396E2,9.410671E2,1.8379074E1,1.6564156E1,3.8216457E1,1.7391277E2,1.6648987E2,7.6749654E0,5.48603E0,2.5046231E2],"tree_param":{"num_deleted":"0","num_feature":"22","num_nodes":"31","size_leaf_vector":"1"}},{"base_weights":[-1.0691844E-2,-2.3134746E-1,3.7460282E-1,-4.3893242E-1,1.5092166E-1,-1.1877097E-1,5.528394E-1,-1.2500031E-1,-6.1779904E-1,-6.758153E-1,3.0403388E-1,1.0856005E0,-2.9180828E-1,-8.150986E-2,7.4281967E-1,-1.0316393E-2,3.5520483E-2,-2.7913477E-2,-7.1513555E-3,-4.032818E-2,2.7942922E-2,-4.9332306E-2,1.103681E-2,5.8185622E-2,-9.402635E-3,-2.4975603E-2,1.35150915E-2,-5.163609E-2,2.976907E-3,3.0047005E-2,1.4414337E-2],"categories":[],"categories_nodes":[],"categories_segments":[],"categories_sizes":[],"default_left":[0,0,0,0,0,0,0,0,0,0,0,0,0,0,0,0,0,0,0,0,0,0,0,0,0,0,0,0,0,0,0],"id":38,"left_children":[1,3,5,7,9,11,13,15,17,19,21,23,25,27,29,-1,-1,-1,-1,-1,-1,-1,-1,-1,-1,-1,-1,-1,-1,-1,-1],"loss_changes":[1.8267128E2,1.0847737E2,6.887054E1,4.9653427E1,6.1160416E1,4.376222E1,6.93513E1,9.28683E1,6.667557E1,8.2427704E1,5.124479E1,3.2147873E1,7.385473E1,3.9708057E1,2.9559204E1,0E0,0E0,0E0,0E0,0E0,0E0,0E0,0E0,0E0,0E0,0E0,0E0,0E0,0E0,0E0,0E0],"parents":[2147483647,0,0,1,1,2,2,3,3,4,4,5,5,6,6,7,7,8,8,9,9,10,10,11,11,12,12,13,13,14,14],"right_children":[2,4,6,8,10,12,14,16,18,20,22,24,26,28,30,-1,-1,-1,-1,-1,-1,-1,-1,-1,-1,-1,-1,-1,-1,-1,-1],"split_conditions":[5.0680256E-1,1.2090825E-2,9.19211E-3,-4.7259682E-1,-1.3919066E0,4.4310084E-3,-1.4815867E0,-5.589214E-1,7.1E1,5.7E1,-1.0661E-4,-1.0680897E0,7.1E1,-5.334328E0,6.818217E-1,-1.0316393E-2,3.5520483E-2,-2.7913477E-2,-7.1513555E-3,-4.032818E-2,2.7942922E-2,-4.9332306E-2,1.103681E-2,5.8185622E-2,-9.402635E-3,-2.4975603E-2,1.35150915E-2,-5.163609E-2,2.976907E-3,3.0047005E-2,1.4414337E-2],"split_indices":[20,15,15,7,7,15,12,7,5,5,8,7,5,2,2,0,0,0,0,0,0,0,0,0,0,0,0,0,0,0,0],"split_type":[0,0,0,0,0,0,0,0,0,0,0,0,0,0,0,0,0,0,0,0,0,0,0,0,0,0,0,0,0,0,0],"sum_hessian":[2.146614E3,1.3651827E3,7.814312E2,8.8464343E2,4.8053928E2,2.0747014E2,5.7396106E2,3.2170755E2,5.6293585E2,7.455609E1,4.059832E2,2.5400965E1,1.8206918E2,1.3241034E2,4.4155075E2,2.7625284E2,4.5454697E1,3.078275E2,2.5510837E2,5.2771797E1,2.1784294E1,1.2098304E1,3.938849E2,1.5533468E1,9.867497E0,1.052684E2,7.680077E1,1.2300035E1,1.201103E2,2.2087967E2,2.2067108E2],"tree_param":{"num_deleted":"0","num_feature":"22","num_nodes":"31","size_leaf_vector":"1"}},{"base_weights":[3.5657287E-3,-3.0609214E-1,2.87781E-1,-4.325623E-1,1.6685379E-1,-4.607982E-2,5.073947E-1,-3.526966E-2,-6.7874575E-1,-1.1748036E0,3.2229856E-1,2.3852712E-2,-4.714663E-2,-1.6931735E-1,6.269276E-1,-1.3522438E-2,2.4821842E-2,-3.1154536E-2,-7.1787364E-3,3.4374327E-3,-4.666013E-2,1.3606666E-2,-2.2800181E-2,-1.640162E-3,4.422327E-2,1.3356999E-2,-2.7870778E-2,-7.8220535E-3,2.1213243E-2],"categories":[],"categories_nodes":[],"categories_segments":[],"categories_sizes":[],"default_left":[0,0,0,0,0,0,0,0,0,0,0,0,0,0,0,0,0,0,0,0,0,0,0,0,0,0,0,0,0],"id":39,"left_children":[1,3,5,7,9,11,13,15,17,19,21,23,-1,25,27,-1,-1,-1,-1,-1,-1,-1,-1,-1,-1,-1,-1,-1,-1],"loss_changes":[1.865143E2,6.0737183E1,8.1043594E1,7.827255E1,4.5158028E1,4.6910355E1,5.403015E1,1.1052249E2,7.7879E1,1.1222425E1,2.7791395E1,4.8036205E1,0E0,4.750483E1,4.052353E1,0E0,0E0,0E0,0E0,0E0,0E0,0E0,0E0,0E0,0E0,0E0,0E0,0E0,0E0],"parents":[2147483647,0,0,1,1,2,2,3,3,4,4,5,5,6,6,7,7,8,8,9,9,10,10,11,11,13,13,14,14],"right_children":[2,4,6,8,10,12,14,16,18,20,22,24,-1,26,28,-1,-1,-1,-1,-1,-1,-1,-1,-1,-1,-1,-1,-1,-1],"split_conditions":[1.0374523E-2,5.406773E-1,4.479255E-1,-4.211553E-1,-1.507044E0,1.6615288E0,-1.8964397E0,-6.192667E-1,7.1E1,1.46967535E1,7.1128573E0,7.6328983E0,-4.714663E-2,-2.5210056E0,1.46967535E1,-1.3522438E-2,2.4821842E-2,-3.1154536E-2,-7.1787364E-3,3.4374327E-3,-4.666013E-2,1.3606666E-2,-2.2800181E-2,-1.640162E-3,4.422327E-2,1.3356999E-2,-2.7870778E-2,-7.8220535E-3,2.1213243E-2],"split_indices":[15,20,20,7,7,7,7,7,5,13,14,12,0,7,13,0,0,0,0,0,0,0,0,0,0,0,0,0,0],"split_type":[0,0,0,0,0,0,0,0,0,0,0,0,0,0,0,0,0,0,0,0,0,0,0,0,0,0,0,0,0],"sum_hessian":[2.1172512E3,1.0132353E3,1.1040159E3,7.9952124E2,2.1371404E2,4.3837704E2,6.656388E2,3.063212E2,4.9320004E2,2.1509132E1,1.9220491E2,4.201026E2,1.8274454E1,9.986373E1,5.657751E2,2.0706946E2,9.925175E1,2.7044766E2,2.2275241E2,5.060671E0,1.6448462E1,1.7193442E2,2.0270487E1,3.994372E2,2.0665403E1,5.543482E1,4.4428913E1,4.668477E1,5.1909033E2],"tree_param":{"num_deleted":"0","num_feature":"22","num_nodes":"29","size_leaf_vector":"1"}},{"base_weights":[8.827884E-3,-2.1521452E-1,3.3445337E-1,-5.2635735E-1,1.2069872E-2,-2.985256E-1,4.888936E-1,3.557565E-1,-6.8284804E-1,-4.123564E-1,1.8268101E-1,5.2437025E-1,-4.7714946E-1,-9.1145974E-1,5.308943E-1,2.7604664E-2,-2.3754815E-2,4.2333893E-2,-2.1729473E-2,2.3339015E-2,-1.9756518E-2,-1.198427E-2,9.2499005E-3,4.674315E-2,-2.3491675E-2,-3.7677458E-3,-3.1029914E-2,-5.617803E-2,2.9326262E-2,1.7091574E-2,-2.5834741E-2],"categories":[],"categories_nodes":[],"categories_segments":[],"categories_sizes":[],"default_left":[0,0,0,0,0,0,0,0,0,0,0,0,0,0,0,0,0,0,0,0,0,0,0,0,0,0,0,0,0,0,0],"id":40,"left_children":[1,3,5,7,9,11,13,15,17,19,21,23,25,27,29,-1,-1,-1,-1,-1,-1,-1,-1,-1,-1,-1,-1,-1,-1,-1,-1],"loss_changes":[1.5681223E2,9.005704E1,8.579163E1,7.444763E1,5.34305E1,2.5599216E1,4.192836E1,5.3614307E1,4.0695587E1,6.2514015E1,3.8617447E1,4.343426E1,2.7728546E1,3.9753155E1,3.749948E1,0E0,0E0,0E0,0E0,0E0,0E0,0E0,0E0,0E0,0E0,0E0,0E0,0E0,0E0,0E0,0E0],"parents":[2147483647,0,0,1,1,2,2,3,3,4,4,5,5,6,6,7,7,8,8,9,9,10,10,11,11,12,12,13,13,14,14],"right_children":[2,4,6,8,10,12,14,16,18,20,22,24,26,28,30,-1,-1,-1,-1,-1,-1,-1,-1,-1,-1,-1,-1,-1,-1,-1,-1],"split_conditions":[1.1917162E-2,2.4471713E-2,-1.0011399E0,-1.712822E0,6.675885E-3,-5.660251E0,2.1E1,-1.5116591E0,1.5E1,-1.0680897E0,-3.258783E-1,-1.5416421E-1,2.5154448E1,-1.2466265E0,1.7627766E0,2.7604664E-2,-2.3754815E-2,4.2333893E-2,-2.1729473E-2,2.3339015E-2,-1.9756518E-2,-1.198427E-2,9.2499005E-3,4.674315E-2,-2.3491675E-2,-3.7677458E-3,-3.1029914E-2,-5.617803E-2,2.9326262E-2,1.7091574E-2,-2.5834741E-2],"split_indices":[15,4,1,4,15,0,5,12,5,7,12,9,13,7,7,0,0,0,0,0,0,0,0,0,0,0,0,0,0,0,0],"split_type":[0,0,0,0,0,0,0,0,0,0,0,0,0,0,0,0,0,0,0,0,0,0,0,0,0,0,0,0,0,0,0],"sum_hessian":[2.147483E3,1.2723785E3,8.7510443E2,5.365492E2,7.358293E2,1.7145534E2,7.036491E2,8.065217E1,4.5589703E2,2.1057318E2,5.252561E2,3.0234318E1,1.4122101E2,1.9887123E1,6.8376196E2,5.4195957E1,2.645621E1,8.211558E0,4.476855E2,3.5718407E1,1.7485478E2,9.2856125E1,4.3239996E2,1.6777342E1,1.3456976E1,8.7339096E1,5.3881916E1,1.318643E1,6.7006927E0,6.6578375E2,1.7978241E1],"tree_param":{"num_deleted":"0","num_feature":"22","num_nodes":"31","size_leaf_vector":"1"}},{"base_weights":[7.100145E-3,-2.5348082E-1,2.5953245E-1,-3.4544012E-1,5.1348454E-1,5.50145E-2,5.767303E-1,1.6703868E-1,-5.358233E-1,-2.1737722E-1,9.598989E-1,-3.6585424E-2,9.8987734E-1,-1.3461661E0,6.403895E-1,-3.4042296E-3,6.3727506E-2,-3.145895E-2,-9.67133E-3,2.3866385E-2,-2.1354934E-2,3.4268837E-2,-2.1524953E-2,-4.2596135E-2,5.3471705E-4,-2.0237401E-2,3.611359E-2,-6.0793698E-2,-1.1856915E-2,2.1011537E-2,-2.860107E-2],"categories":[],"categories_nodes":[],"categories_segments":[],"categories_sizes":[],"default_left":[0,0,0,0,0,0,0,0,0,0,0,0,0,0,0,0,0,0,0,0,0,0,0,0,0,0,0,0,0,0,0],"id":41,"left_children":[1,3,5,7,9,11,13,15,17,19,21,23,25,27,29,-1,-1,-1,-1,-1,-1,-1,-1,-1,-1,-1,-1,-1,-1,-1,-1],"loss_changes":[1.4094647E2,7.454089E1,7.057348E1,9.2005135E1,3.7169952E1,5.6795807E1,5.30755E1,1.4075833E2,7.487331E1,2.2489395E1,2.2393066E1,4.553244E1,2.1884335E1,8.250046E0,4.0210815E1,0E0,0E0,0E0,0E0,0E0,0E0,0E0,0E0,0E0,0E0,0E0,0E0,0E0,0E0,0E0,0E0],"parents":[2147483647,0,0,1,1,2,2,3,3,4,4,5,5,6,6,7,7,8,8,9,9,10,10,11,11,12,12,13,13,14,14],"right_children":[2,4,6,8,10,12,14,16,18,20,22,24,26,28,30,-1,-1,-1,-1,-1,-1,-1,-1,-1,-1,-1,-1,-1,-1,-1,-1],"split_conditions":[4.7502047E-1,3.7876423E1,9.581429E0,-1E-1,-4E-2,1.5552E-4,-1.6763173E-1,1.2051778E0,2E-1,-2.929E-5,9.731772E-1,-1.8964397E0,4.582857E0,1.2965714E1,1.7266945E0,-3.4042296E-3,6.3727506E-2,-3.145895E-2,-9.67133E-3,2.3866385E-2,-2.1354934E-2,3.4268837E-2,-2.1524953E-2,-4.2596135E-2,5.3471705E-4,-2.0237401E-2,3.611359E-2,-6.0793698E-2,-1.1856915E-2,2.1011537E-2,-2.860107E-2],"split_indices":[0,13,14,6,6,11,21,7,6,11,7,7,14,14,7,0,0,0,0,0,0,0,0,0,0,0,0,0,0,0,0],"split_type":[0,0,0,0,0,0,0,0,0,0,0,0,0,0,0,0,0,0,0,0,0,0,0,0,0,0,0,0,0,0,0],"sum_hessian":[2.1407256E3,1.0533591E3,1.0873663E3,9.4107385E2,1.1228534E2,6.61821E2,4.2554532E2,2.5494046E2,6.8613336E2,4.2772316E1,6.951302E1,6.036363E2,5.8184746E1,1.2991014E1,4.1255432E2,2.2380598E2,3.1134474E1,2.0050415E2,4.856292E2,1.38305435E1,2.8941772E1,6.2983387E1,6.5296392E0,2.1894754E1,5.817415E2,6.380847E0,5.1803898E1,6.9138765E0,6.077137E0,3.9812784E2,1.4426481E1],"tree_param":{"num_deleted":"0","num_feature":"22","num_nodes":"31","size_leaf_vector":"1"}},{"base_weights":[-2.0037306E-2,-2.6584682E-1,2.2319464E-1,-9.151244E-3,-5.6286305E-1,-6.7892276E-2,4.392702E-1,-1.314519E0,7.140796E-2,-6.752919E-1,5.164132E-1,-1.0151129E0,2.7783014E-2,6.8396246E-1,1.1195191E-1,-4.7584016E-2,6.484457E-4,3.827518E-2,2.0083238E-4,-2.763605E-2,-2.3010052E-3,3.6638297E-2,-4.316372E-2,-4.0235557E-2,3.204769E-2,4.287044E-2,-3.1413762E-3,-2.4493316E-2,2.2988286E-2,-6.295237E-2,6.958518E-3],"categories":[],"categories_nodes":[],"categories_segments":[],"categories_sizes":[],"default_left":[0,0,0,0,0,0,0,0,0,0,0,0,0,0,0,0,0,0,0,0,0,0,0,0,0,0,0,0,0,0,0],"id":42,"left_children":[1,3,5,7,9,11,13,15,17,19,21,23,25,27,29,-1,-1,-1,-1,-1,-1,-1,-1,-1,-1,-1,-1,-1,-1,-1,-1],"loss_changes":[1.2600175E2,7.990745E1,6.665786E1,5.9324417E1,5.9307343E1,4.100809E1,4.8630325E1,1.1934605E1,4.141462E1,6.476805E1,6.571274E1,2.9631989E1,7.658059E1,4.3579575E1,6.9805046E1,0E0,0E0,0E0,0E0,0E0,0E0,0E0,0E0,0E0,0E0,0E0,0E0,0E0,0E0,0E0,0E0],"parents":[2147483647,0,0,1,1,2,2,3,3,4,4,5,5,6,6,7,7,8,8,9,9,10,10,11,11,12,12,13,13,14,14],"right_children":[2,4,6,8,10,12,14,16,18,20,22,24,26,28,30,-1,-1,-1,-1,-1,-1,-1,-1,-1,-1,-1,-1,-1,-1,-1,-1],"split_conditions":[4.7502047E-1,-4.0527698E-1,1.0316307E-2,-1.709E-4,4.916913E0,4E1,-2.4857093E-1,1.9757903E-1,-2.304512E0,7.1E1,1.1381637E0,2.2809E-4,4.5E1,-3.5772376E0,-4.2525556E-2,-4.7584016E-2,6.484457E-4,3.827518E-2,2.0083238E-4,-2.763605E-2,-2.3010052E-3,3.6638297E-2,-4.316372E-2,-4.0235557E-2,3.204769E-2,4.287044E-2,-3.1413762E-3,-2.4493316E-2,2.2988286E-2,-6.295237E-2,6.958518E-3],"split_indices":[0,2,15,11,12,5,7,0,9,5,7,11,5,12,7,0,0,0,0,0,0,0,0,0,0,0,0,0,0,0,0],"split_type":[0,0,0,0,0,0,0,0,0,0,0,0,0,0,0,0,0,0,0,0,0,0,0,0,0,0,0,0,0,0,0],"sum_hessian":[2.1054575E3,1.0471339E3,1.0583236E3,5.622454E2,4.848885E2,4.511888E2,6.0713477E2,3.1791056E1,5.3045435E2,4.3948172E2,4.5406773E1,4.0510452E1,4.1067838E2,3.467937E2,2.6034103E2,2.6264744E1,5.526312E0,2.609352E1,5.043608E2,3.1112738E2,1.2835435E2,3.365081E1,1.17559595E1,3.533616E1,5.174293E0,3.4632324E1,3.7604605E2,1.7572138E1,3.2922156E2,1.2556916E1,2.4778412E2],"tree_param":{"num_deleted":"0","num_feature":"22","num_nodes":"31","size_leaf_vector":"1"}},{"base_weights":[2.6598068E-2,-1.6202404E-1,3.1369382E-1,-5.36767E-1,-3.1126838E-2,4.298878E-2,4.872204E-1,-9.3798095E-1,-1.9681685E-1,-1.2159044E0,1.4679724E-2,-4.073755E-2,1.1321747E0,-2.584188E-1,5.6913745E-1,1.8919714E-2,-3.4885194E-2,4.124341E-3,-2.1975003E-2,-4.0647823E-2,-9.498166E-3,-4.1253835E-2,1.4411866E-3,6.44771E-4,-3.6703564E-2,1.0344565E-2,4.5689847E-2,1.283149E-2,-2.5855148E-2,-4.7785807E-2,1.7922375E-2],"categories":[],"categories_nodes":[],"categories_segments":[],"categories_sizes":[],"default_left":[0,0,0,0,0,0,0,0,0,0,0,0,0,0,0,0,0,0,0,0,0,0,0,0,0,0,0,0,0,0,0],"id":43,"left_children":[1,3,5,7,9,11,13,15,17,19,21,23,25,27,29,-1,-1,-1,-1,-1,-1,-1,-1,-1,-1,-1,-1,-1,-1,-1,-1],"loss_changes":[1.1599537E2,6.3398544E1,3.9873344E1,4.545376E1,5.2073418E1,3.0399181E1,3.175216E1,5.4773956E1,3.2764153E1,4.0363693E0,4.2927937E1,2.2845907E1,6.7966366E0,2.1859406E1,2.9470627E1,0E0,0E0,0E0,0E0,0E0,0E0,0E0,0E0,0E0,0E0,0E0,0E0,0E0,0E0,0E0,0E0],"parents":[2147483647,0,0,1,1,2,2,3,3,4,4,5,5,6,6,7,7,8,8,9,9,10,10,11,11,12,12,13,13,14,14],"right_children":[2,4,6,8,10,12,14,16,18,20,22,24,26,28,30,-1,-1,-1,-1,-1,-1,-1,-1,-1,-1,-1,-1,-1,-1,-1,-1],"split_conditions":[4.475528E-1,-5.8886296E-1,1.0316307E-2,-1.9238359E-1,2.7092857E0,7.6E1,-6.1241734E-1,-2.93862E0,4.5279428E-1,1.3200684E2,-3.31E-4,9.925085E-3,-5.583411E-2,-1.5902177E0,-5.334328E0,1.8919714E-2,-3.4885194E-2,4.124341E-3,-2.1975003E-2,-4.0647823E-2,-9.498166E-3,-4.1253835E-2,1.4411866E-3,6.44771E-4,-3.6703564E-2,1.0344565E-2,4.5689847E-2,1.283149E-2,-2.5855148E-2,-4.7785807E-2,1.7922375E-2],"split_indices":[1,17,15,4,14,5,4,2,2,18,8,15,17,3,2,0,0,0,0,0,0,0,0,0,0,0,0,0,0,0,0],"split_type":[0,0,0,0,0,0,0,0,0,0,0,0,0,0,0,0,0,0,0,0,0,0,0,0,0,0,0,0,0,0,0],"sum_hessian":[2.1400706E3,1.2917957E3,8.4827496E2,3.336099E2,9.581857E2,3.318422E2,5.164328E2,1.5221016E2,1.8139973E2,3.4716114E1,9.234696E2,3.090481E2,2.27941E1,5.090668E1,4.6552612E2,1.8857014E1,1.3335315E2,1.121534E2,6.924633E1,2.9629087E1,5.0870275E0,2.0703833E1,9.027658E2,2.9453275E2,1.4515356E1,8.185562E0,1.4608538E1,2.3956944E1,2.694974E1,5.295324E0,4.602308E2],"tree_param":{"num_deleted":"0","num_feature":"22","num_nodes":"31","size_leaf_vector":"1"}},{"base_weights":[1.4837341E-2,-2.2905138E-1,2.515074E-1,-3.132914E-1,4.7525457E-1,-4.0074992E-1,3.7307596E-1,4.4496767E-2,-3.4946948E-1,7.864096E-1,-6.733455E-1,6.320952E-1,-6.821748E-1,-6.3003495E-2,3.9061305E-1,-1.6133165E-2,-2.7331165E-3,3.641882E-2,7.583305E-3,-3.744205E-2,1.7767675E-2,-2.518137E-2,3.862993E-2,-2.650691E-2,1.741658E-2,9.712834E-3,2.969033E-2],"categories":[],"categories_nodes":[],"categories_segments":[],"categories_sizes":[],"default_left":[0,0,0,0,0,0,0,0,0,0,0,0,0,0,0,0,0,0,0,0,0,0,0,0,0,0,0],"id":44,"left_children":[1,3,5,7,9,11,13,-1,15,17,19,21,23,-1,25,-1,-1,-1,-1,-1,-1,-1,-1,-1,-1,-1,-1],"loss_changes":[1.22888336E2,6.235965E1,8.5823494E1,6.1426598E1,4.070495E1,4.990967E1,4.0343063E1,0E0,4.4682587E1,1.9978992E1,1.855981E1,3.6743065E1,3.465369E1,0E0,3.595021E1,0E0,0E0,0E0,0E0,0E0,0E0,0E0,0E0,0E0,0E0,0E0,0E0],"parents":[2147483647,0,0,1,1,2,2,3,3,4,4,5,5,6,6,8,8,9,9,10,10,11,11,12,12,14,14],"right_children":[2,4,6,8,10,12,14,-1,16,18,20,22,24,-1,26,-1,-1,-1,-1,-1,-1,-1,-1,-1,-1,-1,-1],"split_conditions":[4.7502047E-1,3.7876423E1,7.15449E-3,1.5E1,-2.4724014E0,4.4310084E-3,-4.5001E-4,4.4496767E-2,-3.3019873E-1,0E0,1.8956E0,2.5328572E0,1.9123873E0,-6.3003495E-2,1.8306429E1,-1.6133165E-2,-2.7331165E-3,3.641882E-2,7.583305E-3,-3.744205E-2,1.7767675E-2,-2.518137E-2,3.862993E-2,-2.650691E-2,1.741658E-2,9.712834E-3,2.969033E-2],"split_indices":[0,13,15,5,0,15,11,0,4,9,16,14,19,0,14,0,0,0,0,0,0,0,0,0,0,0,0],"split_type":[0,0,0,0,0,0,0,0,0,0,0,0,0,0,0,0,0,0,0,0,0,0,0,0,0,0,0],"sum_hessian":[2.1270017E3,1.0475415E3,1.0794602E3,9.361289E2,1.1141254E2,1.6922313E2,9.102371E2,1.7689959E1,9.1843896E2,8.7912445E1,2.3500095E1,3.596896E1,1.3325417E2,5.572798E0,9.046643E2,5.3062555E2,3.878134E2,4.8099674E1,3.981277E1,1.6170675E1,7.329419E0,1.0999462E1,2.49695E1,1.1518405E2,1.8070112E1,8.152301E2,8.9434204E1],"tree_param":{"num_deleted":"0","num_feature":"22","num_nodes":"27","size_leaf_vector":"1"}},{"base_weights":[1.8768452E-2,-2.8697416E-1,2.1195392E-1,-1.127638E0,-2.060925E-1,2.4675164E-1,-1.1627928E0,-1.2503288E0,1.2170264E-2,9.4743305E-1,-3.1656665E-1,1.684419E-1,1.0812922E0,-4.863578E-2,2.1086749E-2,-4.1605953E-2,8.187972E-3,5.202541E-2,4.753309E-3,-2.6535101E-2,-3.9461367E-3,1.151549E-2,-5.226019E-3,3.6115E-2,-8.34588E-3],"categories":[],"categories_nodes":[],"categories_segments":[],"categories_sizes":[],"default_left":[0,0,0,0,0,0,0,0,0,0,0,0,0,0,0,0,0,0,0,0,0,0,0,0,0],"id":45,"left_children":[1,3,5,7,9,11,13,15,-1,17,19,21,23,-1,-1,-1,-1,-1,-1,-1,-1,-1,-1,-1,-1],"loss_changes":[1.2575676E2,5.5823776E1,6.2699738E1,1.4077332E1,9.629538E1,8.3030426E1,2.8835014E1,1.4320427E1,0E0,4.074865E1,7.220319E1,8.607074E1,1.8501137E1,0E0,0E0,0E0,0E0,0E0,0E0,0E0,0E0,0E0,0E0,0E0,0E0],"parents":[2147483647,0,0,1,1,2,2,3,3,4,4,5,5,6,6,7,7,9,9,10,10,11,11,12,12],"right_children":[2,4,6,8,10,12,14,16,-1,18,20,22,24,-1,-1,-1,-1,-1,-1,-1,-1,-1,-1,-1,-1],"split_conditions":[9.043919E-3,-2.1429987E0,1.7627766E0,1.0033134E0,-1.2506032E0,7.6328983E0,8.4558E0,3.8742363E1,1.2170264E-2,5E1,-3.5151947E-1,4.0118474E-1,1.7449023E0,-4.863578E-2,2.1086749E-2,-4.1605953E-2,8.187972E-3,5.202541E-2,4.753309E-3,-2.6535101E-2,-3.9461367E-3,1.151549E-2,-5.226019E-3,3.6115E-2,-8.34588E-3],"split_indices":[15,3,7,12,12,12,2,13,0,5,4,2,4,0,0,0,0,0,0,0,0,0,0,0,0],"split_type":[0,0,0,0,0,0,0,0,0,0,0,0,0,0,0,0,0,0,0,0,0,0,0,0,0],"sum_hessian":[2.1270942E3,8.234251E2,1.3036691E3,7.1134E1,7.522911E2,1.2722854E3,3.1383694E1,6.6034676E1,5.0993257E0,6.5088425E1,6.872027E2,1.1642399E3,1.0804548E2,2.5298807E1,6.0848866E0,6.0684784E1,5.349891E0,3.1990677E1,3.3097748E1,1.6793965E2,5.19263E2,7.1476874E2,4.4947116E2,9.92168E1,8.82868E0],"tree_param":{"num_deleted":"0","num_feature":"22","num_nodes":"25","size_leaf_vector":"1"}},{"base_weights":[2.178906E-2,-1.4579032E-1,3.7321505E-1,-5.039937E-1,-2.5979219E-2,2.9353702E-1,1.031678E0,-8.603918E-1,-1.1782592E-1,-7.945874E-1,5.260409E-2,5.743149E-1,-8.9246854E-2,-1.3748172E-2,1.1764951E0,-2.9975567E-2,1.1694495E-2,-7.863923E-3,3.128264E-2,3.736077E-2,-3.387782E-2,-1.7376207E-2,3.7014063E-3,-3.9593827E-2,1.859592E-2,-7.031692E-2,1.6084845E-4,1.4921608E-2,3.95327E-2],"categories":[],"categories_nodes":[],"categories_segments":[],"categories_sizes":[],"default_left":[0,0,0,0,0,0,0,0,0,0,0,0,0,0,0,0,0,0,0,0,0,0,0,0,0,0,0,0,0],"id":46,"left_children":[1,3,5,7,9,11,13,15,17,19,21,23,25,-1,27,-1,-1,-1,-1,-1,-1,-1,-1,-1,-1,-1,-1,-1,-1],"loss_changes":[1.25229004E2,6.178391E1,3.5718376E1,4.956275E1,6.527801E1,6.602736E1,1.6444473E1,3.2924973E1,2.9473402E1,6.984652E1,4.393123E1,3.1380898E1,5.560371E1,0E0,5.816559E0,0E0,0E0,0E0,0E0,0E0,0E0,0E0,0E0,0E0,0E0,0E0,0E0,0E0,0E0],"parents":[2147483647,0,0,1,1,2,2,3,3,4,4,5,5,6,6,7,7,8,8,9,9,10,10,11,11,12,12,14,14],"right_children":[2,4,6,8,10,12,14,16,18,20,22,24,26,-1,28,-1,-1,-1,-1,-1,-1,-1,-1,-1,-1,-1,-1,-1,-1],"split_conditions":[1.517057E0,-5.8886296E-1,5E-1,1.0010678E-1,5.0608767E-3,-2.4857093E-1,-3.7251806E-1,6.997E-5,1.7202934E0,-1.0680897E0,-1.8964397E0,6.3093635E-3,-6.892179E-2,-1.3748172E-2,2.1799831E1,-2.9975567E-2,1.1694495E-2,-7.863923E-3,3.128264E-2,3.736077E-2,-3.387782E-2,-1.7376207E-2,3.7014063E-3,-3.9593827E-2,1.859592E-2,-7.031692E-2,1.6084845E-4,1.4921608E-2,3.95327E-2],"split_indices":[0,17,6,1,15,7,9,8,16,7,7,15,7,0,13,0,0,0,0,0,0,0,0,0,0,0,0,0,0],"split_type":[0,0,0,0,0,0,0,0,0,0,0,0,0,0,0,0,0,0,0,0,0,0,0,0,0,0,0,0,0],"sum_hessian":[2.124503E3,1.4389276E3,6.855753E2,3.5985385E2,1.0790739E3,6.1286115E2,7.271416E1,1.865016E2,1.7335223E2,9.924697E1,9.7982684E2,3.5324796E2,2.596132E2,6.249695E0,6.646446E1,1.6804646E2,1.8455149E1,1.5487006E2,1.8482172E1,1.3604128E1,8.5642845E1,9.798062E1,8.8184625E2,7.6384153E0,3.4560953E2,9.497599E0,2.5011557E2,1.2223171E1,5.4241295E1],